{"learner":{"attributes":{"scikit_learn":"{\"_estimator_type\": \"classifier\"}"},"feature_names":[],"feature_types":[],"gradient_booster":{"model":{"cats":{"enc":[],"feature_segments":[],"sorted_idx":[]},"gbtree_model_param":{"num_parallel_tree":"1","num_trees":"300"},"iteration_indptr":[0,1,2,3,4,5,6,7,8,9,10,11,12,13,14,15,16,17,18,19,20,21,22,23,24,25,26,27,28,29,30,31,32,33,34,35,36,37,38,39,40,41,42,43,44,45,46,47,48,49,50,51,52,53,54,55,56,57,58,59,60,61,62,63,64,65,66,67,68,69,70,71,72,73,74,75,76,77,78,79,80,81,82,83,84,85,86,87,88,89,90,91,92,93,94,95,96,97,98,99,100,101,102,103,104,105,106,107,108,109,110,111,112,113,114,115,116,117,118,119,120,121,122,123,124,125,126,127,128,129,130,131,132,133,134,135,136,137,138,139,140,141,142,143,144,145,146,147,148,149,150,151,152,153,154,155,156,157,158,159,160,161,162,163,164,165,166,167,168,169,170,171,172,173,174,175,176,177,178,179,180,181,182,183,184,185,186,187,188,189,190,191,192,193,194,195,196,197,198,199,200,201,202,203,204,205,206,207,208,209,210,211,212,213,214,215,216,217,218,219,220,221,222,223,224,225,226,227,228,229,230,231,232,233,234,235,236,237,238,239,240,241,242,243,244,245,246,247,248,249,250,251,252,253,254,255,256,257,258,259,260,261,262,263,264,265,266,267,268,269,270,271,272,273,274,275,276,277,278,279,280,281,282,283,284,285,286,287,288,289,290,291,292,293,294,295,296,297,298,299,300],"tree_info":[0,0,0,0,0,0,0,0,0,0,0,0,0,0,0,0,0,0,0,0,0,0,0,0,0,0,0,0,0,0,0,0,0,0,0,0,0,0,0,0,0,0,0,0,0,0,0,0,0,0,0,0,0,0,0,0,0,0,0,0,0,0,0,0,0,0,0,0,0,0,0,0,0,0,0,0,0,0,0,0,0,0,0,0,0,0,0,0,0,0,0,0,0,0,0,0,0,0,0,0,0,0,0,0,0,0,0,0,0,0,0,0,0,0,0,0,0,0,0,0,0,0,0,0,0,0,0,0,0,0,0,0,0,0,0,0,0,0,0,0,0,0,0,0,0,0,0,0,0,0,0,0,0,0,0,0,0,0,0,0,0,0,0,0,0,0,0,0,0,0,0,0,0,0,0,0,0,0,0,0,0,0,0,0,0,0,0,0,0,0,0,0,0,0,0,0,0,0,0,0,0,0,0,0,0,0,0,0,0,0,0,0,0,0,0,0,0,0,0,0,0,0,0,0,0,0,0,0,0,0,0,0,0,0,0,0,0,0,0,0,0,0,0,0,0,0,0,0,0,0,0,0,0,0,0,0,0,0,0,0,0,0,0,0,0,0,0,0,0,0,0,0,0,0,0,0,0,0,0,0,0,0,0,0,0,0,0,0,0,0,0,0,0,0,0,0,0,0,0,0],"trees":[{"base_weights":[1.1118214E-3,1.0134554E0,-1.0024352E0,1.4254133E0,4.8761275E-1,-1.5436754E-1,-1.4135678E0,1.4523271E0,-1.7426901E0,5.908154E-1,-1.7367668E0,2.413728E-2,-1.7302248E0,-8.764733E-1,-1.6102875E0,1.3078672E-1,9.748514E-2,-1.426506E-1,-1.7777778E-2,6.5941684E-2,2.0337224E-2,-1.401156E-1,-1.4545455E-2,5.221347E-2,-2.208049E-2,-1.4058119E-1,-5.0285716E-2,-4.314494E-2,-1.4420207E-1,-1.0050306E-1,-1.343914E-1],"categories":[],"categories_nodes":[],"categories_segments":[],"categories_sizes":[],"default_left":[0,0,0,0,0,0,0,0,0,0,0,0,0,0,0,0,0,0,0,0,0,0,0,0,0,0,0,0,0,0,0],"id":0,"left_children":[1,3,5,7,9,11,13,15,17,19,21,23,25,27,29,-1,-1,-1,-1,-1,-1,-1,-1,-1,-1,-1,-1,-1,-1,-1,-1],"loss_changes":[1.8276154E4,1.93929E3,3.1496504E3,4.3065137E2,9.0446716E2,8.300822E2,6.414336E2,2.1043945E2,2.2325134E0,2.953933E2,3.670044E0,5.0038422E2,7.8395386E0,5.0897632E2,1.07586914E2,0E0,0E0,0E0,0E0,0E0,0E0,0E0,0E0,0E0,0E0,0E0,0E0,0E0,0E0,0E0,0E0],"parents":[2147483647,0,0,1,1,2,2,3,3,4,4,5,5,6,6,7,7,8,8,9,9,10,10,11,11,12,12,13,13,14,14],"right_children":[2,4,6,8,10,12,14,16,18,20,22,24,26,28,30,-1,-1,-1,-1,-1,-1,-1,-1,-1,-1,-1,-1,-1,-1,-1,-1],"split_conditions":[1.9925232E0,1.0605164E0,1.049393E0,1E0,1E0,1E0,3.738861E0,7.6138306E-1,3.7013032E0,1.4073961E0,5.440674E0,1.2000122E0,1.1481476E1,1E0,1.6518509E0,1.3078672E-1,9.748514E-2,-1.426506E-1,-1.7777778E-2,6.5941684E-2,2.0337224E-2,-1.401156E-1,-1.4545455E-2,5.221347E-2,-2.208049E-2,-1.4058119E-1,-5.0285716E-2,-4.314494E-2,-1.4420207E-1,-1.0050306E-1,-1.343914E-1],"split_indices":[3,3,1,6,6,6,3,3,1,4,10,4,3,6,4,0,0,0,0,0,0,0,0,0,0,0,0,0,0,0,0],"split_type":[0,0,0,0,0,0,0,0,0,0,0,0,0,0,0,0,0,0,0,0,0,0,0,0,0,0,0,0,0,0,0],"sum_hessian":[1.79875E4,8.9545E3,9.033E3,5.02E3,3.9345E3,2.94975E3,6.08325E3,4.97825E3,4.175E1,3.76075E3,1.7375E2,2.6505E3,2.9925E2,1.63225E3,4.451E3,2.79225E3,2.186E3,4.05E1,1.25E0,2.21975E3,1.541E3,1.72E2,1.75E0,8.5625E2,1.79425E3,2.915E2,7.75E0,1.19775E3,4.345E2,7.345E2,3.7165E3],"tree_param":{"num_deleted":"0","num_feature":"11","num_nodes":"31","size_leaf_vector":"1"}},{"base_weights":[6.742473E-3,9.6350867E-1,-9.556786E-1,1.3492609E0,4.0609592E-1,-2.0239353E-2,-1.3888043E0,1.5533429E0,1.1430739E0,5.136992E-1,-1.6026974E0,1.5372993E-1,-1.599186E0,-8.358509E-1,-1.5125767E0,1.3139103E-1,1.0254012E-1,9.254514E-2,-1.1204792E-1,6.0647953E-2,4.1207797E-3,-1.3485795E-1,2.8057013E-2,6.007976E-2,-1.6154172E-2,-1.3646309E-1,-9.9293284E-2,-5.2811522E-2,-1.310737E-1,-1.2250458E-1,6.565435E-2],"categories":[],"categories_nodes":[],"categories_segments":[],"categories_sizes":[],"default_left":[0,0,0,0,0,0,0,0,0,0,0,0,0,0,0,0,0,0,0,0,0,0,0,0,0,0,0,0,0,0,0],"id":1,"left_children":[1,3,5,7,9,11,13,15,17,19,21,23,25,27,29,-1,-1,-1,-1,-1,-1,-1,-1,-1,-1,-1,-1,-1,-1,-1,-1],"loss_changes":[1.6519736E4,1.9339375E3,3.6236567E3,2.2194238E2,7.964882E2,7.7804083E2,4.1712598E2,6.2445312E1,9.4186035E1,3.9471222E2,3.0984253E1,5.421361E2,8.611572E0,1.569049E2,2.1950488E2,0E0,0E0,0E0,0E0,0E0,0E0,0E0,0E0,0E0,0E0,0E0,0E0,0E0,0E0,0E0,0E0],"parents":[2147483647,0,0,1,1,2,2,3,3,4,4,5,5,6,6,7,7,8,8,9,9,10,10,11,11,12,12,13,13,14,14],"right_children":[2,4,6,8,10,12,14,16,18,20,22,24,26,28,30,-1,-1,-1,-1,-1,-1,-1,-1,-1,-1,-1,-1,-1,-1,-1,-1],"split_conditions":[3.0073282E2,1.3405762E0,2.4664612E0,8.078613E-1,1E0,1E0,9.40345E-1,2.8814484E2,1E0,9.553136E-1,2.8835064E-2,1.157135E0,3.220611E2,1E0,4.8329268E0,1.3139103E-1,1.0254012E-1,9.254514E-2,-1.1204792E-1,6.0647953E-2,4.1207797E-3,-1.3485795E-1,2.8057013E-2,6.007976E-2,-1.6154172E-2,-1.3646309E-1,-9.9293284E-2,-5.2811522E-2,-1.310737E-1,-1.2250458E-1,6.565435E-2],"split_indices":[0,3,3,3,6,6,1,0,6,1,8,3,0,6,9,0,0,0,0,0,0,0,0,0,0,0,0,0,0,0,0],"split_type":[0,0,0,0,0,0,0,0,0,0,0,0,0,0,0,0,0,0,0,0,0,0,0,0,0,0,0,0,0,0,0],"sum_hessian":[1.7938404E4,8.99563E3,8.942775E3,5.315598E3,3.6800312E3,2.830556E3,6.112219E3,2.6681526E3,2.6474456E3,3.493635E3,1.8639621E2,2.5504487E3,2.8010733E2,1.1193357E3,4.992884E3,2.0055563E3,6.625963E2,2.6337637E3,1.3681799E1,2.284813E3,1.2088219E3,1.7892815E2,7.4680643E0,9.514816E2,1.598967E3,2.1293892E2,6.716842E1,9.197887E2,1.9954697E2,4.953463E3,3.9420895E1],"tree_param":{"num_deleted":"0","num_feature":"11","num_nodes":"31","size_leaf_vector":"1"}},{"base_weights":[-3.5032176E-3,8.867288E-1,-8.881234E-1,1.2244239E0,3.2798418E-1,-1.563261E-2,-1.2855996E0,1.4158686E0,9.7452456E-1,4.313258E-1,-1.5126398E0,1.4400548E-1,-1.4915384E0,-7.99642E-1,-1.409334E0,1.21104546E-1,9.167949E-2,7.925301E-2,-1.0572775E-1,5.2751176E-2,2.1441637E-3,-1.7591907E-3,-1.2801382E-1,5.4192416E-2,-1.4333288E-2,-1.2687546E-1,-9.115158E-2,-5.0512273E-2,-1.2300987E-1,-1.1417693E-1,5.7465002E-2],"categories":[],"categories_nodes":[],"categories_segments":[],"categories_sizes":[],"default_left":[0,0,0,0,0,0,0,0,0,0,0,0,0,0,0,0,0,0,0,0,0,0,0,0,0,0,0,0,0,0,0],"id":2,"left_children":[1,3,5,7,9,11,13,15,17,19,21,23,25,27,29,-1,-1,-1,-1,-1,-1,-1,-1,-1,-1,-1,-1,-1,-1,-1,-1],"loss_changes":[1.4049108E4,1.6773257E3,3.1031216E3,2.6374805E2,6.38041E2,6.603006E2,3.6851758E2,8.114453E1,9.0504395E1,2.9276654E2,2.3237091E1,4.36079E2,7.286621E0,1.542149E2,1.8735449E2,0E0,0E0,0E0,0E0,0E0,0E0,0E0,0E0,0E0,0E0,0E0,0E0,0E0,0E0,0E0,0E0],"parents":[2147483647,0,0,1,1,2,2,3,3,4,4,5,5,6,6,7,7,8,8,9,9,10,10,11,11,12,12,13,13,14,14],"right_children":[2,4,6,8,10,12,14,16,18,20,22,24,26,28,30,-1,-1,-1,-1,-1,-1,-1,-1,-1,-1,-1,-1,-1,-1,-1,-1],"split_conditions":[3.0073282E2,1.4453735E0,2.4299927E0,8.88916E-1,1E0,1E0,1.02245E0,2.8814484E2,1E0,9.553136E-1,8.370376E1,1.157135E0,3.2262512E2,1E0,4.8329268E0,1.21104546E-1,9.167949E-2,7.925301E-2,-1.0572775E-1,5.2751176E-2,2.1441637E-3,-1.7591907E-3,-1.2801382E-1,5.4192416E-2,-1.4333288E-2,-1.2687546E-1,-9.115158E-2,-5.0512273E-2,-1.2300987E-1,-1.1417693E-1,5.7465002E-2],"split_indices":[0,3,3,3,6,6,1,0,6,1,5,3,0,6,9,0,0,0,0,0,0,0,0,0,0,0,0,0,0,0,0],"split_type":[0,0,0,0,0,0,0,0,0,0,0,0,0,0,0,0,0,0,0,0,0,0,0,0,0,0,0,0,0,0,0],"sum_hessian":[1.7837746E4,8.890671E3,8.947075E3,5.5407515E3,3.3499197E3,2.8005942E3,6.1464805E3,3.1346611E3,2.4060906E3,3.1725623E3,1.7735747E2,2.5280552E3,2.725391E2,1.2489164E3,4.8975645E3,2.2966077E3,8.3805334E2,2.389862E3,1.6228424E1,2.02837E3,1.1441924E3,9.906436E0,1.6745103E2,9.53384E2,1.5746713E3,2.1215863E2,6.0380447E1,1.0185677E3,2.303487E2,4.8570815E3,4.04829E1],"tree_param":{"num_deleted":"0","num_feature":"11","num_nodes":"31","size_leaf_vector":"1"}},{"base_weights":[-3.4356806E-3,8.2225275E-1,-8.283217E-1,1.1467228E0,2.9861018E-1,-2.6859067E-2,-1.2052053E0,1.3249769E0,9.114428E-1,3.9154047E-1,-1.3998277E0,1.2192566E-1,-1.4021103E0,-7.1584016E-1,-1.3169451E0,1.1368872E-1,8.516048E-2,8.379313E-2,4.800563E-2,5.7880625E-2,1.0084928E-2,-1.18908495E-1,4.361584E-2,4.908768E-2,-1.5205571E-2,-1.20242156E-1,-8.511029E-2,-4.4695005E-2,-1.1563998E-1,-1.0666159E-1,5.903408E-2],"categories":[],"categories_nodes":[],"categories_segments":[],"categories_sizes":[],"default_left":[0,0,0,0,0,0,0,0,0,0,0,0,0,0,0,0,0,0,0,0,0,0,0,0,0,0,0,0,0,0,0],"id":3,"left_children":[1,3,5,7,9,11,13,15,17,19,21,23,25,27,29,-1,-1,-1,-1,-1,-1,-1,-1,-1,-1,-1,-1,-1,-1,-1,-1],"loss_changes":[1.203798E4,1.5004204E3,2.6706064E3,2.2749951E2,5.341338E2,5.7900806E2,3.2788965E2,7.6120605E1,9.902771E1,2.8245743E2,3.0362915E1,3.9184167E2,7.8303223E0,1.2762732E2,1.651709E2,0E0,0E0,0E0,0E0,0E0,0E0,0E0,0E0,0E0,0E0,0E0,0E0,0E0,0E0,0E0,0E0],"parents":[2147483647,0,0,1,1,2,2,3,3,4,4,5,5,6,6,7,7,8,8,9,9,10,10,11,11,12,12,13,13,14,14],"right_children":[2,4,6,8,10,12,14,16,18,20,22,24,26,28,30,-1,-1,-1,-1,-1,-1,-1,-1,-1,-1,-1,-1,-1,-1,-1,-1],"split_conditions":[3.0073282E2,1.4288025E0,2.4664612E0,8.88916E-1,1E0,1E0,9.40345E-1,2.8814484E2,2.918604E2,2.8874634E2,2.8835064E-2,1.1942139E0,3.220611E2,1E0,4.8329268E0,1.1368872E-1,8.516048E-2,8.379313E-2,4.800563E-2,5.7880625E-2,1.0084928E-2,-1.18908495E-1,4.361584E-2,4.908768E-2,-1.5205571E-2,-1.20242156E-1,-8.511029E-2,-4.4695005E-2,-1.1563998E-1,-1.0666159E-1,5.903408E-2],"split_indices":[0,3,3,3,6,6,1,0,0,0,8,3,0,6,9,0,0,0,0,0,0,0,0,0,0,0,0,0,0,0,0],"split_type":[0,0,0,0,0,0,0,0,0,0,0,0,0,0,0,0,0,0,0,0,0,0,0,0,0,0,0,0,0,0,0],"sum_hessian":[1.7672354E4,8.831883E3,8.840471E3,5.452255E3,3.3796274E3,2.8278892E3,6.012581E3,3.099422E3,2.3528328E3,3.205033E3,1.7459439E2,2.5526377E3,2.7525165E2,1.1190585E3,4.8935225E3,2.260633E3,8.387891E2,1.6360372E3,7.167954E2,1.4234094E3,1.7816237E3,1.6738379E2,7.2106037E0,9.905977E2,1.5620399E3,2.0934622E2,6.590542E1,9.22202E2,1.9685637E2,4.8553013E3,3.822134E1],"tree_param":{"num_deleted":"0","num_feature":"11","num_nodes":"31","size_leaf_vector":"1"}},{"base_weights":[2.5507943E-3,7.739094E-1,-7.651031E-1,9.999715E-1,2.785029E-1,-1.5199637E-1,-1.1278979E0,1.1056716E0,4.6647313E-1,4.776341E-1,-5.610338E-1,-8.766936E-3,-1.3836659E0,-1.1466349E0,8.257137E-1,9.52623E-2,5.866697E-2,4.386678E-2,-1.0212032E-1,4.073863E-2,-1.0714475E-1,-3.0933892E-2,-1.159999E-1,-6.2620216E-3,1.0067257E-1,-1.1367256E-1,-5.2959953E-2,-8.032574E-2,-1.09109685E-1,9.3304105E-2,-2.6698386E-2],"categories":[],"categories_nodes":[],"categories_segments":[],"categories_sizes":[],"default_left":[0,0,0,0,0,0,0,0,0,0,0,0,0,0,0,0,0,0,0,0,0,0,0,0,0,0,0,0,0,0,0],"id":4,"left_children":[1,3,5,7,9,11,13,15,17,19,21,23,25,27,29,-1,-1,-1,-1,-1,-1,-1,-1,-1,-1,-1,-1,-1,-1,-1,-1],"loss_changes":[1.0302297E4,9.716294E2,1.93948E3,3.354995E2,4.5509485E2,5.720759E2,2.0147998E2,1.5670117E2,1.4153969E2,1.26966064E2,8.035716E1,2.5606512E2,8.13855E0,1.6669287E2,2.1170265E1,0E0,0E0,0E0,0E0,0E0,0E0,0E0,0E0,0E0,0E0,0E0,0E0,0E0,0E0,0E0,0E0],"parents":[2147483647,0,0,1,1,2,2,3,3,4,4,5,5,6,6,7,7,8,8,9,9,10,10,11,11,12,12,13,13,14,14],"right_children":[2,4,6,8,10,12,14,16,18,20,22,24,26,28,30,-1,-1,-1,-1,-1,-1,-1,-1,-1,-1,-1,-1,-1,-1,-1,-1],"split_conditions":[3.005E2,1.3666687E0,1.049393E0,1.0347905E0,1.298264E0,1E0,4.8329268E0,2.918604E2,1E0,1E0,1E0,4.735E2,1.0544453E1,3.4684732E2,3.945833E1,9.52623E-2,5.866697E-2,4.386678E-2,-1.0212032E-1,4.073863E-2,-1.0714475E-1,-3.0933892E-2,-1.159999E-1,-6.2620216E-3,1.0067257E-1,-1.1367256E-1,-5.2959953E-2,-8.032574E-2,-1.09109685E-1,9.3304105E-2,-2.6698386E-2],"split_indices":[0,4,1,1,1,6,9,0,6,6,6,0,4,0,5,0,0,0,0,0,0,0,0,0,0,0,0,0,0,0,0],"split_type":[0,0,0,0,0,0,0,0,0,0,0,0,0,0,0,0,0,0,0,0,0,0,0,0,0,0,0,0,0,0,0],"sum_hessian":[1.7396518E4,8.677316E3,8.719202E3,5.957701E3,2.7196152E3,3.241921E3,5.477281E3,4.9716196E3,9.860819E2,2.1985647E3,5.210504E2,2.9050974E3,3.3682333E2,5.4256562E3,5.1624573E1,4.0448594E3,9.2675995E2,9.425013E2,4.3580624E1,2.1616902E3,3.687462E1,4.3681012E2,8.424027E1,2.75492E3,1.5017747E2,3.1937338E2,1.7449968E1,3.2792444E3,2.1464119E3,3.989845E1,1.1726122E1],"tree_param":{"num_deleted":"0","num_feature":"11","num_nodes":"31","size_leaf_vector":"1"}},{"base_weights":[-1.210048E-3,7.1941644E-1,-7.209181E-1,1.0293772E0,3.4156218E-1,-1.7795004E-1,-1.0510852E0,1.1922724E0,8.390631E-1,5.9146994E-1,1.2663807E-1,2.9876575E-1,-4.1354573E-1,-6.0470617E-1,-1.1952966E0,9.909464E-2,4.7643226E-2,7.339105E-2,9.660927E-3,5.6052726E-2,1.7095735E-2,2.3382664E-2,-1.3228499E-2,5.466483E-2,8.952879E-3,-9.774745E-3,-4.8685208E-2,-6.2292293E-2,1.6265783E-2,-7.263949E-2,-9.9940754E-2],"categories":[],"categories_nodes":[],"categories_segments":[],"categories_sizes":[],"default_left":[0,0,0,0,0,0,0,0,0,0,0,0,0,0,0,0,0,0,0,0,0,0,0,0,0,0,0,0,0,0,0],"id":5,"left_children":[1,3,5,7,9,11,13,15,17,19,21,23,25,27,29,-1,-1,-1,-1,-1,-1,-1,-1,-1,-1,-1,-1,-1,-1,-1,-1],"loss_changes":[8.92783E3,1.0070513E3,1.5437666E3,1.4547314E2,2.082015E2,3.6602643E2,3.4402832E2,6.970068E1,1.2267114E2,7.379535E1,1.009451E2,7.739131E1,1.2384003E2,1.842492E2,6.160547E1,0E0,0E0,0E0,0E0,0E0,0E0,0E0,0E0,0E0,0E0,0E0,0E0,0E0,0E0,0E0,0E0],"parents":[2147483647,0,0,1,1,2,2,3,3,4,4,5,5,6,6,7,7,8,8,9,9,10,10,11,11,12,12,13,13,14,14],"right_children":[2,4,6,8,10,12,14,16,18,20,22,24,26,28,30,-1,-1,-1,-1,-1,-1,-1,-1,-1,-1,-1,-1,-1,-1,-1,-1],"split_conditions":[1.9925232E0,1.0605164E0,1.2192551E0,7.5250244E-1,1.02221E0,1.3111234E0,3.6093445E0,9.4485474E-1,2.2999878E0,5.7092285E-1,7.8637064E-1,2.0361379E-2,5.253306E-1,1.4609765E-2,1.5098832E0,9.909464E-2,4.7643226E-2,7.339105E-2,9.660927E-3,5.6052726E-2,1.7095735E-2,2.3382664E-2,-1.3228499E-2,5.466483E-2,8.952879E-3,-9.774745E-3,-4.8685208E-2,-6.2292293E-2,1.6265783E-2,-7.263949E-2,-9.9940754E-2],"split_indices":[3,3,1,3,4,4,3,10,4,10,1,9,1,8,4,0,0,0,0,0,0,0,0,0,0,0,0,0,0,0,0],"split_type":[0,0,0,0,0,0,0,0,0,0,0,0,0,0,0,0,0,0,0,0,0,0,0,0,0,0,0,0,0,0,0],"sum_hessian":[1.7211902E4,8.600464E3,8.611438E3,4.723756E3,3.8767085E3,3.2569092E3,5.3545293E3,2.5423892E3,2.1813665E3,1.7916621E3,2.0850464E3,1.0771279E3,2.1797812E3,1.3087466E3,4.045783E3,2.3579265E3,1.8446275E2,1.9666428E3,2.1472372E2,1.3892634E3,4.0239862E2,1.3303514E3,7.5469507E2,3.5136545E2,7.2576245E2,8.7465784E2,1.3051234E3,1.0769447E3,2.318019E2,6.425599E2,3.4032231E3],"tree_param":{"num_deleted":"0","num_feature":"11","num_nodes":"31","size_leaf_vector":"1"}},{"base_weights":[-5.507084E-4,6.795044E-1,-6.897948E-1,9.949191E-1,2.850967E-1,-7.4499875E-2,-1.0569948E0,1.1301422E0,7.5525826E-1,4.779323E-1,-1.625064E-1,3.7067795E-1,-3.7310073E-1,-4.1200808E-1,-1.1161306E0,9.969961E-2,7.55741E-2,6.5485254E-2,2.1428432E-2,6.3727394E-2,2.0941278E-2,1.0573902E-2,-4.4542328E-2,2.0692844E-2,1.122644E-1,-3.1798366E-2,7.944099E-2,-1.4605191E-2,-7.334342E-2,-9.030484E-2,4.268078E-2],"categories":[],"categories_nodes":[],"categories_segments":[],"categories_sizes":[],"default_left":[0,0,0,0,0,0,0,0,0,0,0,0,0,0,0,0,0,0,0,0,0,0,0,0,0,0,0,0,0,0,0],"id":6,"left_children":[1,3,5,7,9,11,13,15,17,19,21,23,25,27,29,-1,-1,-1,-1,-1,-1,-1,-1,-1,-1,-1,-1,-1,-1,-1,-1],"loss_changes":[7.9560044E3,1.0625857E3,1.9045474E3,1.5298242E2,3.2789017E2,4.190947E2,2.0089893E2,6.412549E1,5.2707214E1,1.8265106E2,1.330228E2,1.4605443E2,6.323654E1,5.1367744E1,1.01743164E2,0E0,0E0,0E0,0E0,0E0,0E0,0E0,0E0,0E0,0E0,0E0,0E0,0E0,0E0,0E0,0E0],"parents":[2147483647,0,0,1,1,2,2,3,3,4,4,5,5,6,6,7,7,8,8,9,9,10,10,11,11,12,12,13,13,14,14],"right_children":[2,4,6,8,10,12,14,16,18,20,22,24,26,28,30,-1,-1,-1,-1,-1,-1,-1,-1,-1,-1,-1,-1,-1,-1,-1,-1],"split_conditions":[3.0073282E2,1.2862854E0,2.8069458E0,2.8814484E2,1.1297349E0,1.3405762E0,5.253306E-1,8.244324E-1,2.504949E0,9.222175E-1,1.6518509E0,4.0969916E2,4.2571964E0,4.638672E-1,4.8329268E0,9.969961E-2,7.55741E-2,6.5485254E-2,2.1428432E-2,6.3727394E-2,2.0941278E-2,1.0573902E-2,-4.4542328E-2,2.0692844E-2,1.122644E-1,-3.1798366E-2,7.944099E-2,-1.4605191E-2,-7.334342E-2,-9.030484E-2,4.268078E-2],"split_indices":[0,3,3,0,1,3,1,3,4,4,4,0,9,10,9,0,0,0,0,0,0,0,0,0,0,0,0,0,0,0,0],"split_type":[0,0,0,0,0,0,0,0,0,0,0,0,0,0,0,0,0,0,0,0,0,0,0,0,0,0,0,0,0,0,0],"sum_hessian":[1.6971752E4,8.542829E3,8.428923E3,4.7459155E3,3.796914E3,3.1506956E3,5.278227E3,3.0316575E3,1.7142579E3,2.6536187E3,1.1432952E3,1.2647961E3,1.8858995E3,4.4396097E2,4.834266E3,1.8609624E3,1.1706952E3,1.5165924E3,1.9766553E2,1.0714552E3,1.5821636E3,6.546633E2,4.8863187E2,1.1421486E3,1.2264756E2,1.8535316E3,3.236801E1,3.0616116E2,1.3779982E2,4.7977046E3,3.65619E1],"tree_param":{"num_deleted":"0","num_feature":"11","num_nodes":"31","size_leaf_vector":"1"}},{"base_weights":[-2.6841692E-3,6.0295856E-1,-6.796399E-1,8.604734E-1,1.1734334E-1,-1.22679435E-1,-1.0287725E0,1.0592613E0,6.5624946E-1,2.121454E-1,-1.2499716E0,2.7219497E-2,-1.2297221E0,-8.581957E-1,-1.185224E0,9.248587E-2,6.5596215E-2,5.4039214E-2,-1.0451269E-1,4.2902745E-2,-1.0356394E-3,-1.0916935E-1,-1.6389886E-2,7.158396E-2,-8.601325E-3,-1.1033698E-1,-7.509153E-2,-4.6996154E-2,-1.0381113E-1,-9.61717E-2,-4.684943E-3],"categories":[],"categories_nodes":[],"categories_segments":[],"categories_sizes":[],"default_left":[0,0,0,0,0,0,0,0,0,0,0,0,0,0,0,0,0,0,0,0,0,0,0,0,0,0,0,0,0,0,0],"id":7,"left_children":[1,3,5,7,9,11,13,15,17,19,21,23,25,27,29,-1,-1,-1,-1,-1,-1,-1,-1,-1,-1,-1,-1,-1,-1,-1,-1],"loss_changes":[6.848567E3,1.1024209E3,1.5336548E3,2.3319092E2,3.964346E2,5.045685E2,1.2836914E2,6.665161E1,1.08293335E2,2.0860007E2,2.3481232E1,3.1322983E2,1.4483765E1,2.7562744E2,4.809375E1,0E0,0E0,0E0,0E0,0E0,0E0,0E0,0E0,0E0,0E0,0E0,0E0,0E0,0E0,0E0,0E0],"parents":[2147483647,0,0,1,1,2,2,3,3,4,4,5,5,6,6,7,7,8,8,9,9,10,10,11,11,12,12,13,13,14,14],"right_children":[2,4,6,8,10,12,14,16,18,20,22,24,26,28,30,-1,-1,-1,-1,-1,-1,-1,-1,-1,-1,-1,-1,-1,-1,-1,-1],"split_conditions":[3.0260483E2,1.6402893E0,3.0003052E0,8.9727783E-1,1E0,1E0,3.3735458E2,2.8814484E2,1E0,2.8874634E2,2.1914648E-2,7.3269653E-1,3.2151846E2,1E0,3.8488455E0,9.248587E-2,6.5596215E-2,5.4039214E-2,-1.0451269E-1,4.2902745E-2,-1.0356394E-3,-1.0916935E-1,-1.6389886E-2,7.158396E-2,-8.601325E-3,-1.1033698E-1,-7.509153E-2,-4.6996154E-2,-1.0381113E-1,-9.61717E-2,-4.684943E-3],"split_indices":[0,3,3,3,6,6,0,0,6,0,8,3,0,6,9,0,0,0,0,0,0,0,0,0,0,0,0,0,0,0,0],"split_type":[0,0,0,0,0,0,0,0,0,0,0,0,0,0,0,0,0,0,0,0,0,0,0,0,0,0,0,0,0,0,0],"sum_hessian":[1.6702096E4,8.815427E3,7.8866685E3,5.760136E3,3.0552903E3,3.0393843E3,4.847284E3,2.9167944E3,2.843342E3,2.8579788E3,1.9731161E2,2.677776E3,3.6160837E2,2.322061E3,2.5252231E3,2.07395E3,8.4284436E2,2.8163877E3,2.6954388E1,1.1707191E3,1.6872596E3,1.7753105E2,1.9780556E1,3.5920096E2,2.318575E3,2.3644041E2,1.25167946E2,1.4382705E3,8.8379047E2,2.48779E3,3.743331E1],"tree_param":{"num_deleted":"0","num_feature":"11","num_nodes":"31","size_leaf_vector":"1"}},{"base_weights":[-1.0994095E-3,5.988968E-1,-6.015643E-1,9.271168E-1,2.9460043E-1,-1.8734574E-2,-9.2441064E-1,1.0480533E0,6.8747795E-1,3.52364E-1,-1.1782686E0,1.0270901E-1,-1.1860087E0,-6.480477E-1,-1.044453E0,9.447678E-2,7.645255E-2,5.630897E-2,-1.1941049E-1,4.158458E-2,5.9333527E-3,-1.0373187E-1,5.9001464E-3,6.428669E-2,-1.6386815E-3,-1.0362829E-1,-6.564858E-2,-3.2365628E-2,-9.930232E-2,-5.80878E-2,-8.9360096E-2],"categories":[],"categories_nodes":[],"categories_segments":[],"categories_sizes":[],"default_left":[0,0,0,0,0,0,0,0,0,0,0,0,0,0,0,0,0,0,0,0,0,0,0,0,0,0,0,0,0,0,0],"id":8,"left_children":[1,3,5,7,9,11,13,15,17,19,21,23,25,27,29,-1,-1,-1,-1,-1,-1,-1,-1,-1,-1,-1,-1,-1,-1,-1,-1],"loss_changes":[5.916236E3,8.2009863E2,1.5443386E3,1.13788086E2,3.6316718E2,4.150106E2,1.7454639E2,3.1094727E1,4.848987E1,1.9111682E2,2.3978363E1,2.2898445E2,9.95993E0,2.3090125E2,8.4197754E1,0E0,0E0,0E0,0E0,0E0,0E0,0E0,0E0,0E0,0E0,0E0,0E0,0E0,0E0,0E0,0E0],"parents":[2147483647,0,0,1,1,2,2,3,3,4,4,5,5,6,6,7,7,8,8,9,9,10,10,11,11,12,12,13,13,14,14],"right_children":[2,4,6,8,10,12,14,16,18,20,22,24,26,28,30,-1,-1,-1,-1,-1,-1,-1,-1,-1,-1,-1,-1,-1,-1,-1,-1],"split_conditions":[3.005E2,1.133728E0,2.5611267E0,2.8814484E2,1E0,1E0,4.2808228E0,6.501465E-1,1E0,2.918604E2,2.1914648E-2,7.6138306E-1,3.2317407E2,1E0,3.172962E2,9.447678E-2,7.645255E-2,5.630897E-2,-1.1941049E-1,4.158458E-2,5.9333527E-3,-1.0373187E-1,5.9001464E-3,6.428669E-2,-1.6386815E-3,-1.0362829E-1,-6.564858E-2,-3.2365628E-2,-9.930232E-2,-5.80878E-2,-8.9360096E-2],"split_indices":[0,3,3,0,6,6,3,3,6,0,8,3,0,6,0,0,0,0,0,0,0,0,0,0,0,0,0,0,0,0,0],"split_type":[0,0,0,0,0,0,0,0,0,0,0,0,0,0,0,0,0,0,0,0,0,0,0,0,0,0,0,0,0,0,0],"sum_hessian":[1.6419371E4,8.212892E3,8.2064795E3,3.9501436E3,4.2627485E3,2.9257407E3,5.2807383E3,2.623029E3,1.3271144E3,4.1026113E3,1.6013712E2,2.650857E3,2.74884E2,1.6010902E3,3.6796482E3,1.0708673E3,1.5521617E3,1.3178872E3,9.227154E0,2.560569E3,1.5420422E3,1.4627138E2,1.3865747E1,3.9545972E2,2.2553972E3,2.0961311E2,6.527088E1,1.1363748E3,4.6471542E2,6.8495197E2,2.9946963E3],"tree_param":{"num_deleted":"0","num_feature":"11","num_nodes":"31","size_leaf_vector":"1"}},{"base_weights":[-8.252833E-4,5.3101474E-1,-6.0268486E-1,8.3062035E-1,1.9461334E-1,-8.3129995E-2,-9.0994614E-1,9.7003216E-1,6.113023E-1,2.6489705E-1,-1.1569208E0,3.720766E-2,-1.1109704E0,-8.068474E-1,-1.2048317E0,8.708008E-2,6.3150644E-2,5.3204462E-2,-1.4467282E-2,4.312717E-2,5.0062793E-3,-9.948818E-2,-2.4140984E-2,6.2138665E-2,-7.2275964E-3,-1.00433044E-1,-6.357896E-2,-3.87615E-2,-8.407996E-2,-9.987781E-2,-4.9192794E-2],"categories":[],"categories_nodes":[],"categories_segments":[],"categories_sizes":[],"default_left":[0,0,0,0,0,0,0,0,0,0,0,0,0,0,0,0,0,0,0,0,0,0,0,0,0,0,0,0,0,0,0],"id":9,"left_children":[1,3,5,7,9,11,13,15,17,19,21,23,25,27,29,-1,-1,-1,-1,-1,-1,-1,-1,-1,-1,-1,-1,-1,-1,-1,-1],"loss_changes":[5.1509727E3,8.608679E2,1.2050579E3,1.3755664E2,3.827093E2,3.4717154E2,1.4324487E2,5.82229E1,7.500403E1,2.1229376E2,1.4389587E1,2.3714833E2,1.2439514E1,2.7633154E2,3.0816406E1,0E0,0E0,0E0,0E0,0E0,0E0,0E0,0E0,0E0,0E0,0E0,0E0,0E0,0E0,0E0,0E0],"parents":[2147483647,0,0,1,1,2,2,3,3,4,4,5,5,6,6,7,7,8,8,9,9,10,10,11,11,12,12,13,13,14,14],"right_children":[2,4,6,8,10,12,14,16,18,20,22,24,26,28,30,-1,-1,-1,-1,-1,-1,-1,-1,-1,-1,-1,-1,-1,-1,-1,-1],"split_conditions":[3.0260483E2,1.2862854E0,2.8069458E0,2.8814484E2,1E0,1E0,1E0,8.244324E-1,3.6074061E0,1.02221E0,2.1914648E-2,7.6138306E-1,3.220611E2,3.381989E2,1.1481476E1,8.708008E-2,6.3150644E-2,5.3204462E-2,-1.4467282E-2,4.312717E-2,5.0062793E-3,-9.948818E-2,-2.4140984E-2,6.2138665E-2,-7.2275964E-3,-1.00433044E-1,-6.357896E-2,-3.87615E-2,-8.407996E-2,-9.987781E-2,-4.9192794E-2],"split_indices":[0,3,3,0,6,6,6,3,4,4,8,3,0,0,3,0,0,0,0,0,0,0,0,0,0,0,0,0,0,0,0],"split_type":[0,0,0,0,0,0,0,0,0,0,0,0,0,0,0,0,0,0,0,0,0,0,0,0,0,0,0,0,0,0,0],"sum_hessian":[1.6090112E4,8.541998E3,7.5481147E3,4.5173174E3,4.0246802E3,2.8055015E3,4.742614E3,2.7596772E3,1.7576404E3,3.8264954E3,1.9818494E2,2.5123267E3,2.9317477E2,3.5167969E3,1.2258168E3,1.6636422E3,1.0960349E3,1.6460992E3,1.1154106E2,1.6239583E3,2.202537E3,1.7953271E2,1.8652222E1,3.688302E2,2.1434963E3,1.9921252E2,9.3962234E1,1.517019E3,1.9997778E3,1.1403408E3,8.547598E1],"tree_param":{"num_deleted":"0","num_feature":"11","num_nodes":"31","size_leaf_vector":"1"}},{"base_weights":[-3.336173E-3,5.783764E-1,-4.8838857E-1,8.809891E-1,3.1677955E-1,1.2061976E-2,-8.317745E-1,1.0773007E0,7.758428E-1,5.6245214E-1,8.7448984E-2,2.4942671E-1,-2.8746328E-1,-5.5989444E-1,-9.993883E-1,6.4250804E-2,9.353298E-2,8.248399E-2,5.2276235E-2,5.097637E-2,6.498537E-4,1.4856885E-2,-5.0904114E-2,1.5360706E-2,9.971326E-2,3.6391106E-3,-3.234792E-2,-3.396869E-2,-6.95617E-2,-6.065803E-2,-8.302097E-2],"categories":[],"categories_nodes":[],"categories_segments":[],"categories_sizes":[],"default_left":[0,0,0,0,0,0,0,0,0,0,0,0,0,0,0,0,0,0,0,0,0,0,0,0,0,0,0,0,0,0,0],"id":10,"left_children":[1,3,5,7,9,11,13,15,17,19,21,23,25,27,29,-1,-1,-1,-1,-1,-1,-1,-1,-1,-1,-1,-1,-1,-1,-1,-1],"loss_changes":[4.456824E3,5.6827026E2,1.4801794E3,6.788794E1,2.170658E2,2.4933812E2,2.3222778E2,2.8243286E1,6.715906E1,7.7082886E1,1.4194687E2,1.11760864E2,6.0360245E1,8.1331604E1,2.84458E1,0E0,0E0,0E0,0E0,0E0,0E0,0E0,0E0,0E0,0E0,0E0,0E0,0E0,0E0,0E0,0E0],"parents":[2147483647,0,0,1,1,2,2,3,3,4,4,5,5,6,6,7,7,8,8,9,9,10,10,11,11,12,12,13,13,14,14],"right_children":[2,4,6,8,10,12,14,16,18,20,22,24,26,28,30,-1,-1,-1,-1,-1,-1,-1,-1,-1,-1,-1,-1,-1,-1,-1,-1],"split_conditions":[2.9740414E2,1.0710144E0,2.66391E0,2.8312677E2,1.02221E0,7.1970767E-1,1.7634329E0,6.85271E2,6.2164307E-1,2.941351E2,2.114221E0,4.157099E2,1.2993774E0,3.381989E2,3.738861E0,6.4250804E-2,9.353298E-2,8.248399E-2,5.2276235E-2,5.097637E-2,6.498537E-4,1.4856885E-2,-5.0904114E-2,1.5360706E-2,9.971326E-2,3.6391106E-3,-3.234792E-2,-3.396869E-2,-6.95617E-2,-6.065803E-2,-8.302097E-2],"split_indices":[0,3,3,0,4,1,1,5,3,0,1,0,3,0,3,0,0,0,0,0,0,0,0,0,0,0,0,0,0,0,0],"split_type":[0,0,0,0,0,0,0,0,0,0,0,0,0,0,0,0,0,0,0,0,0,0,0,0,0,0,0,0,0,0,0],"sum_hessian":[1.5793317E4,7.1810503E3,8.612267E3,3.3284104E3,3.8526396E3,3.5050183E3,5.1072485E3,1.1577001E3,2.1707104E3,1.8593455E3,1.9932942E3,1.9555061E3,1.5495123E3,1.9494537E3,3.1577947E3,2.929924E2,8.647077E2,7.011821E2,1.4695283E3,1.6382712E3,2.210742E2,1.7556735E3,2.3762073E2,1.8501464E3,1.053597E2,4.0278354E2,1.1467288E3,1.3583282E3,5.911255E2,4.3634198E2,2.721453E3],"tree_param":{"num_deleted":"0","num_feature":"11","num_nodes":"31","size_leaf_vector":"1"}},{"base_weights":[-3.5489178E-3,4.6676284E-1,-5.3783387E-1,7.4625754E-1,1.6203249E-1,-9.502674E-2,-8.367185E-1,1.0064824E0,6.383765E-1,2.2421543E-1,-1.083347E0,2.1308267E-2,-1.0542558E0,-3.6025047E-1,-9.249497E-1,8.565764E-2,4.744294E-2,7.393678E-2,4.30946E-2,3.2863047E-2,-1.7927348E-3,-9.454986E-2,-1.3255219E-2,4.6972506E-2,-9.250733E-3,-9.645153E-2,-6.154805E-2,-1.7163359E-2,-9.0436324E-2,-6.8022795E-2,-8.970905E-2],"categories":[],"categories_nodes":[],"categories_segments":[],"categories_sizes":[],"default_left":[0,0,0,0,0,0,0,0,0,0,0,0,0,0,0,0,0,0,0,0,0,0,0,0,0,0,0,0,0,0,0],"id":11,"left_children":[1,3,5,7,9,11,13,15,17,19,21,23,25,27,29,-1,-1,-1,-1,-1,-1,-1,-1,-1,-1,-1,-1,-1,-1,-1,-1],"loss_changes":[3.9120286E3,7.050814E2,9.645383E2,1.2059204E2,3.0709634E2,3.2790387E2,1.8259131E2,3.293274E1,8.657422E1,1.7370015E2,1.6856918E1,2.0319618E2,1.2780548E1,7.623889E1,5.2878418E1,0E0,0E0,0E0,0E0,0E0,0E0,0E0,0E0,0E0,0E0,0E0,0E0,0E0,0E0,0E0,0E0],"parents":[2147483647,0,0,1,1,2,2,3,3,4,4,5,5,6,6,7,7,8,8,9,9,10,10,11,11,12,12,13,13,14,14],"right_children":[2,4,6,8,10,12,14,16,18,20,22,24,26,28,30,-1,-1,-1,-1,-1,-1,-1,-1,-1,-1,-1,-1,-1,-1,-1,-1],"split_conditions":[3.0260483E2,1.2862854E0,2.9635925E0,2.8312677E2,1E0,1E0,8.247557E-1,1.1888766E0,6.501465E-1,7.8637064E-1,2.1914648E-2,9.2529297E-1,3.2151846E2,1E0,1E0,8.565764E-2,4.744294E-2,7.393678E-2,4.30946E-2,3.2863047E-2,-1.7927348E-3,-9.454986E-2,-1.3255219E-2,4.6972506E-2,-9.250733E-3,-9.645153E-2,-6.154805E-2,-1.7163359E-2,-9.0436324E-2,-6.8022795E-2,-8.970905E-2],"split_indices":[0,3,3,0,6,6,1,4,3,1,8,3,0,6,6,0,0,0,0,0,0,0,0,0,0,0,0,0,0,0,0],"split_type":[0,0,0,0,0,0,0,0,0,0,0,0,0,0,0,0,0,0,0,0,0,0,0,0,0,0,0,0,0,0,0],"sum_hessian":[1.5566374E4,8.278892E3,7.287483E3,4.3174937E3,3.961398E3,2.9372183E3,4.3502646E3,1.2628899E3,3.0546038E3,3.773789E3,1.876088E2,2.6203953E3,3.1682294E2,6.804996E2,3.669765E3,1.0916824E3,1.7120747E2,7.877546E2,2.266849E3,2.1480862E3,1.625703E3,1.6915875E2,1.8450045E1,5.099572E2,2.1104382E3,2.0477905E2,1.1204389E2,5.7331696E2,1.0718258E2,2.66284E3,1.0069249E3],"tree_param":{"num_deleted":"0","num_feature":"11","num_nodes":"31","size_leaf_vector":"1"}},{"base_weights":[-2.4742929E-3,3.5440716E-1,-6.198509E-1,4.2310917E-1,-1.0577769E0,-2.568232E-1,-8.5835487E-1,7.7298343E-1,2.0344737E-1,-1.0992352E0,-4.4613808E-1,-3.3245897E-1,1.2067401E0,-2.3137015E-1,-9.015089E-1,6.4824805E-2,4.9934555E-3,3.0512236E-2,-3.6822176E-3,-8.921938E-2,-4.5891125E-3,1.2315232E-2,-7.208455E-2,-1.6924381E-2,-8.242658E-2,9.0718515E-2,1.5763243E-1,-2.9824039E-2,1.11917906E-1,-7.2802655E-2,9.939738E-2],"categories":[],"categories_nodes":[],"categories_segments":[],"categories_sizes":[],"default_left":[0,0,0,0,0,0,0,0,0,0,0,0,0,0,0,0,0,0,0,0,0,0,0,0,0,0,0,0,0,0,0],"id":12,"left_children":[1,3,5,7,9,11,13,15,17,19,21,23,25,27,29,-1,-1,-1,-1,-1,-1,-1,-1,-1,-1,-1,-1,-1,-1,-1,-1],"loss_changes":[3.3553594E3,9.367196E2,4.8278296E2,7.0715466E2,1.0869415E1,2.454038E2,9.087036E1,9.408569E1,2.510781E2,6.9216614E0,8.361387E0,1.7741695E2,3.8205872E0,5.0814396E1,5.8683594E1,0E0,0E0,0E0,0E0,0E0,0E0,0E0,0E0,0E0,0E0,0E0,0E0,0E0,0E0,0E0,0E0],"parents":[2147483647,0,0,1,1,2,2,3,3,4,4,5,5,6,6,7,7,8,8,9,9,10,10,11,11,12,12,13,13,14,14],"right_children":[2,4,6,8,10,12,14,16,18,20,22,24,26,28,30,-1,-1,-1,-1,-1,-1,-1,-1,-1,-1,-1,-1,-1,-1,-1,-1],"split_conditions":[3.1059717E2,1E0,3.4712524E0,1.0605164E0,2.1914648E-2,4.735E2,5.14638E-1,2.504949E0,1.6518509E0,1.0544453E1,3.0002377E2,1E0,7.5250244E-1,4.735E2,5.5051703E0,6.4824805E-2,4.9934555E-3,3.0512236E-2,-3.6822176E-3,-8.921938E-2,-4.5891125E-3,1.2315232E-2,-7.208455E-2,-1.6924381E-2,-8.242658E-2,9.0718515E-2,1.5763243E-1,-2.9824039E-2,1.11917906E-1,-7.2802655E-2,9.939738E-2],"split_indices":[0,6,3,3,8,0,1,4,4,4,0,6,3,0,9,0,0,0,0,0,0,0,0,0,0,0,0,0,0,0,0],"split_type":[0,0,0,0,0,0,0,0,0,0,0,0,0,0,0,0,0,0,0,0,0,0,0,0,0,0,0,0,0,0,0],"sum_hessian":[1.5226776E4,9.649311E3,5.577466E3,9.202322E3,4.469877E2,2.212258E3,3.365208E3,3.548231E3,5.6540913E3,4.1786658E2,2.9121132E1,2.1042832E3,1.0797478E2,2.1711447E2,3.1480935E3,3.3710085E3,1.7722243E2,3.2997703E3,2.3543213E3,4.1147433E2,6.39223E0,1.2842431E1,1.6278702E1,1.7946665E3,3.0961676E2,1.0085106E2,7.123721E0,2.0049326E2,1.662121E1,3.1361997E3,1.1893832E1],"tree_param":{"num_deleted":"0","num_feature":"11","num_nodes":"31","size_leaf_vector":"1"}},{"base_weights":[9.303835E-5,4.382559E-1,-4.4807258E-1,7.007997E-1,1.4221781E-1,1.4936659E-1,-6.38267E-1,8.9067954E-1,5.601088E-1,4.6775937E-1,4.671522E-3,3.846758E-1,-8.896098E-2,-3.7790707E-1,-8.1115127E-1,8.262979E-2,6.2234044E-2,5.5199407E-2,3.3020325E-2,3.230575E-2,8.677967E-2,-9.1700265E-3,1.9864067E-2,3.536459E-2,-4.1854203E-2,2.7738217E-2,-2.5149861E-2,-3.6680155E-2,1.0295189E-2,-4.612346E-2,-7.3717356E-2],"categories":[],"categories_nodes":[],"categories_segments":[],"categories_sizes":[],"default_left":[0,0,0,0,0,0,0,0,0,0,0,0,0,0,0,0,0,0,0,0,0,0,0,0,0,0,0,0,0,0,0],"id":13,"left_children":[1,3,5,7,9,11,13,15,17,19,21,23,25,27,29,-1,-1,-1,-1,-1,-1,-1,-1,-1,-1,-1,-1,-1,-1,-1,-1],"loss_changes":[2.9518074E3,5.906549E2,8.444911E2,1.0710669E2,1.6002011E2,1.0071292E2,2.5342188E2,2.6654907E1,4.4048462E1,4.1435318E1,7.3075294E1,4.7299927E1,8.778224E1,9.1975464E1,8.711792E1,0E0,0E0,0E0,0E0,0E0,0E0,0E0,0E0,0E0,0E0,0E0,0E0,0E0,0E0,0E0,0E0],"parents":[2147483647,0,0,1,1,2,2,3,3,4,4,5,5,6,6,7,7,8,8,9,9,10,10,11,11,12,12,13,13,14,14],"right_children":[2,4,6,8,10,12,14,16,18,20,22,24,26,28,30,-1,-1,-1,-1,-1,-1,-1,-1,-1,-1,-1,-1,-1,-1,-1,-1],"split_conditions":[1.9925232E0,2.918604E2,2.9694412E2,8.244324E-1,9.5407104E-1,4.9711578E2,4.125061E0,2.833433E2,8.271507E-1,3.8466306E2,1.353953E-1,3.8444586E0,1.2000122E0,1.2687428E-2,3.247336E2,8.262979E-2,6.2234044E-2,5.5199407E-2,3.3020325E-2,3.230575E-2,8.677967E-2,-9.1700265E-3,1.9864067E-2,3.536459E-2,-4.1854203E-2,2.7738217E-2,-2.5149861E-2,-3.6680155E-2,1.0295189E-2,-4.612346E-2,-7.3717356E-2],"split_indices":[3,0,0,3,3,5,3,0,4,0,9,4,4,8,0,0,0,0,0,0,0,0,0,0,0,0,0,0,0,0,0],"split_type":[0,0,0,0,0,0,0,0,0,0,0,0,0,0,0,0,0,0,0,0,0,0,0,0,0,0,0,0,0,0,0],"sum_hessian":[1.5029901E4,7.5997725E3,7.4301284E3,4.0270144E3,3.5727583E3,1.7942476E3,5.6358813E3,1.711629E3,2.3153855E3,1.060467E3,2.5122913E3,9.0253186E2,8.9171564E2,2.2502463E3,3.3856348E3,7.53384E2,9.58245E2,1.2286902E3,1.0866953E3,9.623903E2,9.807675E1,1.6868357E3,8.2545557E2,8.493604E2,5.3171417E1,3.0386032E2,5.8785535E2,1.9414711E3,3.0877515E2,1.0848068E3,2.3008281E3],"tree_param":{"num_deleted":"0","num_feature":"11","num_nodes":"31","size_leaf_vector":"1"}},{"base_weights":[2.3157647E-4,4.144113E-1,-4.24914E-1,6.67346E-1,1.3610466E-1,-8.178424E-2,-7.241748E-1,8.9542156E-1,5.458499E-1,4.8956552E-1,2.644584E-2,2.7604547E-1,-2.9977465E-1,-7.5447536E-1,6.796123E-1,5.158691E-2,7.537759E-2,5.940955E-2,3.543787E-2,4.7280837E-2,2.5004346E-4,-7.502412E-3,1.9985298E-2,2.2237573E-3,3.8454633E-2,-1.5706874E-2,-5.04819E-2,-2.4226626E-2,-6.534213E-2,8.51286E-2,-4.7553934E-2],"categories":[],"categories_nodes":[],"categories_segments":[],"categories_sizes":[],"default_left":[0,0,0,0,0,0,0,0,0,0,0,0,0,0,0,0,0,0,0,0,0,0,0,0,0,0,0,0,0,0,0],"id":14,"left_children":[1,3,5,7,9,11,13,15,17,19,21,23,25,27,29,-1,-1,-1,-1,-1,-1,-1,-1,-1,-1,-1,-1,-1,-1,-1,-1],"loss_changes":[2.5932834E3,5.250343E2,7.462009E2,1.07798096E2,1.3770349E2,2.6425735E2,1.6562488E2,1.5301514E1,5.13349E1,4.151091E1,7.287556E1,6.514587E1,7.200406E1,1.0668237E2,4.1066986E1,0E0,0E0,0E0,0E0,0E0,0E0,0E0,0E0,0E0,0E0,0E0,0E0,0E0,0E0,0E0,0E0],"parents":[2147483647,0,0,1,1,2,2,3,3,4,4,5,5,6,6,7,7,8,8,9,9,10,10,11,11,12,12,13,13,14,14],"right_children":[2,4,6,8,10,12,14,16,18,20,22,24,26,28,30,-1,-1,-1,-1,-1,-1,-1,-1,-1,-1,-1,-1,-1,-1,-1,-1],"split_conditions":[1.9925232E0,2.918604E2,1.4343284E0,7.5250244E-1,8.798218E-1,2.9694412E2,4.8329268E0,4.2781918E2,2.8323532E2,9.276123E-1,1.21589206E-1,1.7645264E-1,3.381989E2,2.9673096E2,5.366974E0,5.158691E-2,7.537759E-2,5.940955E-2,3.543787E-2,4.7280837E-2,2.5004346E-4,-7.502412E-3,1.9985298E-2,2.2237573E-3,3.8454633E-2,-1.5706874E-2,-5.04819E-2,-2.4226626E-2,-6.534213E-2,8.51286E-2,-4.7553934E-2],"split_indices":[3,0,1,3,3,0,9,5,0,10,9,10,0,0,3,0,0,0,0,0,0,0,0,0,0,0,0,0,0,0,0],"split_type":[0,0,0,0,0,0,0,0,0,0,0,0,0,0,0,0,0,0,0,0,0,0,0,0,0,0,0,0,0,0,0],"sum_hessian":[1.4725312E4,7.4588623E3,7.2664497E3,3.9068157E3,3.5520466E3,3.3857043E3,3.880745E3,1.3556274E3,2.5511882E3,8.402435E2,2.7118032E3,1.2816381E3,2.1040662E3,3.7992024E3,8.154272E1,2.1565678E2,1.1399707E3,8.737562E2,1.677432E3,6.950739E2,1.451696E2,1.7633076E3,9.484956E2,5.796241E2,7.0201404E2,1.6045944E3,4.9947186E2,4.6125742E2,3.337945E3,6.276535E1,1.8777367E1],"tree_param":{"num_deleted":"0","num_feature":"11","num_nodes":"31","size_leaf_vector":"1"}},{"base_weights":[1.7105875E-3,2.980919E-1,-5.239616E-1,3.5994086E-1,-1.0194708E0,-2.0635988E-1,-7.628412E-1,6.833922E-1,1.8803701E-1,-1.0353723E0,1.353178E-1,-9.211836E-2,-9.384838E-1,-2.306922E-1,-8.1998974E-1,6.0976595E-2,2.6809772E-2,2.643405E-2,-3.8332273E-3,-3.9344817E-2,-8.561465E-2,-7.8153774E-2,1.2188894E-1,-1.2644764E-2,8.970475E-2,-9.461473E-2,-5.7899006E-2,8.621065E-2,-2.7709285E-2,-6.699695E-2,2.3472812E-2],"categories":[],"categories_nodes":[],"categories_segments":[],"categories_sizes":[],"default_left":[0,0,0,0,0,0,0,0,0,0,0,0,0,0,0,0,0,0,0,0,0,0,0,0,0,0,0,0,0,0,0],"id":15,"left_children":[1,3,5,7,9,11,13,15,17,19,21,23,25,27,29,-1,-1,-1,-1,-1,-1,-1,-1,-1,-1,-1,-1,-1,-1,-1,-1],"loss_changes":[2.2559875E3,7.549193E2,3.9592334E2,4.9167773E2,7.7685547E0,1.8746667E2,9.041272E1,8.398889E1,1.9410216E2,7.2297974E0,1.1567165E1,1.5547363E2,1.5011139E1,4.4307972E1,5.257373E1,0E0,0E0,0E0,0E0,0E0,0E0,0E0,0E0,0E0,0E0,0E0,0E0,0E0,0E0,0E0,0E0],"parents":[2147483647,0,0,1,1,2,2,3,3,4,4,5,5,6,6,7,7,8,8,9,9,10,10,11,11,12,12,13,13,14,14],"right_children":[2,4,6,8,10,12,14,16,18,20,22,24,26,28,30,-1,-1,-1,-1,-1,-1,-1,-1,-1,-1,-1,-1,-1,-1,-1,-1],"split_conditions":[3.1059717E2,1E0,3.6093445E0,1.0216064E0,1.0544453E1,1E0,6.744997E-1,1.4073961E0,1.822225E0,1.3413252E2,1.168277E-2,4.6843686E2,3.2151846E2,3.2019526E-2,3.8488455E0,6.0976595E-2,2.6809772E-2,2.643405E-2,-3.8332273E-3,-3.9344817E-2,-8.561465E-2,-7.8153774E-2,1.2188894E-1,-1.2644764E-2,8.970475E-2,-9.461473E-2,-5.7899006E-2,8.621065E-2,-2.7709285E-2,-6.699695E-2,2.3472812E-2],"split_indices":[0,6,3,3,4,6,1,4,4,5,9,0,0,1,9,0,0,0,0,0,0,0,0,0,0,0,0,0,0,0,0],"split_type":[0,0,0,0,0,0,0,0,0,0,0,0,0,0,0,0,0,0,0,0,0,0,0,0,0,0,0,0,0,0,0],"sum_hessian":[1.4478075E4,9.258459E3,5.219615E3,8.84403E3,4.144293E2,2.2414136E3,2.9782017E3,3.0681245E3,5.775906E3,4.089021E2,5.527174E0,1.9398439E3,3.0156982E2,2.893065E2,2.6888953E3,2.5009568E3,5.6716754E2,3.6018938E3,2.1740117E3,2.5521324E1,3.8338077E2,3.2331953E0,2.293979E0,1.8406854E3,9.9158455E1,1.3899883E2,1.6257101E2,2.2825327E1,2.6648117E2,2.6475952E3,4.1299946E1],"tree_param":{"num_deleted":"0","num_feature":"11","num_nodes":"31","size_leaf_vector":"1"}},{"base_weights":[-4.7879843E-3,4.692959E-1,-2.9820952E-1,7.40291E-1,3.4737614E-1,2.0061452E-2,-5.983237E-1,7.8586143E-1,1.15038104E-1,5.002076E-1,1.135028E-1,8.9261115E-2,-9.689317E-1,-4.9112788E-1,-9.5939153E-1,6.377875E-2,-6.6378415E-2,-2.8928442E-2,3.530444E-2,2.8253367E-2,4.7782663E-2,1.23559255E-2,-1.01245895E-1,1.7460281E-2,-1.0800903E-2,-6.5968774E-2,-9.151268E-2,-2.525144E-2,-6.364579E-2,-7.059726E-2,-8.918696E-2],"categories":[],"categories_nodes":[],"categories_segments":[],"categories_sizes":[],"default_left":[0,0,0,0,0,0,0,0,0,0,0,0,0,0,0,0,0,0,0,0,0,0,0,0,0,0,0,0,0,0,0],"id":16,"left_children":[1,3,5,7,9,11,13,15,17,19,21,23,25,27,29,-1,-1,-1,-1,-1,-1,-1,-1,-1,-1,-1,-1,-1,-1,-1,-1],"loss_changes":[1.9781206E3,1.793617E2,8.390128E2,4.7949585E1,1.3403159E2,2.9189777E2,1.7450806E2,2.9532898E1,1.8153522E1,3.2170044E1,8.398934E1,1.1534108E2,6.1002502E0,1.8609546E2,1.1378967E1,0E0,0E0,0E0,0E0,0E0,0E0,0E0,0E0,0E0,0E0,0E0,0E0,0E0,0E0,0E0,0E0],"parents":[2147483647,0,0,1,1,2,2,3,3,4,4,5,5,6,6,7,7,8,8,9,9,10,10,11,11,12,12,13,13,14,14],"right_children":[2,4,6,8,10,12,14,16,18,20,22,24,26,28,30,-1,-1,-1,-1,-1,-1,-1,-1,-1,-1,-1,-1,-1,-1,-1,-1],"split_conditions":[2.9336026E2,2.8323532E2,1.049393E0,2.6143791E-2,6.396351E-1,1E0,1E0,1E0,2.804863E2,2.0361379E-2,1E0,3.1234064E2,1.1166699E3,3.4684732E2,1.2180707E3,6.377875E-2,-6.6378415E-2,-2.8928442E-2,3.530444E-2,2.8253367E-2,4.7782663E-2,1.23559255E-2,-1.01245895E-1,1.7460281E-2,-1.0800903E-2,-6.5968774E-2,-9.151268E-2,-2.525144E-2,-6.364579E-2,-7.059726E-2,-8.918696E-2],"split_indices":[0,0,1,8,1,6,6,6,0,9,6,0,5,0,5,0,0,0,0,0,0,0,0,0,0,0,0,0,0,0,0],"split_type":[0,0,0,0,0,0,0,0,0,0,0,0,0,0,0,0,0,0,0,0,0,0,0,0,0,0,0,0,0,0,0],"sum_hessian":[1.421819E4,5.435463E3,8.782727E3,1.6850264E3,3.7504365E3,4.2628784E3,4.519848E3,1.5703196E3,1.147068E2,2.2675198E3,1.4829169E3,3.9849614E3,2.7791724E2,3.4869758E3,1.0328723E3,1.5598457E3,1.04739685E1,4.6567738E1,6.813906E1,9.035502E2,1.3639695E3,1.4410195E3,4.1897415E1,2.529895E3,1.4550664E3,1.5543011E2,1.2248712E2,2.213265E3,1.273711E3,6.954099E2,3.3746243E2],"tree_param":{"num_deleted":"0","num_feature":"11","num_nodes":"31","size_leaf_vector":"1"}},{"base_weights":[3.516895E-3,2.8549507E-1,-4.4607008E-1,5.4629797E-1,5.9364256E-2,4.2813778E-2,-5.9970564E-1,6.672236E-1,2.7451298E-1,1.1912879E-1,-9.2267543E-1,9.585607E-2,-9.55055E-1,-4.9538723E-1,-9.3836874E-1,6.735962E-2,4.4080958E-2,2.5866998E-2,-3.3988636E-2,1.8135864E-2,-7.6010064E-3,-7.682332E-2,-1.618574E-2,2.2160351E-2,-1.0274768E-2,2.1118812E-2,-8.336976E-2,-2.5945166E-2,-6.283813E-2,-6.9376595E-2,-8.7027624E-2],"categories":[],"categories_nodes":[],"categories_segments":[],"categories_sizes":[],"default_left":[0,0,0,0,0,0,0,0,0,0,0,0,0,0,0,0,0,0,0,0,0,0,0,0,0,0,0,0,0,0,0],"id":17,"left_children":[1,3,5,7,9,11,13,15,17,19,21,23,25,27,29,-1,-1,-1,-1,-1,-1,-1,-1,-1,-1,-1,-1,-1,-1,-1,-1],"loss_changes":[1.7754061E3,5.0754364E2,4.0546753E2,1.311726E2,2.707236E2,6.845852E1,1.446416E2,5.5701538E1,4.2219307E1,1.0015942E2,6.976074E0,4.9903965E1,7.204357E0,1.5568091E2,9.33313E0,0E0,0E0,0E0,0E0,0E0,0E0,0E0,0E0,0E0,0E0,0E0,0E0,0E0,0E0,0E0,0E0],"parents":[2147483647,0,0,1,1,2,2,3,3,4,4,5,5,6,6,7,7,8,8,9,9,10,10,11,11,12,12,13,13,14,14],"right_children":[2,4,6,8,10,12,14,16,18,20,22,24,26,28,30,-1,-1,-1,-1,-1,-1,-1,-1,-1,-1,-1,-1,-1,-1,-1,-1],"split_conditions":[1.049393E0,2.918604E2,2.9740414E2,1.1666802E0,1E0,1E0,1E0,2.8312677E2,3.8444586E0,3.1234064E2,1.0118516E1,1.1333517E0,9.159849E1,3.9820688E0,1.2180707E3,6.735962E-2,4.4080958E-2,2.5866998E-2,-3.3988636E-2,1.8135864E-2,-7.6010064E-3,-7.682332E-2,-1.618574E-2,2.2160351E-2,-1.0274768E-2,2.1118812E-2,-8.336976E-2,-2.5945166E-2,-6.283813E-2,-6.9376595E-2,-8.7027624E-2],"split_indices":[1,0,0,4,6,6,6,0,4,0,4,4,5,1,5,0,0,0,0,0,0,0,0,0,0,0,0,0,0,0,0],"split_type":[0,0,0,0,0,0,0,0,0,0,0,0,0,0,0,0,0,0,0,0,0,0,0,0,0,0,0,0,0,0,0],"sum_hessian":[1.4002525E4,8.605546E3,5.39698E3,3.9957363E3,4.609809E3,1.2906672E3,4.106313E3,2.7643406E3,1.2313958E3,4.3461895E3,2.6361978E2,1.2263822E3,6.428512E1,3.1411938E3,9.65119E2,1.1015155E3,1.6628251E3,1.151542E3,7.985382E1,2.8929277E3,1.4532614E3,2.5022046E2,1.3399319E1,6.783101E2,5.48072E2,4.1498885E0,6.0135227E1,1.977269E3,1.1639248E3,6.5845197E2,3.0666705E2],"tree_param":{"num_deleted":"0","num_feature":"11","num_nodes":"31","size_leaf_vector":"1"}},{"base_weights":[2.7424276E-3,2.4421735E-1,-4.6309566E-1,2.8858775E-1,-9.4663566E-1,-3.564146E-1,-8.9940065E-1,4.7937456E-1,5.076845E-2,-9.83E-1,-1.8943226E-1,-1.848232E-1,-7.118112E-1,-8.1987005E-1,-1.0646894E0,4.5900997E-2,2.8445326E-2,1.421706E-2,-6.9521563E-3,-7.948898E-2,8.916764E-2,-6.260076E-2,1.5370914E-1,-1.7365986E-2,6.455472E-2,-6.093758E-2,4.9986366E-2,-6.685769E-2,-3.382835E-2,-8.6477466E-2,-5.4558024E-2],"categories":[],"categories_nodes":[],"categories_segments":[],"categories_sizes":[],"default_left":[0,0,0,0,0,0,0,0,0,0,0,0,0,0,0,0,0,0,0,0,0,0,0,0,0,0,0,0,0,0,0],"id":18,"left_children":[1,3,5,7,9,11,13,15,17,19,21,23,25,27,29,-1,-1,-1,-1,-1,-1,-1,-1,-1,-1,-1,-1,-1,-1,-1,-1],"loss_changes":[1.5517113E3,4.803144E2,2.1888025E2,3.9741687E2,8.806152E0,2.3073697E2,1.1281433E1,5.6592285E1,6.817827E1,8.038727E0,2.178839E1,8.188141E1,8.268463E1,3.602417E0,1.1132507E0,0E0,0E0,0E0,0E0,0E0,0E0,0E0,0E0,0E0,0E0,0E0,0E0,0E0,0E0,0E0,0E0],"parents":[2147483647,0,0,1,1,2,2,3,3,4,4,5,5,6,6,7,7,8,8,9,9,10,10,11,11,12,12,13,13,14,14],"right_children":[2,4,6,8,10,12,14,16,18,20,22,24,26,28,30,-1,-1,-1,-1,-1,-1,-1,-1,-1,-1,-1,-1,-1,-1,-1,-1],"split_conditions":[1.2192551E0,1E0,1E0,1.2962962E0,1.0544453E1,4.0792904E0,1.2180707E3,5.9260726E-1,5.309004E-1,3.998462E-2,4.3516755E-2,4.8329268E0,4.8329268E0,3.6663818E0,3.2833557E0,4.5900997E-2,2.8445326E-2,1.421706E-2,-6.9521563E-3,-7.948898E-2,8.916764E-2,-6.260076E-2,1.5370914E-1,-1.7365986E-2,6.455472E-2,-6.093758E-2,4.9986366E-2,-6.685769E-2,-3.382835E-2,-8.6477466E-2,-5.4558024E-2],"split_indices":[1,6,6,4,4,1,5,4,1,8,9,9,9,10,10,0,0,0,0,0,0,0,0,0,0,0,0,0,0,0,0],"split_type":[0,0,0,0,0,0,0,0,0,0,0,0,0,0,0,0,0,0,0,0,0,0,0,0,0,0,0,0,0,0,0],"sum_hessian":[1.3792429E4,9.084041E3,4.708388E3,8.758464E3,3.2557706E2,3.7847856E3,9.236023E2,4.859218E3,3.899246E3,3.1037332E2,1.5203741E1,2.553455E3,1.2313306E3,6.275902E2,2.960121E2,2.7551382E3,2.1040796E3,2.0284954E3,1.8707507E3,3.0933463E2,1.0386953E0,1.2360152E1,2.8435893E0,2.4737896E3,7.9665726E1,1.1874236E3,4.390691E1,6.0243286E2,2.5157333E1,2.8218472E2,1.3827351E1],"tree_param":{"num_deleted":"0","num_feature":"11","num_nodes":"31","size_leaf_vector":"1"}},{"base_weights":[-1.0270168E-3,3.6333257E-1,-2.9335794E-1,6.451847E-1,2.2586216E-1,-9.379613E-2,-6.041413E-1,6.959454E-1,9.7693436E-2,2.5168914E-1,-9.670512E-1,-1.3154247E-2,-8.548742E-1,-3.312451E-1,-7.580757E-1,6.624513E-2,4.4206977E-2,1.0391292E-2,-1.7981203E-1,1.3857425E-2,3.332322E-2,-7.9783626E-2,4.8637036E-2,1.5883492E-2,-8.961345E-3,-7.198375E-2,2.2135569E-2,-1.4025322E-2,-6.821346E-2,-6.201625E-2,-6.9464413E-3],"categories":[],"categories_nodes":[],"categories_segments":[],"categories_sizes":[],"default_left":[0,0,0,0,0,0,0,0,0,0,0,0,0,0,0,0,0,0,0,0,0,0,0,0,0,0,0,0,0,0,0],"id":19,"left_children":[1,3,5,7,9,11,13,15,17,19,21,23,25,27,29,-1,-1,-1,-1,-1,-1,-1,-1,-1,-1,-1,-1,-1,-1,-1,-1],"loss_changes":[1.4462504E3,2.3405225E2,4.6718658E2,5.4987488E1,1.2546309E2,2.816347E2,1.234939E2,3.387738E1,1.3072991E1,5.1400635E1,4.718933E0,8.688427E1,2.2596954E1,8.63704E1,2.1576294E1,0E0,0E0,0E0,0E0,0E0,0E0,0E0,0E0,0E0,0E0,0E0,0E0,0E0,0E0,0E0,0E0],"parents":[2147483647,0,0,1,1,2,2,3,3,4,4,5,5,6,6,7,7,8,8,9,9,10,10,11,11,12,12,13,13,14,14],"right_children":[2,4,6,8,10,12,14,16,18,20,22,24,26,28,30,-1,-1,-1,-1,-1,-1,-1,-1,-1,-1,-1,-1,-1,-1,-1,-1],"split_conditions":[1.680481E0,8.078613E-1,1.8963078E0,9.4485474E-1,1E0,1E0,4.2808228E0,6.1151123E-1,4.190696E-2,1.508939E-1,4.550381E0,3.97314E2,1.1481476E1,1E0,3.8488455E0,6.624513E-2,4.4206977E-2,1.0391292E-2,-1.7981203E-1,1.3857425E-2,3.332322E-2,-7.9783626E-2,4.8637036E-2,1.5883492E-2,-8.961345E-3,-7.198375E-2,2.2135569E-2,-1.4025322E-2,-6.821346E-2,-6.201625E-2,-6.9464413E-3],"split_indices":[3,3,1,10,6,6,3,3,8,9,1,5,3,6,9,0,0,0,0,0,0,0,0,0,0,0,0,0,0,0,0],"split_type":[0,0,0,0,0,0,0,0,0,0,0,0,0,0,0,0,0,0,0,0,0,0,0,0,0,0,0,0,0,0,0],"sum_hessian":[1.3576084E4,6.043392E3,7.532692E3,1.9800509E3,4.063341E3,4.587953E3,2.9447388E3,1.8117986E3,1.6825227E2,3.9780051E3,8.533614E1,4.1493193E3,4.3863394E2,1.0631426E3,1.8815962E3,9.403744E2,8.7142426E2,1.6690555E2,1.3467225E0,2.6964907E3,1.2815143E3,8.408824E1,1.2479002E0,1.3205565E3,2.8287627E3,4.220823E2,1.6551645E1,8.194323E2,2.4371019E2,1.8346292E3,4.6966984E1],"tree_param":{"num_deleted":"0","num_feature":"11","num_nodes":"31","size_leaf_vector":"1"}},{"base_weights":[-4.0567765E-4,3.4262368E-1,-2.7611467E-1,6.704967E-1,2.3921686E-1,-8.097686E-2,-5.657406E-1,7.274072E-1,1.0871179E-1,2.6359528E-1,-9.960867E-1,-8.120547E-3,-8.3813673E-1,-3.366184E-1,-7.297399E-1,5.873956E-2,-8.8580646E-2,1.2692468E-2,-8.416751E-2,2.4481384E-2,-2.6717018E-2,-8.204416E-2,4.3570332E-2,2.294909E-2,-6.447663E-3,-7.030791E-2,1.4632315E-2,-1.4969159E-2,-6.734553E-2,-5.300434E-2,-7.310688E-2],"categories":[],"categories_nodes":[],"categories_segments":[],"categories_sizes":[],"default_left":[0,0,0,0,0,0,0,0,0,0,0,0,0,0,0,0,0,0,0,0,0,0,0,0,0,0,0,0,0,0,0],"id":20,"left_children":[1,3,5,7,9,11,13,15,17,19,21,23,25,27,29,-1,-1,-1,-1,-1,-1,-1,-1,-1,-1,-1,-1,-1,-1,-1,-1],"loss_changes":[1.2677687E3,2.0235431E2,4.1996533E2,4.569153E1,1.3705948E2,2.4498878E2,1.1215747E2,1.7117249E1,7.8696194E0,1.1304492E2,4.5589905E0,8.665967E1,1.6365417E1,9.423688E1,2.0947998E1,0E0,0E0,0E0,0E0,0E0,0E0,0E0,0E0,0E0,0E0,0E0,0E0,0E0,0E0,0E0,0E0],"parents":[2147483647,0,0,1,1,2,2,3,3,4,4,5,5,6,6,7,7,8,8,9,9,10,10,11,11,12,12,13,13,14,14],"right_children":[2,4,6,8,10,12,14,16,18,20,22,24,26,28,30,-1,-1,-1,-1,-1,-1,-1,-1,-1,-1,-1,-1,-1,-1,-1,-1],"split_conditions":[1.680481E0,7.064209E-1,1.7903984E0,9.4485474E-1,1E0,1E0,4.6320496E0,1E0,1E0,3.6074061E0,4.550381E0,6.77792E-1,1.1481476E1,1E0,1.7896296E1,5.873956E-2,-8.8580646E-2,1.2692468E-2,-8.416751E-2,2.4481384E-2,-2.6717018E-2,-8.204416E-2,4.3570332E-2,2.294909E-2,-6.447663E-3,-7.030791E-2,1.4632315E-2,-1.4969159E-2,-6.734553E-2,-5.300434E-2,-7.310688E-2],"split_indices":[3,3,1,10,6,6,3,6,6,4,1,4,3,6,4,0,0,0,0,0,0,0,0,0,0,0,0,0,0,0,0],"split_type":[0,0,0,0,0,0,0,0,0,0,0,0,0,0,0,0,0,0,0,0,0,0,0,0,0,0,0,0,0,0,0],"sum_hessian":[1.3402721E4,5.9721265E3,7.430594E3,1.4306062E3,4.5415205E3,4.440232E3,2.9903625E3,1.2987445E3,1.3186162E2,4.4544004E3,8.7119934E1,4.0514038E3,3.8882812E2,1.2487692E3,1.7415934E3,1.29452E3,4.224539E0,1.2724997E2,4.611651E0,4.1595894E3,2.9481104E2,8.581317E1,1.3067592E0,7.984884E2,3.2529153E3,3.740527E2,1.4775427E1,9.646662E2,2.8410303E2,1.2793098E3,4.6228357E2],"tree_param":{"num_deleted":"0","num_feature":"11","num_nodes":"31","size_leaf_vector":"1"}},{"base_weights":[-4.5158104E-3,1.9757631E-1,-4.191695E-1,2.403831E-1,-8.0719656E-1,-1.657129E-1,-6.229589E-1,5.6237376E-1,1.2463523E-1,-8.7220377E-1,-2.4430518E-1,3.3389008E-1,-3.3019188E-1,1.0262789E0,-6.400341E-1,6.39097E-2,3.637723E-2,1.9434638E-2,-1.8465432E-3,-7.170495E-2,1.7663145E-2,6.734287E-3,-8.6418085E-2,-1.05160065E-2,4.4541776E-2,-6.9655485E-2,-2.099278E-2,-5.3360105E-2,1.5786974E-1,-1.0470637E-2,-5.5099186E-2],"categories":[],"categories_nodes":[],"categories_segments":[],"categories_sizes":[],"default_left":[0,0,0,0,0,0,0,0,0,0,0,0,0,0,0,0,0,0,0,0,0,0,0,0,0,0,0,0,0,0,0],"id":21,"left_children":[1,3,5,7,9,11,13,15,17,19,21,23,25,27,29,-1,-1,-1,-1,-1,-1,-1,-1,-1,-1,-1,-1,-1,-1,-1,-1],"loss_changes":[1.1038162E3,3.811042E2,2.2283777E2,3.165354E2,1.30372925E1,1.5830034E2,6.802301E1,5.6821472E1,1.0922178E2,8.741455E0,1.0766581E1,4.957614E1,5.2848984E1,4.1244007E1,5.863971E1,0E0,0E0,0E0,0E0,0E0,0E0,0E0,0E0,0E0,0E0,0E0,0E0,0E0,0E0,0E0,0E0],"parents":[2147483647,0,0,1,1,2,2,3,3,4,4,5,5,6,6,7,7,8,8,9,9,10,10,11,11,12,12,13,13,14,14],"right_children":[2,4,6,8,10,12,14,16,18,20,22,24,26,28,30,-1,-1,-1,-1,-1,-1,-1,-1,-1,-1,-1,-1,-1,-1,-1,-1],"split_conditions":[3.1234064E2,1E0,3.649994E0,9.2529297E-1,1.1149558E-2,4.1279605E2,3.2019526E-2,2.833433E2,7.119997E-1,3.4706726E0,3.0573746E2,3.2842145E2,3.1463577E2,4.296956E2,3.172962E2,6.39097E-2,3.637723E-2,1.9434638E-2,-1.8465432E-3,-7.170495E-2,1.7663145E-2,6.734287E-3,-8.6418085E-2,-1.05160065E-2,4.4541776E-2,-6.9655485E-2,-2.099278E-2,-5.3360105E-2,1.5786974E-1,-1.0470637E-2,-5.5099186E-2],"split_indices":[0,6,3,3,8,5,1,0,1,10,0,0,0,0,0,0,0,0,0,0,0,0,0,0,0,0,0,0,0,0,0],"split_type":[0,0,0,0,0,0,0,0,0,0,0,0,0,0,0,0,0,0,0,0,0,0,0,0,0,0,0,0,0,0,0],"sum_hessian":[1.3170319E4,8.855088E3,4.3152314E3,8.493976E3,3.6111188E2,1.9240582E3,2.391173E3,2.2449773E3,6.2489985E3,3.2323288E2,3.7879013E1,4.762932E2,1.447765E3,2.3897379E1,2.3672756E3,7.002624E2,1.5447148E3,3.469688E3,2.7793108E3,3.1643326E2,6.7996073E0,2.7838776E1,1.0040237E1,1.5438135E2,3.2191187E2,1.6000699E2,1.287758E3,8.677989E0,1.5219389E1,2.0700574E2,2.16027E3],"tree_param":{"num_deleted":"0","num_feature":"11","num_nodes":"31","size_leaf_vector":"1"}},{"base_weights":[-1.2694722E-3,3.539098E-1,-2.2011179E-1,6.136246E-1,2.3391837E-1,-5.8840953E-2,-5.5709255E-1,8.0604833E-1,5.0682676E-1,4.590774E-1,1.5904284E-1,1.777425E-1,-1.7285646E-1,-3.0441323E-1,-7.0416296E-1,3.771122E-2,7.4797474E-2,5.6582253E-2,2.842965E-2,3.930937E-2,-8.629674E-2,2.9832995E-2,5.000617E-3,1.583731E-2,-1.1055296E-1,-1.54053075E-2,8.242826E-2,-1.7913265E-2,-5.98796E-2,7.5331196E-2,-5.8137782E-2],"categories":[],"categories_nodes":[],"categories_segments":[],"categories_sizes":[],"default_left":[0,0,0,0,0,0,0,0,0,0,0,0,0,0,0,0,0,0,0,0,0,0,0,0,0,0,0,0,0,0,0],"id":22,"left_children":[1,3,5,7,9,11,13,15,17,19,21,23,25,27,29,-1,-1,-1,-1,-1,-1,-1,-1,-1,-1,-1,-1,-1,-1,-1,-1],"loss_changes":[1.0124278E3,1.546081E2,4.379583E2,3.1827393E1,5.7216248E1,1.4709192E2,9.6721924E1,2.364148E1,3.0455841E1,4.2612656E1,5.2658035E1,5.621283E1,8.745717E1,3.4201675E1,6.1873962E1,0E0,0E0,0E0,0E0,0E0,0E0,0E0,0E0,0E0,0E0,0E0,0E0,0E0,0E0,0E0,0E0],"parents":[2147483647,0,0,1,1,2,2,3,3,4,4,5,5,6,6,7,7,8,8,9,9,10,10,11,11,12,12,13,13,14,14],"right_children":[2,4,6,8,10,12,14,16,18,20,22,24,26,28,30,-1,-1,-1,-1,-1,-1,-1,-1,-1,-1,-1,-1,-1,-1,-1,-1],"split_conditions":[2.9336026E2,8.88916E-1,4.2808228E0,2.8291455E2,2.8323532E2,1.3405762E0,3.247336E2,7.1134515E2,6.2164307E-1,3.5371013E-2,4.0320563E-1,3.0757401E-2,4.8329268E0,1.1782404E-1,3.2019526E-2,3.771122E-2,7.4797474E-2,5.6582253E-2,2.842965E-2,3.930937E-2,-8.629674E-2,2.9832995E-2,5.000617E-3,1.583731E-2,-1.1055296E-1,-1.54053075E-2,8.242826E-2,-1.7913265E-2,-5.98796E-2,7.5331196E-2,-5.8137782E-2],"split_indices":[0,3,3,0,0,3,0,5,3,8,1,8,9,9,1,0,0,0,0,0,0,0,0,0,0,0,0,0,0,0,0],"split_type":[0,0,0,0,0,0,0,0,0,0,0,0,0,0,0,0,0,0,0,0,0,0,0,0,0,0,0,0,0,0,0],"sum_hessian":[1.302322E4,4.96479E3,8.0584297E3,1.5676292E3,3.397161E3,5.450924E3,2.6075059E3,5.571797E2,1.0104495E3,8.4650275E2,2.550658E3,1.77247E3,3.678454E3,9.604471E2,1.6470588E3,1.5624548E2,4.0093417E2,4.33304E2,5.7714557E2,8.2976025E2,1.6742483E1,7.923581E2,1.7582999E3,1.7506426E3,2.1827332E1,3.6199946E3,5.845952E1,8.1433856E2,1.4610857E2,2.1720404E1,1.6253384E3],"tree_param":{"num_deleted":"0","num_feature":"11","num_nodes":"31","size_leaf_vector":"1"}},{"base_weights":[1.2057014E-3,1.909709E-1,-3.5707754E-1,2.2642156E-1,-7.6014656E-1,-1.5685496E-1,-5.6343305E-1,5.421231E-1,1.3161996E-1,-8.2102644E-1,-4.126322E-2,-2.0386887E-1,9.927471E-1,-3.9391924E-2,-6.1959845E-1,5.012567E-2,2.1661673E-2,1.3854065E-2,-2.5300931E-2,-6.750178E-2,3.292617E-2,2.6009994E-2,-8.0572344E-2,-1.8805709E-2,7.8633934E-2,7.128971E-2,1.3806497E-1,-1.1925424E-2,2.4487996E-1,-5.4879125E-2,-1.2778961E-2],"categories":[],"categories_nodes":[],"categories_segments":[],"categories_sizes":[],"default_left":[0,0,0,0,0,0,0,0,0,0,0,0,0,0,0,0,0,0,0,0,0,0,0,0,0,0,0,0,0,0,0],"id":23,"left_children":[1,3,5,7,9,11,13,15,17,19,21,23,25,27,29,-1,-1,-1,-1,-1,-1,-1,-1,-1,-1,-1,-1,-1,-1,-1,-1],"loss_changes":[8.7391705E2,2.8350232E2,1.8379993E2,2.4240823E2,1.3191071E1,1.22364685E2,6.4474365E1,4.2697998E1,1.1604742E2,8.156387E0,9.049221E0,8.067376E1,5.090561E0,7.2952034E1,6.0315796E1,0E0,0E0,0E0,0E0,0E0,0E0,0E0,0E0,0E0,0E0,0E0,0E0,0E0,0E0,0E0,0E0],"parents":[2147483647,0,0,1,1,2,2,3,3,4,4,5,5,6,6,7,7,8,8,9,9,10,10,11,11,12,12,13,13,14,14],"right_children":[2,4,6,8,10,12,14,16,18,20,22,24,26,28,30,-1,-1,-1,-1,-1,-1,-1,-1,-1,-1,-1,-1,-1,-1,-1,-1],"split_conditions":[3.1059717E2,1E0,3.8796997E0,8.798218E-1,2.1914648E-2,4.735E2,3.163798E2,1.1543304E0,4.319755E0,1.0544453E1,3.043035E2,3.8488455E0,2.1014404E-1,1.2163727E1,2.07766E3,5.012567E-2,2.1661673E-2,1.3854065E-2,-2.5300931E-2,-6.750178E-2,3.292617E-2,2.6009994E-2,-8.0572344E-2,-1.8805709E-2,7.8633934E-2,7.128971E-2,1.3806497E-1,-1.1925424E-2,2.4487996E-1,-5.4879125E-2,-1.2778961E-2],"split_indices":[0,6,3,3,8,0,0,4,4,4,0,9,3,3,5,0,0,0,0,0,0,0,0,0,0,0,0,0,0,0,0],"split_type":[0,0,0,0,0,0,0,0,0,0,0,0,0,0,0,0,0,0,0,0,0,0,0,0,0,0,0,0,0,0,0],"sum_hessian":[1.2851667E4,8.402002E3,4.449665E3,8.1008247E3,3.011772E2,2.2592856E3,2.1903792E3,1.8697152E3,6.23111E3,2.7753183E2,2.3645351E1,2.1713108E3,8.7974846E1,2.121988E2,1.9781804E3,1.4249467E3,4.4476846E2,5.7026167E3,5.284932E2,2.7281293E2,4.718919E0,1.7623632E1,6.0217175E0,2.1164675E3,5.4843094E1,7.920953E1,8.765311E0,2.0586818E2,6.3306365E0,1.7281886E3,2.4999184E2],"tree_param":{"num_deleted":"0","num_feature":"11","num_nodes":"31","size_leaf_vector":"1"}},{"base_weights":[-2.4601575E-3,3.1322053E-1,-1.9573426E-1,5.4340965E-1,2.0517173E-1,-1.1538033E-1,-7.691919E-1,7.299827E-1,4.2470983E-1,2.2042397E-1,-1.0347728E0,-1.39442105E-2,-5.3877884E-1,-8.186271E-1,4.620409E-3,2.7036339E-2,6.952964E-2,5.172382E-2,2.1126162E-2,3.273376E-2,1.2651414E-2,-8.456654E-2,-8.726927E-3,-2.965575E-3,6.1978083E-2,-8.988544E-3,-5.3501442E-2,-5.9386835E-2,-7.6882705E-2,1.4956369E-1,-3.986183E-2],"categories":[],"categories_nodes":[],"categories_segments":[],"categories_sizes":[],"default_left":[0,0,0,0,0,0,0,0,0,0,0,0,0,0,0,0,0,0,0,0,0,0,0,0,0,0,0,0,0,0,0],"id":24,"left_children":[1,3,5,7,9,11,13,15,17,19,21,23,25,27,29,-1,-1,-1,-1,-1,-1,-1,-1,-1,-1,-1,-1,-1,-1,-1,-1],"loss_changes":[7.736139E2,1.1964578E2,3.6230386E2,3.3740448E1,6.223047E1,2.9629523E2,3.697119E1,3.2240143E1,3.3399765E1,3.801677E1,7.110138E-1,1.0155695E2,7.3834656E1,9.155334E0,5.6288013E1,0E0,0E0,0E0,0E0,0E0,0E0,0E0,0E0,0E0,0E0,0E0,0E0,0E0,0E0,0E0,0E0],"parents":[2147483647,0,0,1,1,2,2,3,3,4,4,5,5,6,6,7,7,8,8,9,9,10,10,11,11,12,12,13,13,14,14],"right_children":[2,4,6,8,10,12,14,16,18,20,22,24,26,28,30,-1,-1,-1,-1,-1,-1,-1,-1,-1,-1,-1,-1,-1,-1,-1,-1],"split_conditions":[2.9336026E2,9.069824E-1,1E0,2.833433E2,1E0,2.8218997E0,1.0913239E1,6.85271E2,6.2164307E-1,2.8323532E2,6.000721E0,4.6843686E2,3.6093445E0,1.2180707E3,3.1596844E2,2.7036339E-2,6.952964E-2,5.172382E-2,2.1126162E-2,3.273376E-2,1.2651414E-2,-8.456654E-2,-8.726927E-3,-2.965575E-3,6.1978083E-2,-8.988544E-3,-5.3501442E-2,-5.9386835E-2,-7.6882705E-2,1.4956369E-1,-3.986183E-2],"split_indices":[0,3,6,0,6,1,3,5,3,0,1,0,3,5,0,0,0,0,0,0,0,0,0,0,0,0,0,0,0,0,0],"split_type":[0,0,0,0,0,0,0,0,0,0,0,0,0,0,0,0,0,0,0,0,0,0,0,0,0,0,0,0,0,0,0],"sum_hessian":[1.2677508E4,4.8140107E3,7.8634966E3,1.5365302E3,3.2774807E3,6.8981206E3,9.6537604E2,5.9544965E2,9.4108044E2,3.2384675E3,3.901333E1,5.5657363E3,1.3323839E3,9.0735175E2,5.8024315E1,1.5687492E2,4.3857474E2,3.9397128E2,5.4710913E2,8.020939E2,2.4363735E3,3.7956627E1,1.0567015E0,5.4081123E3,1.5762428E2,3.1170813E2,1.02067584E3,5.948729E2,3.124788E2,1.1746417E1,4.6277897E1],"tree_param":{"num_deleted":"0","num_feature":"11","num_nodes":"31","size_leaf_vector":"1"}},{"base_weights":[2.6399759E-3,1.7050283E-1,-3.2356346E-1,4.8949605E-1,8.8972E-2,-7.889309E-3,-4.5594507E-1,5.404838E-1,3.9462708E-2,1.1682693E-1,-6.280475E-1,2.1218221E-1,-2.3171447E-1,-3.739556E-1,-7.6609504E-1,5.1909894E-2,2.9331803E-2,5.599731E-3,-1.7290694E-1,1.8986292E-2,-1.3833671E-3,-5.169308E-2,1.490921E-1,2.36573E-2,-4.3944515E-2,-6.332638E-3,-5.2973714E-2,-2.037262E-2,-5.79311E-2,-6.817889E-2,1.1152839E-2],"categories":[],"categories_nodes":[],"categories_segments":[],"categories_sizes":[],"default_left":[0,0,0,0,0,0,0,0,0,0,0,0,0,0,0,0,0,0,0,0,0,0,0,0,0,0,0,0,0,0,0],"id":25,"left_children":[1,3,5,7,9,11,13,15,17,19,21,23,25,27,29,-1,-1,-1,-1,-1,-1,-1,-1,-1,-1,-1,-1,-1,-1,-1,-1],"loss_changes":[6.86702E2,2.1529971E2,1.7805447E2,3.864868E1,1.3180627E2,6.210951E1,7.604944E1,2.8282715E1,1.1748668E1,1.02628494E2,1.2344978E1,4.0606247E1,4.099785E1,9.908505E1,4.900183E1,0E0,0E0,0E0,0E0,0E0,0E0,0E0,0E0,0E0,0E0,0E0,0E0,0E0,0E0,0E0,0E0],"parents":[2147483647,0,0,1,1,2,2,3,3,4,4,5,5,6,6,7,7,8,8,9,9,10,10,11,11,12,12,13,13,14,14],"right_children":[2,4,6,8,10,12,14,16,18,20,22,24,26,28,30,-1,-1,-1,-1,-1,-1,-1,-1,-1,-1,-1,-1,-1,-1,-1,-1],"split_conditions":[2.9635925E0,8.078613E-1,8.631912E-1,8.952942E-1,1E0,4.9711578E2,1E0,6.600342E-1,4.190696E-2,1.2962962E0,7.619769E0,2.806613E-2,4.8460975E-2,1.0913239E1,1.0913239E1,5.1909894E-2,2.9331803E-2,5.599731E-3,-1.7290694E-1,1.8986292E-2,-1.3833671E-3,-5.169308E-2,1.490921E-1,2.36573E-2,-4.3944515E-2,-6.332638E-3,-5.2973714E-2,-2.037262E-2,-5.79311E-2,-6.817889E-2,1.1152839E-2],"split_indices":[3,3,1,10,6,5,6,3,8,4,1,8,9,3,3,0,0,0,0,0,0,0,0,0,0,0,0,0,0,0,0],"split_type":[0,0,0,0,0,0,0,0,0,0,0,0,0,0,0,0,0,0,0,0,0,0,0,0,0,0,0,0,0,0,0],"sum_hessian":[1.2538792E4,8.278955E3,4.259837E3,1.6842487E3,6.5947065E3,1.2589155E3,3.0009211E3,1.5126661E3,1.7158249E2,6.3489004E3,2.4580634E2,6.3480676E2,6.2410876E2,2.3752258E3,6.2569543E2,9.3003845E2,5.826277E2,1.7018947E2,1.3930169E0,3.3438164E3,3.005084E3,2.4476741E2,1.0389192E0,5.726046E2,6.2202106E1,4.6167303E2,1.6243576E2,1.7729553E3,6.022704E2,5.7139703E2,5.4298405E1],"tree_param":{"num_deleted":"0","num_feature":"11","num_nodes":"31","size_leaf_vector":"1"}},{"base_weights":[-7.288156E-3,1.5137778E-1,-3.1230175E-1,3.0690706E-1,-1.957606E-2,-2.3593481E-1,-7.255185E-1,5.9138507E-1,2.1570149E-1,1.5199109E-2,-6.9578165E-1,-1.3420913E-1,-5.543123E-1,-6.1601704E-1,-9.641565E-1,2.3895184E-2,6.1970096E-2,1.893314E-2,-5.393899E-2,5.706781E-3,-2.3484575E-2,-6.145245E-2,-1.2191948E-3,-1.5176709E-2,5.744875E-2,-5.2933592E-2,-7.863701E-3,-6.758905E-2,-4.1803055E-2,-8.0575876E-2,-5.0791595E-2],"categories":[],"categories_nodes":[],"categories_segments":[],"categories_sizes":[],"default_left":[0,0,0,0,0,0,0,0,0,0,0,0,0,0,0,0,0,0,0,0,0,0,0,0,0,0,0,0,0,0,0],"id":26,"left_children":[1,3,5,7,9,11,13,15,17,19,21,23,25,27,29,-1,-1,-1,-1,-1,-1,-1,-1,-1,-1,-1,-1,-1,-1,-1,-1],"loss_changes":[5.996511E2,2.1672134E2,1.3362518E2,1.10609436E2,9.133841E1,1.1587393E2,1.667566E1,5.5310455E1,6.0480713E1,6.406012E1,9.345642E0,1.2854121E2,4.235971E1,9.308746E0,2.281372E0,0E0,0E0,0E0,0E0,0E0,0E0,0E0,0E0,0E0,0E0,0E0,0E0,0E0,0E0,0E0,0E0],"parents":[2147483647,0,0,1,1,2,2,3,3,4,4,5,5,6,6,7,7,8,8,9,9,10,10,11,11,12,12,13,13,14,14],"right_children":[2,4,6,8,10,12,14,16,18,20,22,24,26,28,30,-1,-1,-1,-1,-1,-1,-1,-1,-1,-1,-1,-1,-1,-1,-1,-1],"split_conditions":[3.1059717E2,1.1543304E0,1E0,2.8312677E2,1E0,3.5219026E0,1.2298021E3,6.2755426E2,1E0,4.255544E0,1.1149558E-2,4.6843686E2,1.4994233E-2,3.7433456E2,4.975788E0,2.3895184E-2,6.1970096E-2,1.893314E-2,-5.393899E-2,5.706781E-3,-2.3484575E-2,-6.145245E-2,-1.2191948E-3,-1.5176709E-2,5.744875E-2,-5.2933592E-2,-7.863701E-3,-6.758905E-2,-4.1803055E-2,-8.0575876E-2,-5.0791595E-2],"split_indices":[0,4,6,0,6,1,5,5,6,4,8,0,8,5,1,0,0,0,0,0,0,0,0,0,0,0,0,0,0,0,0],"split_type":[0,0,0,0,0,0,0,0,0,0,0,0,0,0,0,0,0,0,0,0,0,0,0,0,0,0,0,0,0,0,0],"sum_hessian":[1.2388721E4,8.1497705E3,4.23895E3,4.2669854E3,3.8827852E3,3.57907E3,6.5988E2,1.0345745E3,3.232411E3,3.6938018E3,1.8898332E2,2.713495E3,8.6557495E2,4.5478058E2,2.0509943E2,3.9933594E2,6.3523846E2,3.15874E3,7.3670944E1,3.1261912E3,5.6761066E2,1.7070094E2,1.8282383E1,2.5483347E3,1.6516043E2,7.002642E2,1.6531075E2,1.2956169E2,3.2521887E2,1.7956699E2,2.553244E1],"tree_param":{"num_deleted":"0","num_feature":"11","num_nodes":"31","size_leaf_vector":"1"}},{"base_weights":[-2.2295672E-3,1.6002089E-1,-2.794104E-1,3.2844913E-1,4.4506816E-3,-1.2968105E-1,-5.3233516E-1,6.62624E-1,2.71515E-1,4.280006E-1,-3.1523857E-2,-1.6704679E-1,8.5284877E-1,-3.6126477E-1,-6.3855493E-1,5.366201E-2,-1.3342117E-1,3.7820246E-2,1.5345601E-2,4.0624373E-2,-2.320748E-2,4.0457933E-4,-4.0540613E-2,1.7599958E-3,-2.1963038E-2,4.422204E-2,1.22036226E-1,-2.1358186E-2,-6.9393866E-2,-6.1665494E-2,-3.3276405E-2],"categories":[],"categories_nodes":[],"categories_segments":[],"categories_sizes":[],"default_left":[0,0,0,0,0,0,0,0,0,0,0,0,0,0,0,0,0,0,0,0,0,0,0,0,0,0,0,0,0,0,0],"id":27,"left_children":[1,3,5,7,9,11,13,15,17,19,21,23,25,27,29,-1,-1,-1,-1,-1,-1,-1,-1,-1,-1,-1,-1,-1,-1,-1,-1],"loss_changes":[5.511145E2,2.0253671E2,1.7128165E2,7.043454E1,6.1255135E1,1.045346E2,3.0336731E1,1.1368362E1,5.0795105E1,1.818309E1,6.4421906E1,5.5687836E1,2.021566E1,3.063153E1,3.0196198E1,0E0,0E0,0E0,0E0,0E0,0E0,0E0,0E0,0E0,0E0,0E0,0E0,0E0,0E0,0E0,0E0],"parents":[2147483647,0,0,1,1,2,2,3,3,4,4,5,5,6,6,7,7,8,8,9,9,10,10,11,11,12,12,13,13,14,14],"right_children":[2,4,6,8,10,12,14,16,18,20,22,24,26,28,30,-1,-1,-1,-1,-1,-1,-1,-1,-1,-1,-1,-1,-1,-1,-1,-1],"split_conditions":[1.049393E0,2.9336026E2,4.7536926E0,6.2164307E-1,6.96228E-1,4.8329268E0,3.2904034E2,3.8062286E-2,2.8323532E2,1.9122314E-1,3.4541235E2,2.9694412E2,3.278074E2,1.4567542E-1,3.4784067E-2,5.366201E-2,-1.3342117E-1,3.7820246E-2,1.5345601E-2,4.0624373E-2,-2.320748E-2,4.0457933E-4,-4.0540613E-2,1.7599958E-3,-2.1963038E-2,4.422204E-2,1.22036226E-1,-2.1358186E-2,-6.9393866E-2,-6.1665494E-2,-3.3276405E-2],"split_indices":[1,0,3,3,3,9,0,8,0,2,0,0,0,9,9,0,0,0,0,0,0,0,0,0,0,0,0,0,0,0,0],"split_type":[0,0,0,0,0,0,0,0,0,0,0,0,0,0,0,0,0,0,0,0,0,0,0,0,0,0,0,0,0,0,0],"sum_hessian":[1.2252426E4,7.7287505E3,4.5236753E3,3.710482E3,4.0182686E3,2.8424695E3,1.6812057E3,5.3858984E2,3.171892E3,3.137229E2,3.7045457E3,2.7391301E3,1.0333948E2,6.4569476E2,1.035511E3,5.3742224E2,1.1676085E0,8.984021E2,2.27349E3,2.8260855E2,3.111435E1,3.4406882E3,2.6385745E2,9.931878E2,1.7459423E3,7.2718796E1,3.0620676E1,5.4558954E2,1.0010519E2,6.4801337E2,3.8749762E2],"tree_param":{"num_deleted":"0","num_feature":"11","num_nodes":"31","size_leaf_vector":"1"}},{"base_weights":[-3.7251494E-4,1.4050378E-1,-2.8095073E-1,4.878667E-1,7.861104E-2,-1.5015765E-1,-5.606686E-1,3.2708597E-1,7.287766E-1,1.0342806E-1,-6.280765E-1,-3.895229E-2,-6.9724333E-1,-5.941465E-1,8.02201E-1,3.4373645E-2,5.3355694E-3,7.2319895E-2,4.2436894E-2,3.550646E-2,5.0203935E-3,-6.611043E-2,-1.141222E-2,3.7654897E-3,-2.6994562E-2,-6.090177E-2,1.012522E-1,7.218817E-2,-4.9634967E-2,-5.785211E-4,1.2513597E-1],"categories":[],"categories_nodes":[],"categories_segments":[],"categories_sizes":[],"default_left":[0,0,0,0,0,0,0,0,0,0,0,0,0,0,0,0,0,0,0,0,0,0,0,0,0,0,0,0,0,0,0],"id":28,"left_children":[1,3,5,7,9,11,13,15,17,19,21,23,25,27,29,-1,-1,-1,-1,-1,-1,-1,-1,-1,-1,-1,-1,-1,-1,-1,-1],"loss_changes":[4.7838373E2,1.7318683E2,1.479209E2,4.6951935E1,1.2002297E2,1.677618E2,5.926895E1,1.9537834E1,1.6437561E1,9.1471886E1,2.223336E1,5.8892014E1,5.951091E1,5.0064392E1,1.9328693E1,0E0,0E0,0E0,0E0,0E0,0E0,0E0,0E0,0E0,0E0,0E0,0E0,0E0,0E0,0E0,0E0],"parents":[2147483647,0,0,1,1,2,2,3,3,4,4,5,5,6,6,7,7,8,8,9,9,10,10,11,11,12,12,13,13,14,14],"right_children":[2,4,6,8,10,12,14,16,18,20,22,24,26,28,30,-1,-1,-1,-1,-1,-1,-1,-1,-1,-1,-1,-1,-1,-1,-1,-1],"split_conditions":[2.9635925E0,2.8344156E2,3.3735458E2,1.2618785E3,1E0,1E0,3.8488455E0,9.88895E-1,9.069824E-1,6.600342E-1,3.2151846E2,2.5950449E0,1.2163727E1,3.2019526E-2,4.917938E0,3.4373645E-2,5.3355694E-3,7.2319895E-2,4.2436894E-2,3.550646E-2,5.0203935E-3,-6.611043E-2,-1.141222E-2,3.7654897E-3,-2.6994562E-2,-6.090177E-2,1.012522E-1,7.218817E-2,-4.9634967E-2,-5.785211E-4,1.2513597E-1],"split_indices":[3,0,0,5,6,6,9,4,3,3,0,1,3,1,10,0,0,0,0,0,0,0,0,0,0,0,0,0,0,0,0],"split_type":[0,0,0,0,0,0,0,0,0,0,0,0,0,0,0,0,0,0,0,0,0,0,0,0,0,0,0,0,0,0,0],"sum_hessian":[1.2100764E4,8.0562686E3,4.0444954E3,1.2173286E3,6.83894E3,2.756924E3,1.2875713E3,7.314945E2,4.8583408E2,6.607747E3,2.3119313E2,2.2920862E3,4.64838E2,1.2572518E3,3.0319395E1,5.2429254E2,2.0720201E2,2.5604575E2,2.2978835E2,7.0420264E2,5.9035444E3,1.6364069E2,6.7552444E1,1.7799519E3,5.121342E2,4.50747E2,1.40910015E1,2.1130901E1,1.236121E3,1.5182406E1,1.513699E1],"tree_param":{"num_deleted":"0","num_feature":"11","num_nodes":"31","size_leaf_vector":"1"}},{"base_weights":[-5.5536306E-3,1.2571625E-1,-2.8220755E-1,3.0239683E-1,-3.0734695E-3,-7.587763E-2,-4.1809627E-1,4.1683674E-1,1.0913299E-1,3.1018384E-2,-7.1435344E-1,-1.2932073E-1,3.1087822E-1,-3.46874E-1,-6.874309E-1,4.5803905E-2,2.5844311E-2,9.958483E-3,-1.1572177E-1,1.551928E-2,-3.204812E-3,-5.9969224E-2,1.08950995E-2,8.83801E-3,-2.2715135E-2,3.8291343E-2,-4.871354E-2,-1.5706645E-2,-4.411216E-2,-6.0707018E-2,6.470579E-3],"categories":[],"categories_nodes":[],"categories_segments":[],"categories_sizes":[],"default_left":[0,0,0,0,0,0,0,0,0,0,0,0,0,0,0,0,0,0,0,0,0,0,0,0,0,0,0,0,0,0,0],"id":29,"left_children":[1,3,5,7,9,11,13,15,17,19,21,23,25,27,29,-1,-1,-1,-1,-1,-1,-1,-1,-1,-1,-1,-1,-1,-1,-1,-1],"loss_changes":[4.356836E2,1.8514018E2,1.08211334E2,7.5824524E1,1.1416034E2,3.1751122E1,4.4407257E1,3.1273285E1,3.0674068E1,5.2049664E1,6.56015E0,5.0034676E1,2.9078514E1,5.6627594E1,2.6709457E1,0E0,0E0,0E0,0E0,0E0,0E0,0E0,0E0,0E0,0E0,0E0,0E0,0E0,0E0,0E0,0E0],"parents":[2147483647,0,0,1,1,2,2,3,3,4,4,5,5,6,6,7,7,8,8,9,9,10,10,11,11,12,12,13,13,14,14],"right_children":[2,4,6,8,10,12,14,16,18,20,22,24,26,28,30,-1,-1,-1,-1,-1,-1,-1,-1,-1,-1,-1,-1,-1,-1,-1,-1],"split_conditions":[1.2192551E0,2.918604E2,3.0003052E0,1.096281E0,1E0,3.344987E2,1E0,2.8312677E2,3.1526335E-2,1.1942139E0,2.7681662E-2,2.941351E2,5.7629642E0,3.9820688E0,1.1481476E1,4.5803905E-2,2.5844311E-2,9.958483E-3,-1.1572177E-1,1.551928E-2,-3.204812E-3,-5.9969224E-2,1.08950995E-2,8.83801E-3,-2.2715135E-2,3.8291343E-2,-4.871354E-2,-1.5706645E-2,-4.411216E-2,-6.0707018E-2,6.470579E-3],"split_indices":[1,0,3,4,6,0,6,0,8,3,8,0,4,1,3,0,0,0,0,0,0,0,0,0,0,0,0,0,0,0,0],"split_type":[0,0,0,0,0,0,0,0,0,0,0,0,0,0,0,0,0,0,0,0,0,0,0,0,0,0,0,0,0,0,0],"sum_hessian":[1.1994929E4,8.13533E3,3.8595981E3,3.429379E3,4.705951E3,1.5331941E3,2.326404E3,2.153212E3,1.276167E3,4.491623E3,2.1432838E2,1.3476389E3,1.8555522E2,1.8416816E3,4.8472238E2,8.074535E2,1.3457583E3,1.2646104E3,1.1556636E1,1.363527E3,3.128096E3,2.059104E2,8.417991E0,5.284139E2,8.1922504E2,1.5733772E2,2.8217499E1,1.0619807E3,7.797009E2,4.435146E2,4.1207794E1],"tree_param":{"num_deleted":"0","num_feature":"11","num_nodes":"31","size_leaf_vector":"1"}},{"base_weights":[-2.8373138E-3,2.1323647E-1,-1.4137693E-1,4.7208965E-1,1.4828359E-1,-8.586588E-2,-6.223957E-1,5.308536E-1,-1.0899313E-1,1.821942E-1,-3.5446906E-1,-1.3023742E-2,-3.7757322E-1,-6.6885054E-1,1.7377512E-1,4.3118227E-2,-1.8286125E-1,6.094901E-2,-1.8720051E-2,-9.544436E-4,2.0496313E-2,-4.0414024E-2,1.8152082E-2,-3.3057407E-2,1.2508854E-3,-6.708438E-3,-4.3381646E-2,-2.9262066E-2,-5.9039295E-2,-1.5617536E-2,7.1357794E-2],"categories":[],"categories_nodes":[],"categories_segments":[],"categories_sizes":[],"default_left":[0,0,0,0,0,0,0,0,0,0,0,0,0,0,0,0,0,0,0,0,0,0,0,0,0,0,0,0,0,0,0],"id":30,"left_children":[1,3,5,7,9,11,13,15,17,19,21,23,25,27,29,-1,-1,-1,-1,-1,-1,-1,-1,-1,-1,-1,-1,-1,-1,-1,-1],"loss_changes":[3.555096E2,7.7939316E1,1.931714E2,3.182251E1,6.33238E1,1.3787384E2,2.7801697E1,2.0567307E1,9.56922E0,4.9953392E1,2.0686785E1,5.9571095E1,6.2673416E1,1.4555084E1,1.1320884E1,0E0,0E0,0E0,0E0,0E0,0E0,0E0,0E0,0E0,0E0,0E0,0E0,0E0,0E0,0E0,0E0],"parents":[2147483647,0,0,1,1,2,2,3,3,4,4,5,5,6,6,7,7,8,8,9,9,10,10,11,11,12,12,13,13,14,14],"right_children":[2,4,6,8,10,12,14,16,18,20,22,24,26,28,30,-1,-1,-1,-1,-1,-1,-1,-1,-1,-1,-1,-1,-1,-1,-1,-1],"split_conditions":[1.4786682E0,6.600342E-1,1E0,1.1535339E0,3.6074061E0,2.8218997E0,1.2163727E1,3.8062286E-2,8.978411E-3,7.75512E2,8.952942E-1,-2.2805786E-1,4.335663E0,2.732727E0,7.75512E2,4.3118227E-2,-1.8286125E-1,6.094901E-2,-1.8720051E-2,-9.544436E-4,2.0496313E-2,-4.0414024E-2,1.8152082E-2,-3.3057407E-2,1.2508854E-3,-6.708438E-3,-4.3381646E-2,-2.9262066E-2,-5.9039295E-2,-1.5617536E-2,7.1357794E-2],"split_indices":[3,3,6,10,4,1,3,8,9,7,10,2,3,3,7,0,0,0,0,0,0,0,0,0,0,0,0,0,0,0,0],"split_type":[0,0,0,0,0,0,0,0,0,0,0,0,0,0,0,0,0,0,0,0,0,0,0,0,0,0,0,0,0,0,0],"sum_hessian":[1.1874133E4,4.6387505E3,7.2353823E3,9.292386E2,3.709512E3,6.4878433E3,7.475387E2,8.439751E2,8.5263466E1,3.4757131E3,2.3379883E2,5.1923164E3,1.2955269E3,7.064772E2,4.106152E1,8.4235406E2,1.621021E0,1.0063349E1,7.520012E1,9.59588E2,2.5161252E3,1.8577277E2,4.8026066E1,3.461E2,4.8462163E3,4.6599338E2,8.295335E2,1.3239975E2,5.7407745E2,2.760622E1,1.34553E1],"tree_param":{"num_deleted":"0","num_feature":"11","num_nodes":"31","size_leaf_vector":"1"}},{"base_weights":[2.3141217E-3,1.3827729E-1,-2.0330365E-1,4.126034E-1,7.626328E-2,-8.586145E-2,-4.3930626E-1,6.861799E-1,3.3007187E-1,1.03805825E-1,-3.9315492E-1,-1.1778523E-1,7.99656E-1,-2.7889198E-1,-5.4615283E-1,2.823025E-2,6.790878E-2,2.7956532E-2,-5.0636552E-2,7.3774634E-3,7.252377E-2,-4.0692266E-2,6.1690435E-2,1.0579896E-1,-1.041483E-2,3.9519988E-2,1.171333E-1,-1.2743062E-2,-5.877512E-2,-5.8807258E-2,-2.766875E-2],"categories":[],"categories_nodes":[],"categories_segments":[],"categories_sizes":[],"default_left":[0,0,0,0,0,0,0,0,0,0,0,0,0,0,0,0,0,0,0,0,0,0,0,0,0,0,0,0,0,0,0],"id":31,"left_children":[1,3,5,7,9,11,13,15,17,19,21,23,25,27,29,-1,-1,-1,-1,-1,-1,-1,-1,-1,-1,-1,-1,-1,-1,-1,-1],"loss_changes":[3.2989304E2,1.208096E2,1.3014711E2,2.9339493E1,7.496155E1,8.878895E1,2.6593628E1,1.6105408E1,1.9036972E1,5.0838356E1,4.360758E1,5.427273E1,2.1477463E1,3.4003498E1,3.5150665E1,0E0,0E0,0E0,0E0,0E0,0E0,0E0,0E0,0E0,0E0,0E0,0E0,0E0,0E0,0E0,0E0],"parents":[2147483647,0,0,1,1,2,2,3,3,4,4,5,5,6,6,7,7,8,8,9,9,10,10,11,11,12,12,13,13,14,14],"right_children":[2,4,6,8,10,12,14,16,18,20,22,24,26,28,30,-1,-1,-1,-1,-1,-1,-1,-1,-1,-1,-1,-1,-1,-1,-1,-1],"split_conditions":[9.40345E-1,8.078613E-1,4.7536926E0,2.8291455E2,3.381989E2,4.8329268E0,3.2904034E2,7.847701E2,3.572693E-1,3.3536832E2,4.735E2,7.336508E-3,3.264129E2,6.6082574E-2,4.0372574E2,2.823025E-2,6.790878E-2,2.7956532E-2,-5.0636552E-2,7.3774634E-3,7.252377E-2,-4.0692266E-2,6.1690435E-2,1.0579896E-1,-1.041483E-2,3.9519988E-2,1.171333E-1,-1.2743062E-2,-5.877512E-2,-5.8807258E-2,-2.766875E-2],"split_indices":[1,3,3,0,0,9,0,5,2,0,0,9,0,9,0,0,0,0,0,0,0,0,0,0,0,0,0,0,0,0,0],"split_type":[0,0,0,0,0,0,0,0,0,0,0,0,0,0,0,0,0,0,0,0,0,0,0,0,0,0,0,0,0,0,0],"sum_hessian":[1.1798245E4,7.102259E3,4.6959863E3,1.308464E3,5.7937944E3,3.1365208E3,1.5594657E3,3.015543E2,1.0069097E3,5.473427E3,3.203678E2,3.0282173E3,1.0830324E2,6.2489246E2,9.3457324E2,9.994804E1,2.0160626E2,9.8766614E2,1.9243607E1,5.3966416E3,7.678534E1,2.9196744E2,2.8400385E1,2.4947292E1,3.00327E3,7.5375854E1,3.2927383E1,4.960703E2,1.2882214E2,4.795454E2,4.5502786E2],"tree_param":{"num_deleted":"0","num_feature":"11","num_nodes":"31","size_leaf_vector":"1"}},{"base_weights":[3.701419E-3,1.099717E-1,-2.3283073E-1,2.435537E-1,-2.8570242E-2,-2.623794E-1,8.598416E-1,4.279795E-2,3.22633E-1,6.880212E-2,-1.4210096E-1,-1.5194982E-1,-4.8600408E-1,-1.0482664E-1,9.8997885E-1,1.5571888E-2,-4.2349644E-2,4.95126E-2,1.9666579E-2,1.9598072E-2,2.6613905E-4,1.0613803E-2,-1.6263671E-2,-1.8482339E-2,1.1086193E-2,-5.298821E-2,2.1305904E-3,5.7611536E-2,1.1522724E-1],"categories":[],"categories_nodes":[],"categories_segments":[],"categories_sizes":[],"default_left":[0,0,0,0,0,0,0,0,0,0,0,0,0,0,0,0,0,0,0,0,0,0,0,0,0,0,0,0,0],"id":32,"left_children":[1,3,5,7,9,11,13,15,17,19,21,23,25,-1,27,-1,-1,-1,-1,-1,-1,-1,-1,-1,-1,-1,-1,-1,-1],"loss_changes":[2.942808E2,1.4950453E2,1.1740639E2,6.52784E1,4.385611E1,8.7211105E1,2.8352097E1,1.011824E2,6.69805E1,2.4635227E1,3.08237E1,5.4426414E1,1.0560565E2,0E0,1.0014847E1,0E0,0E0,0E0,0E0,0E0,0E0,0E0,0E0,0E0,0E0,0E0,0E0,0E0,0E0],"parents":[2147483647,0,0,1,1,2,2,3,3,4,4,5,5,6,6,7,7,8,8,9,9,10,10,11,11,12,12,14,14],"right_children":[2,4,6,8,10,12,14,16,18,20,22,24,26,-1,28,-1,-1,-1,-1,-1,-1,-1,-1,-1,-1,-1,-1,-1,-1],"split_conditions":[3.1234064E2,1.1543304E0,3.8488455E0,5.0574094E2,6.976394E-1,3.4541235E2,3.2050534E2,2.9478455E2,2.8323532E2,5.599593E2,3.178512E2,3.344987E2,4.6843686E2,-1.0482664E-1,5.5051703E0,1.5571888E-2,-4.2349644E-2,4.95126E-2,1.9666579E-2,1.9598072E-2,2.6613905E-4,1.0613803E-2,-1.6263671E-2,-1.8482339E-2,1.1086193E-2,-5.298821E-2,2.1305904E-3,5.7611536E-2,1.1522724E-1],"split_indices":[0,4,9,5,1,0,0,0,0,5,5,0,0,0,9,0,0,0,0,0,0,0,0,0,0,0,0,0,0],"split_type":[0,0,0,0,0,0,0,0,0,0,0,0,0,0,0,0,0,0,0,0,0,0,0,0,0,0,0,0,0],"sum_hessian":[1.1705367E4,8.0770205E3,3.6283467E3,4.1117334E3,3.965287E3,3.5335503E3,9.479642E1,1.1623807E3,2.9493525E3,2.134756E3,1.830531E3,2.3665757E3,1.1669747E3,4.8499312E0,8.994649E1,9.191127E2,2.432681E2,6.056966E2,2.343656E3,5.776741E2,1.557082E3,3.3320914E2,1.4973219E3,1.8603944E3,5.061812E2,8.6806555E2,2.9890924E2,5.7871662E1,3.207483E1],"tree_param":{"num_deleted":"0","num_feature":"11","num_nodes":"29","size_leaf_vector":"1"}},{"base_weights":[-5.1290006E-3,1.4034641E-1,-1.5807407E-1,2.2861773E-1,-3.5549063E-2,-2.7397195E-2,-2.986569E-1,2.6968497E-1,-6.764577E-2,3.0450574E-1,-1.0250834E-1,9.812912E-2,-1.0802419E-1,-1.9590797E-1,-4.762386E-1,1.1754748E-2,3.0099105E-2,-3.1904798E-2,1.6917031E-2,3.0766837E-2,-5.709167E-2,-1.4373319E-2,1.1600214E-2,1.9706322E-2,-9.6557406E-4,-1.3879603E-2,2.0729452E-2,-2.1900001E-3,-2.130828E-2,-5.2072614E-2,-2.1200044E-2],"categories":[],"categories_nodes":[],"categories_segments":[],"categories_sizes":[],"default_left":[0,0,0,0,0,0,0,0,0,0,0,0,0,0,0,0,0,0,0,0,0,0,0,0,0,0,0,0,0,0,0],"id":33,"left_children":[1,3,5,7,9,11,13,15,17,19,21,23,25,27,29,-1,-1,-1,-1,-1,-1,-1,-1,-1,-1,-1,-1,-1,-1,-1,-1],"loss_changes":[2.5841986E2,9.243183E1,1.0400575E2,4.8243423E1,4.5341736E1,2.9719444E1,4.9672806E1,4.5479187E1,4.476045E1,2.698667E1,3.1791183E1,1.8760843E1,4.301967E1,2.0525635E1,3.668698E1,0E0,0E0,0E0,0E0,0E0,0E0,0E0,0E0,0E0,0E0,0E0,0E0,0E0,0E0,0E0,0E0],"parents":[2147483647,0,0,1,1,2,2,3,3,4,4,5,5,6,6,7,7,8,8,9,9,10,10,11,11,12,12,13,13,14,14],"right_children":[2,4,6,8,10,12,14,16,18,20,22,24,26,28,30,-1,-1,-1,-1,-1,-1,-1,-1,-1,-1,-1,-1,-1,-1,-1,-1],"split_conditions":[7.4372035E-1,1.8777738E0,3.0003052E0,3.119736E2,3.577942E2,2.9381137E2,3.3735458E2,1.1392537E3,3.2370328E2,2.9219532E-2,2.3417852E3,6.913527E-1,3.344987E2,3.0365543E2,4.0372574E2,1.1754748E-2,3.0099105E-2,-3.1904798E-2,1.6917031E-2,3.0766837E-2,-5.709167E-2,-1.4373319E-2,1.1600214E-2,1.9706322E-2,-9.6557406E-4,-1.3879603E-2,2.0729452E-2,-2.1900001E-3,-2.130828E-2,-5.2072614E-2,-2.1200044E-2],"split_indices":[1,4,3,0,5,0,0,5,0,8,5,4,0,5,0,0,0,0,0,0,0,0,0,0,0,0,0,0,0,0,0],"split_type":[0,0,0,0,0,0,0,0,0,0,0,0,0,0,0,0,0,0,0,0,0,0,0,0,0,0,0,0,0,0,0],"sum_hessian":[1.1612512E4,5.9516323E3,5.660879E3,3.962695E3,1.9889375E3,2.9344216E3,2.7264573E3,3.4803484E3,4.8234662E2,3.2662326E2,1.6623142E3,1.1475735E3,1.786848E3,1.7284677E3,9.979897E2,1.6183638E3,1.8619846E3,2.2040538E2,2.6194125E2,3.033838E2,2.3239498E1,1.2674714E3,3.948427E2,4.8887668E2,6.5869684E2,1.5168776E3,2.6997052E2,5.0992322E2,1.2185444E3,5.451408E2,4.5284882E2],"tree_param":{"num_deleted":"0","num_feature":"11","num_nodes":"31","size_leaf_vector":"1"}},{"base_weights":[1.0656358E-3,4.0881377E-2,-5.743834E-1,1.5246163E-1,-1.0280658E-1,-4.371685E-1,-8.521083E-1,3.9804915E-1,1.0410565E-1,-2.580321E-2,-4.1710502E-1,-5.4998076E-1,-2.5165966E-1,-8.6541545E-1,-3.4847704E-1,3.635295E-2,-1.3253643E-2,1.789944E-2,1.2780451E-3,-3.633477E-3,5.544142E-2,-2.5172459E-2,-5.4830894E-2,-4.5908824E-2,7.353919E-2,-3.3321586E-2,1.6783766E-2,-5.953351E-2,-7.455326E-2,-5.750699E-2,2.1012384E-2],"categories":[],"categories_nodes":[],"categories_segments":[],"categories_sizes":[],"default_left":[0,0,0,0,0,0,0,0,0,0,0,0,0,0,0,0,0,0,0,0,0,0,0,0,0,0,0,0,0,0,0],"id":34,"left_children":[1,3,5,7,9,11,13,15,17,19,21,23,25,27,29,-1,-1,-1,-1,-1,-1,-1,-1,-1,-1,-1,-1,-1,-1,-1,-1],"loss_changes":[2.6423877E2,1.7295209E2,2.8068436E1,7.2067245E1,1.1411304E2,1.0358459E1,1.3453827E0,3.180156E1,5.3499725E1,5.344995E1,2.5287308E1,1.1440842E1,1.4657368E1,1.2314758E0,1.999553E0,0E0,0E0,0E0,0E0,0E0,0E0,0E0,0E0,0E0,0E0,0E0,0E0,0E0,0E0,0E0,0E0],"parents":[2147483647,0,0,1,1,2,2,3,3,4,4,5,5,6,6,7,7,8,8,9,9,10,10,11,11,12,12,13,13,14,14],"right_children":[2,4,6,8,10,12,14,16,18,20,22,24,26,28,30,-1,-1,-1,-1,-1,-1,-1,-1,-1,-1,-1,-1,-1,-1,-1,-1],"split_conditions":[1E0,1.7481554E0,1.2180707E3,2.8312677E2,2.5950449E0,4.3888955E0,8.682817E0,2.6143791E-2,5.093617E-1,4.735E2,1.7896296E1,1.0827806E1,8.4100665E2,3.119736E2,3.2103256E2,3.635295E-2,-1.3253643E-2,1.789944E-2,1.2780451E-3,-3.633477E-3,5.544142E-2,-2.5172459E-2,-5.4830894E-2,-4.5908824E-2,7.353919E-2,-3.3321586E-2,1.6783766E-2,-5.953351E-2,-7.455326E-2,-5.750699E-2,2.1012384E-2],"split_indices":[6,4,5,0,1,4,1,8,1,0,4,1,5,0,0,0,0,0,0,0,0,0,0,0,0,0,0,0,0,0,0],"split_type":[0,0,0,0,0,0,0,0,0,0,0,0,0,0,0,0,0,0,0,0,0,0,0,0,0,0,0,0,0,0,0],"sum_hessian":[1.1530777E4,1.0785453E4,7.4532446E2,6.0709907E3,4.7144624E3,5.005788E2,2.4474568E2,9.975354E2,5.073455E3,3.7875833E3,9.268789E2,3.1005963E2,1.9051917E2,2.3774551E2,7.0001545E0,9.070401E2,9.049529E1,2.151388E3,2.9220671E3,3.6878848E3,9.969852E1,6.7231354E2,2.5456537E2,3.0570044E2,4.359205E0,1.4044214E2,5.0077023E1,8.852784E1,1.4921768E2,4.248951E0,2.7512038E0],"tree_param":{"num_deleted":"0","num_feature":"11","num_nodes":"31","size_leaf_vector":"1"}},{"base_weights":[-1.4616254E-3,3.6642317E-2,-5.6854457E-1,7.7151276E-2,-3.3535308E-1,-6.2758076E-1,3.0835277E-1,3.9463353E-1,4.5488838E-2,-4.0812555E-1,1.0525476E0,-5.1912606E-1,-8.371001E-1,1.679493E0,-1.7246574E-1,3.4562908E-2,-3.5205904E-2,2.1891963E-2,1.314431E-3,-4.819166E-2,7.1546524E-3,1.014589E-1,7.1056373E-4,-4.3911766E-2,1.9477881E-2,-4.997065E-2,-7.535806E-2,-2.612904E-2,2.1427372E-1,2.1703353E-2,-6.614531E-2],"categories":[],"categories_nodes":[],"categories_segments":[],"categories_sizes":[],"default_left":[0,0,0,0,0,0,0,0,0,0,0,0,0,0,0,0,0,0,0,0,0,0,0,0,0,0,0,0,0,0,0],"id":35,"left_children":[1,3,5,7,9,11,13,15,17,19,21,23,25,27,29,-1,-1,-1,-1,-1,-1,-1,-1,-1,-1,-1,-1,-1,-1,-1,-1],"loss_changes":[2.4636838E2,1.610221E2,3.735698E1,9.684026E1,1.0641656E2,1.4856506E1,3.0584545E1,2.74664E1,5.809281E1,9.650267E1,1.1820362E1,1.0260124E1,4.489563E0,2.4969498E1,1.0366647E1,0E0,0E0,0E0,0E0,0E0,0E0,0E0,0E0,0E0,0E0,0E0,0E0,0E0,0E0,0E0,0E0],"parents":[2147483647,0,0,1,1,2,2,3,3,4,4,5,5,6,6,7,7,8,8,9,9,10,10,11,11,12,12,13,13,14,14],"right_children":[2,4,6,8,10,12,14,16,18,20,22,24,26,28,30,-1,-1,-1,-1,-1,-1,-1,-1,-1,-1,-1,-1,-1,-1,-1,-1],"split_conditions":[1E0,3.4541235E2,1.1481476E1,6.883545E-1,3.8488455E0,1.2180707E3,3.1596844E2,2.504949E0,2.8344156E2,4.6843686E2,5.8821003E1,3.6663818E0,2.732727E0,3.119736E2,3.7013032E0,3.4562908E-2,-3.5205904E-2,2.1891963E-2,1.314431E-3,-4.819166E-2,7.1546524E-3,1.014589E-1,7.1056373E-4,-4.3911766E-2,1.9477881E-2,-4.997065E-2,-7.535806E-2,-2.612904E-2,2.1427372E-1,2.1703353E-2,-6.614531E-2],"split_indices":[6,0,3,3,9,7,0,4,0,0,7,10,3,0,1,0,0,0,0,0,0,0,0,0,0,0,0,0,0,0,0],"split_type":[0,0,0,0,0,0,0,0,0,0,0,0,0,0,0,0,0,0,0,0,0,0,0,0,0,0,0,0,0,0,0],"sum_hessian":[1.1399707E4,1.0682832E4,7.1687506E2,9.634466E3,1.0483661E3,6.7192285E2,4.49522E1,8.726688E2,8.761797E3,9.9680597E2,5.1560078E1,4.4503464E2,2.2688818E2,1.102356E1,3.3928642E1,8.357038E2,3.6965034E1,9.888831E2,7.772914E3,7.1674457E2,2.8006137E2,4.25511E1,9.008976E0,4.2858347E2,1.6451185E1,7.728101E1,1.4960716E2,3.8881633E0,7.135396E0,2.056654E1,1.3362103E1],"tree_param":{"num_deleted":"0","num_feature":"11","num_nodes":"31","size_leaf_vector":"1"}},{"base_weights":[-2.4740044E-3,3.272939E-2,-5.4107726E-1,1.8959974E-1,-5.5976067E-2,-5.9891874E-1,2.8317562E-1,3.91738E-1,1.3443506E-1,-2.5322502E-2,-4.5846152E-1,-4.8951945E-1,-8.1612474E-1,5.090964E-1,-7.857312E-2,3.5528604E-2,-8.634912E-3,-6.3624578E-3,1.7481757E-2,1.0255645E-2,-6.0389764E-3,1.0069255E-1,-4.107714E-2,-4.138864E-2,4.9663126E-3,-4.6599455E-2,-7.232181E-2,-6.8154135E-3,1.6199465E-1],"categories":[],"categories_nodes":[],"categories_segments":[],"categories_sizes":[],"default_left":[0,0,0,0,0,0,0,0,0,0,0,0,0,0,0,0,0,0,0,0,0,0,0,0,0,0,0,0,0],"id":36,"left_children":[1,3,5,7,9,11,13,15,17,19,21,23,25,27,-1,-1,-1,-1,-1,-1,-1,-1,-1,-1,-1,-1,-1,-1,-1],"loss_changes":[2.149921E2,1.4811443E2,3.3335175E1,4.2819473E1,8.387852E1,1.505423E1,1.3734038E1,2.1604164E1,5.4387577E1,4.86765E1,4.608909E1,6.7119827E0,3.916153E0,3.61519E1,0E0,0E0,0E0,0E0,0E0,0E0,0E0,0E0,0E0,0E0,0E0,0E0,0E0,0E0,0E0],"parents":[2147483647,0,0,1,1,2,2,3,3,4,4,5,5,6,6,7,7,8,8,9,9,10,10,11,11,12,12,13,13],"right_children":[2,4,6,8,10,12,14,16,18,20,22,24,26,28,-1,-1,-1,-1,-1,-1,-1,-1,-1,-1,-1,-1,-1,-1,-1],"split_conditions":[1E0,1.3405762E0,1.1481476E1,6.600342E-1,1.0913239E1,1.2180707E3,1.2700775E3,1.1767578E0,7.75512E2,3.1083435E2,3.2019526E-2,3.4706726E0,2.4299927E0,8.027505E2,-7.857312E-2,3.5528604E-2,-8.634912E-3,-6.3624578E-3,1.7481757E-2,1.0255645E-2,-6.0389764E-3,1.0069255E-1,-4.107714E-2,-4.138864E-2,4.9663126E-3,-4.6599455E-2,-7.232181E-2,-6.8154135E-3,1.6199465E-1],"split_indices":[6,3,3,3,3,5,5,10,5,5,1,10,3,5,0,0,0,0,0,0,0,0,0,0,0,0,0,0,0],"split_type":[0,0,0,0,0,0,0,0,0,0,0,0,0,0,0,0,0,0,0,0,0,0,0,0,0,0,0,0,0],"sum_hessian":[1.1336915E4,1.064227E4,6.9464514E2,3.8437275E3,6.798542E3,6.493507E2,4.529442E1,8.22771E2,3.0209565E3,6.318392E3,4.8015005E2,4.340089E2,2.153418E2,3.893959E1,6.35483E0,7.448196E2,7.795142E1,8.5229034E2,2.1686663E3,1.5557634E3,4.7626284E3,1.4223587E1,4.6592645E2,4.132164E2,2.0792524E1,6.095393E1,1.5438786E2,2.8650759E1,1.0288831E1],"tree_param":{"num_deleted":"0","num_feature":"11","num_nodes":"29","size_leaf_vector":"1"}},{"base_weights":[2.8525852E-3,3.5068016E-2,-5.045864E-1,2.1971995E-1,-3.559781E-2,-5.623091E-1,2.7988636E-1,5.7890344E-2,2.9416972E-1,-7.371404E-3,-4.8001698E-1,-4.6655533E-1,-7.613906E-1,5.095748E-1,-7.824367E-2,-3.0777257E-4,4.9002495E-2,3.7046134E-2,1.5209594E-2,-3.945435E-2,5.430572E-4,-1.5705232E-2,-5.680364E-2,-3.002547E-2,-5.127522E-2,-4.2636245E-2,-6.796109E-2,-2.7154188E-3,1.4373586E-1],"categories":[],"categories_nodes":[],"categories_segments":[],"categories_sizes":[],"default_left":[0,0,0,0,0,0,0,0,0,0,0,0,0,0,0,0,0,0,0,0,0,0,0,0,0,0,0,0,0],"id":37,"left_children":[1,3,5,7,9,11,13,15,17,19,21,23,25,27,-1,-1,-1,-1,-1,-1,-1,-1,-1,-1,-1,-1,-1,-1,-1],"loss_changes":[1.8427393E2,1.3831482E2,3.0628525E1,3.532985E1,9.616892E1,1.159967E1,1.4017129E1,3.1698969E1,3.522197E1,4.959824E1,2.9738586E1,6.5379105E0,3.6154861E0,2.819918E1,0E0,0E0,0E0,0E0,0E0,0E0,0E0,0E0,0E0,0E0,0E0,0E0,0E0,0E0,0E0],"parents":[2147483647,0,0,1,1,2,2,3,3,4,4,5,5,6,6,7,7,8,8,9,9,10,10,11,11,12,12,13,13],"right_children":[2,4,6,8,10,12,14,16,18,20,22,24,26,28,-1,-1,-1,-1,-1,-1,-1,-1,-1,-1,-1,-1,-1,-1,-1],"split_conditions":[1E0,6.55565E-1,1.1481476E1,5.525732E2,1.0913239E1,1.2180707E3,1.2180707E3,5.5051703E0,9.5407104E-1,-3.9175415E-1,1.7896296E1,5.366974E0,2.4299927E0,7.75512E2,-7.824367E-2,-3.0777257E-4,4.9002495E-2,3.7046134E-2,1.5209594E-2,-3.945435E-2,5.430572E-4,-1.5705232E-2,-5.680364E-2,-3.002547E-2,-5.127522E-2,-4.2636245E-2,-6.796109E-2,-2.7154188E-3,1.4373586E-1],"split_indices":[6,4,3,5,3,5,5,9,3,2,4,3,3,5,0,0,0,0,0,0,0,0,0,0,0,0,0,0,0],"split_type":[0,0,0,0,0,0,0,0,0,0,0,0,0,0,0,0,0,0,0,0,0,0,0,0,0,0,0,0,0],"sum_hessian":[1.1270311E4,1.0598389E4,6.719217E2,2.9327957E3,7.6655933E3,6.261331E2,4.5788586E1,9.246609E2,2.0081348E3,7.20876E3,4.5683353E2,4.2504135E2,2.0109178E2,3.922189E1,6.5666933E0,8.329389E2,9.1722E1,7.6417596E2,1.2439589E3,2.0320174E2,7.005558E3,2.0538235E2,2.5145117E2,2.8111578E2,1.4392557E2,5.7941204E1,1.4315057E2,2.8261465E1,1.0960425E1],"tree_param":{"num_deleted":"0","num_feature":"11","num_nodes":"29","size_leaf_vector":"1"}},{"base_weights":[-9.789817E-4,8.1511274E-2,-1.7031854E-1,1.1049709E-1,-2.5094756E-1,-1.9417715E-1,7.329637E-1,4.2321897E-1,8.35395E-2,-3.1257474E-1,2.1320154E-1,-1.2070309E-1,-3.7423483E-1,-5.998563E-1,9.4683254E-1,3.6730763E-2,-3.492397E-2,1.1952712E-2,-7.8039925E-4,-3.0427456E-2,1.9480024E-2,1.03402205E-1,-6.4923845E-2,4.8736103E-2,-1.15640955E-2,-5.414549E-2,-2.8840262E-3,-7.628593E-2,6.731098E-2,9.253451E-2,2.9655268E-2],"categories":[],"categories_nodes":[],"categories_segments":[],"categories_sizes":[],"default_left":[0,0,0,0,0,0,0,0,0,0,0,0,0,0,0,0,0,0,0,0,0,0,0,0,0,0,0,0,0,0,0],"id":38,"left_children":[1,3,5,7,9,11,13,15,17,19,21,23,25,27,29,-1,-1,-1,-1,-1,-1,-1,-1,-1,-1,-1,-1,-1,-1,-1,-1],"loss_changes":[1.565051E2,7.262871E1,7.92341E1,5.8389557E1,1.7357323E1,4.7268005E1,2.7548042E1,1.7176651E1,3.9218273E1,2.0217346E1,8.007183E1,4.4325314E1,1.0598341E2,7.7865114E0,9.479294E0,0E0,0E0,0E0,0E0,0E0,0E0,0E0,0E0,0E0,0E0,0E0,0E0,0E0,0E0,0E0,0E0],"parents":[2147483647,0,0,1,1,2,2,3,3,4,4,5,5,6,6,7,7,8,8,9,9,10,10,11,11,12,12,13,13,14,14],"right_children":[2,4,6,8,10,12,14,16,18,20,22,24,26,28,30,-1,-1,-1,-1,-1,-1,-1,-1,-1,-1,-1,-1,-1,-1,-1,-1],"split_conditions":[3.1059717E2,4.255544E0,3.8488455E0,6.2164307E-1,2.8451677E3,3.4541235E2,3.264129E2,4.328308E-1,7.119997E-1,3.0869324E2,3.0533145E3,7.3370803E-3,4.0372574E2,9.7099205E1,5.2937927E0,3.6730763E-2,-3.492397E-2,1.1952712E-2,-7.8039925E-4,-3.0427456E-2,1.9480024E-2,1.03402205E-1,-6.4923845E-2,4.8736103E-2,-1.15640955E-2,-5.414549E-2,-2.8840262E-3,-7.628593E-2,6.731098E-2,9.253451E-2,2.9655268E-2],"split_indices":[0,4,9,3,5,0,0,2,1,0,5,9,0,5,3,0,0,0,0,0,0,0,0,0,0,0,0,0,0,0,0],"split_type":[0,0,0,0,0,0,0,0,0,0,0,0,0,0,0,0,0,0,0,0,0,0,0,0,0,0,0,0,0,0,0],"sum_hessian":[1.1201859E4,7.5328877E3,3.6689714E3,6.929407E3,6.034807E2,3.5753208E3,9.365077E1,5.487639E2,6.380643E3,5.33034E2,7.044675E1,2.540371E3,1.0349496E3,1.2700029E1,8.0950745E1,5.272066E2,2.1557316E1,3.7396843E3,2.6409587E3,4.754119E2,5.7622097E1,3.418247E1,3.626428E1,7.959869E1,2.4607725E3,5.4569696E2,4.8925266E2,1.046903E1,2.2309988E0,5.8599373E1,2.235137E1],"tree_param":{"num_deleted":"0","num_feature":"11","num_nodes":"31","size_leaf_vector":"1"}},{"base_weights":[3.0355796E-3,3.228137E-2,-4.7968188E-1,1.4732829E-1,-5.2754547E-2,-3.460616E-1,-7.315327E-1,3.6813295E-1,9.4328485E-2,-3.2915145E-2,-5.937536E-1,-4.7529858E-1,-1.494774E-1,6.8907596E-2,-7.433022E-1,1.049663E-2,4.4787798E-2,6.9488334E-3,9.158844E-2,-6.2364126E-3,1.4344039E-2,-5.736053E-2,9.2754E-3,-3.923695E-2,7.882703E-2,-2.6700484E-2,3.202474E-2,2.1379165E-2,-6.029511E-2],"categories":[],"categories_nodes":[],"categories_segments":[],"categories_sizes":[],"default_left":[0,0,0,0,0,0,0,0,0,0,0,0,0,0,0,0,0,0,0,0,0,0,0,0,0,0,0,0,0],"id":39,"left_children":[1,3,5,7,9,11,13,15,17,19,21,23,25,-1,27,-1,-1,-1,-1,-1,-1,-1,-1,-1,-1,-1,-1,-1,-1],"loss_changes":[1.5764088E2,1.0300845E2,2.1212967E1,5.2332954E1,6.4964355E1,1.0565418E1,4.768738E0,3.925508E1,2.822268E1,5.5847374E1,1.8812462E1,6.067692E0,1.710577E1,0E0,2.5015259E0,0E0,0E0,0E0,0E0,0E0,0E0,0E0,0E0,0E0,0E0,0E0,0E0,0E0,0E0],"parents":[2147483647,0,0,1,1,2,2,3,3,4,4,5,5,6,6,7,7,8,8,9,9,10,10,11,11,12,12,14,14],"right_children":[2,4,6,8,10,12,14,16,18,20,22,24,26,-1,28,-1,-1,-1,-1,-1,-1,-1,-1,-1,-1,-1,-1,-1,-1],"split_conditions":[1E0,1.1333517E0,1.1392537E3,2.833433E2,2.5006165E1,4.319755E0,7.3353057E-3,6.773999E2,4.735E2,2.3417852E3,3.6215212E-2,4.0372574E2,8.318546E2,6.8907596E-2,-2.0219116E0,1.049663E-2,4.4787798E-2,6.9488334E-3,9.158844E-2,-6.2364126E-3,1.4344039E-2,-5.736053E-2,9.2754E-3,-3.923695E-2,7.882703E-2,-2.6700484E-2,3.202474E-2,2.1379165E-2,-6.029511E-2],"split_indices":[6,4,5,0,4,4,9,5,0,5,9,0,5,0,2,0,0,0,0,0,0,0,0,0,0,0,0,0,0],"split_type":[0,0,0,0,0,0,0,0,0,0,0,0,0,0,0,0,0,0,0,0,0,0,0,0,0,0,0,0,0],"sum_hessian":[1.1164286E4,1.0527409E4,6.368777E2,4.473875E3,6.0535337E3,4.1766055E2,2.192171E2,8.648484E2,3.6090266E3,5.840416E3,2.1311765E2,2.5114005E2,1.6652051E2,1.078439E0,2.1813867E2,3.8756784E2,4.7728055E2,3.5846267E3,2.4399986E1,4.818405E3,1.02201117E3,1.8157346E2,3.154419E1,2.4921706E2,1.9229834E0,1.2501174E2,4.1508766E1,1.9676963E0,2.1617097E2],"tree_param":{"num_deleted":"0","num_feature":"11","num_nodes":"29","size_leaf_vector":"1"}},{"base_weights":[-1.9276553E-3,2.5514781E-2,-4.6667647E-1,5.5026006E-2,-2.7399212E-1,-5.273204E-1,3.034926E-1,2.887838E-1,2.6595518E-2,-4.6349537E-1,1.8938556E-1,-3.759336E-1,-6.9142795E-1,1.5584338E0,-1.9474119E-1,1.1271987E-2,4.4493355E-2,3.2133456E-2,1.0367653E-3,-4.2892955E-2,6.2162682E-2,7.210317E-2,-2.4644095E-2,-1.8236693E-2,-5.3694945E-2,-5.6303903E-2,7.990616E-2,-5.811329E-2,1.561961E-1,2.1277734E-3,-7.7646084E-2],"categories":[],"categories_nodes":[],"categories_segments":[],"categories_sizes":[],"default_left":[0,0,0,0,0,0,0,0,0,0,0,0,0,0,0,0,0,0,0,0,0,0,0,0,0,0,0,0,0,0,0],"id":40,"left_children":[1,3,5,7,9,11,13,15,17,19,21,23,25,27,29,-1,-1,-1,-1,-1,-1,-1,-1,-1,-1,-1,-1,-1,-1,-1,-1],"loss_changes":[1.4167339E2,9.2725494E1,2.9087448E1,6.3453728E1,8.271645E1,1.4012939E1,2.8967136E1,4.086119E1,4.3542892E1,6.06463E1,9.725013E1,1.29988785E1,6.442322E0,1.3247164E1,5.8135276E0,0E0,0E0,0E0,0E0,0E0,0E0,0E0,0E0,0E0,0E0,0E0,0E0,0E0,0E0,0E0,0E0],"parents":[2147483647,0,0,1,1,2,2,3,3,4,4,5,5,6,6,7,7,8,8,9,9,10,10,11,11,12,12,13,13,14,14],"right_children":[2,4,6,8,10,12,14,16,18,20,22,24,26,28,30,-1,-1,-1,-1,-1,-1,-1,-1,-1,-1,-1,-1,-1,-1,-1,-1],"split_conditions":[1E0,3.4684732E2,1.1481476E1,2.8312677E2,4.6843686E2,9.278536E2,3.1596844E2,1.1755742E3,5.3775024E-1,3.8488455E0,1.0913239E1,5.5269165E0,6.1785583E0,3.1481571E0,1.1290894E0,1.1271987E-2,4.4493355E-2,3.2133456E-2,1.0367653E-3,-4.2892955E-2,6.2162682E-2,7.210317E-2,-2.4644095E-2,-1.8236693E-2,-5.3694945E-2,-5.6303903E-2,7.990616E-2,-5.811329E-2,1.561961E-1,2.1277734E-3,-7.7646084E-2],"split_indices":[6,0,3,0,0,5,0,5,3,9,3,3,10,4,10,0,0,0,0,0,0,0,0,0,0,0,0,0,0,0,0],"split_type":[0,0,0,0,0,0,0,0,0,0,0,0,0,0,0,0,0,0,0,0,0,0,0,0,0,0,0,0,0,0,0],"sum_hessian":[1.1106359E4,1.0488009E4,6.1834973E2,9.548032E3,9.399772E2,5.7350653E2,4.48432E1,1.0343517E3,8.513681E3,6.671421E2,2.7283514E2,3.000269E2,2.7347964E2,1.2139232E1,3.2703968E1,6.669839E2,3.6736774E2,2.976628E2,8.216018E3,6.3076166E2,3.6380398E1,1.11891014E2,1.6094412E2,2.010412E2,9.89857E1,2.72072E2,1.4076645E0,1.6614003E0,1.0477831E1,2.6196167E1,6.507801E0],"tree_param":{"num_deleted":"0","num_feature":"11","num_nodes":"31","size_leaf_vector":"1"}},{"base_weights":[3.2837414E-3,2.7088575E-2,-4.0894303E-1,5.456951E-2,-2.598085E-1,-4.6713683E-1,2.2028044E-1,3.298968E-1,3.187686E-2,-4.5348E-1,2.0045857E-1,-3.2672414E-1,-6.243626E-1,1.3445033E0,-2.6833874E-1,2.973297E-2,-3.3419188E-2,3.7721395E-3,-2.7143154E-2,-4.2123113E-2,5.7726365E-2,5.2037895E-2,-4.5585364E-2,5.0785135E-2,-2.9629609E-2,1.3157943E-1,-5.184043E-2,-6.264465E-2,1.3827358E-1,-5.393683E-2,1.9265534E-2],"categories":[],"categories_nodes":[],"categories_segments":[],"categories_sizes":[],"default_left":[0,0,0,0,0,0,0,0,0,0,0,0,0,0,0,0,0,0,0,0,0,0,0,0,0,0,0,0,0,0,0],"id":41,"left_children":[1,3,5,7,9,11,13,15,17,19,21,23,25,27,29,-1,-1,-1,-1,-1,-1,-1,-1,-1,-1,-1,-1,-1,-1,-1,-1],"loss_changes":[1.0819889E2,8.2199066E1,2.2144897E1,5.9429718E1,8.13313E1,1.1967278E1,2.8727003E1,2.2771912E1,4.9852917E1,5.547464E1,9.41728E1,1.2545404E1,1.4960213E1,1.4267742E1,7.7730484E0,0E0,0E0,0E0,0E0,0E0,0E0,0E0,0E0,0E0,0E0,0E0,0E0,0E0,0E0,0E0,0E0],"parents":[2147483647,0,0,1,1,2,2,3,3,4,4,5,5,6,6,7,7,8,8,9,9,10,10,11,11,12,12,13,13,14,14],"right_children":[2,4,6,8,10,12,14,16,18,20,22,24,26,28,30,-1,-1,-1,-1,-1,-1,-1,-1,-1,-1,-1,-1,-1,-1,-1,-1],"split_conditions":[1E0,3.4684732E2,1.0913239E1,6.694946E-1,4.6843686E2,9.278536E2,3.1596844E2,4.058838E-1,2.9988466E-2,3.8488455E0,2.8016174E1,1.9999865E-1,7.3370803E-3,3.1481571E0,4.0372574E2,2.973297E-2,-3.3419188E-2,3.7721395E-3,-2.7143154E-2,-4.2123113E-2,5.7726365E-2,5.2037895E-2,-4.5585364E-2,5.0785135E-2,-2.9629609E-2,1.3157943E-1,-5.184043E-2,-6.264465E-2,1.3827358E-1,-5.393683E-2,1.9265534E-2],"split_indices":[6,0,3,3,0,5,0,2,8,9,3,4,9,4,0,0,0,0,0,0,0,0,0,0,0,0,0,0,0,0,0],"split_type":[0,0,0,0,0,0,0,0,0,0,0,0,0,0,0,0,0,0,0,0,0,0,0,0,0,0,0,0,0,0,0],"sum_hessian":[1.1023961E4,1.0422999E4,6.00962E2,9.512625E3,9.1037354E2,5.503229E2,5.0639088E1,7.2330554E2,8.789319E3,6.4076624E2,2.696073E2,2.9233078E2,2.579921E2,1.4810716E1,3.5828373E1,6.855135E2,3.7792053E1,8.442742E3,3.4657758E2,6.0377844E2,3.6987797E1,1.702805E2,9.932678E1,1.2105133E1,2.8022565E2,1.953359E0,2.5603876E2,2.10511E0,1.2705606E1,1.9755915E1,1.6072456E1],"tree_param":{"num_deleted":"0","num_feature":"11","num_nodes":"31","size_leaf_vector":"1"}},{"base_weights":[2.0211635E-3,2.4911538E-2,-4.03717E-1,6.3636795E-2,-1.7541105E-1,-4.6290553E-1,2.4729735E-1,1.9612812E-1,1.5240293E-2,3.7544254E-2,-2.7831838E-1,-4.9407825E-1,1.7994244E-1,4.2677552E-1,-7.5128675E-2,4.2934378E-4,2.174433E-2,1.6123382E-2,-2.3387107E-3,1.2852789E-3,2.4588697E-1,-2.3809189E-2,4.917031E-2,-3.0854713E-2,-5.4344714E-2,-5.501278E-2,5.2008495E-2,-9.639069E-3,1.19992845E-1],"categories":[],"categories_nodes":[],"categories_segments":[],"categories_sizes":[],"default_left":[0,0,0,0,0,0,0,0,0,0,0,0,0,0,0,0,0,0,0,0,0,0,0,0,0,0,0,0,0],"id":42,"left_children":[1,3,5,7,9,11,13,15,17,19,21,23,25,27,-1,-1,-1,-1,-1,-1,-1,-1,-1,-1,-1,-1,-1,-1,-1],"loss_changes":[1.016777E2,8.04031E1,2.2642715E1,5.5686268E1,3.680652E1,1.0835518E1,1.091484E1,3.354196E1,5.27225E1,3.567961E1,1.9690659E1,1.0012726E1,1.0863262E1,2.5772636E1,0E0,0E0,0E0,0E0,0E0,0E0,0E0,0E0,0E0,0E0,0E0,0E0,0E0,0E0,0E0],"parents":[2147483647,0,0,1,1,2,2,3,3,4,4,5,5,6,6,7,7,8,8,9,9,10,10,11,11,12,12,13,13],"right_children":[2,4,6,8,10,12,14,16,18,20,22,24,26,28,-1,-1,-1,-1,-1,-1,-1,-1,-1,-1,-1,-1,-1,-1,-1],"split_conditions":[1E0,2.114221E0,1.0913239E1,5.9260726E-1,1.3333231E0,3.4706726E0,1.2700775E3,5.525732E2,3.577942E2,2.3553833E1,4.2571964E0,1.1166699E3,7.4786E2,7.847701E2,-7.5128675E-2,4.2934378E-4,2.174433E-2,1.6123382E-2,-2.3387107E-3,1.2852789E-3,2.4588697E-1,-2.3809189E-2,4.917031E-2,-3.0854713E-2,-5.4344714E-2,-5.501278E-2,5.2008495E-2,-9.639069E-3,1.19992845E-1],"split_indices":[6,1,3,4,4,10,7,7,7,3,9,7,7,7,0,0,0,0,0,0,0,0,0,0,0,0,0,0,0],"split_type":[0,0,0,0,0,0,0,0,0,0,0,0,0,0,0,0,0,0,0,0,0,0,0,0,0,0,0,0,0],"sum_hessian":[1.094572E4,1.0362065E4,5.8365405E2,8.684004E3,1.6780615E3,5.35277E2,4.8377056E1,2.322587E3,6.361417E3,5.469156E2,1.1311459E3,5.1074176E2,2.4535242E1,4.257642E1,5.800636E0,6.599868E2,1.6626001E3,1.225264E3,5.136153E3,5.440719E2,2.843706E0,1.1078716E3,2.3274298E1,3.241412E2,1.8660056E2,8.460438E0,1.6074804E1,2.8784822E1,1.3791597E1],"tree_param":{"num_deleted":"0","num_feature":"11","num_nodes":"29","size_leaf_vector":"1"}},{"base_weights":[-1.4707671E-3,2.0153048E-2,-3.9550972E-1,1.4997822E-1,-3.4401234E-2,-4.6509355E-1,2.7098486E-1,3.6269844E-1,1.0044104E-1,-1.3570543E-2,-3.8849643E-1,-4.946788E-1,1.430687E-1,1.1411868E0,-1.4853014E-1,9.848551E-4,4.820207E-2,-1.0682839E-2,1.0872154E-2,-2.1226108E-3,7.09789E-2,-1.1477128E-2,-4.836888E-2,7.233662E-4,-4.2242628E-2,-3.253114E-2,6.326101E-2,-6.5197416E-2,1.1900785E-1,-4.405136E-2,3.03078E-2],"categories":[],"categories_nodes":[],"categories_segments":[],"categories_sizes":[],"default_left":[0,0,0,0,0,0,0,0,0,0,0,0,0,0,0,0,0,0,0,0,0,0,0,0,0,0,0,0,0,0,0],"id":43,"left_children":[1,3,5,7,9,11,13,15,17,19,21,23,25,27,29,-1,-1,-1,-1,-1,-1,-1,-1,-1,-1,-1,-1,-1,-1,-1,-1],"loss_changes":[9.306221E1,7.333663E1,2.6477089E1,3.2247437E1,5.3774776E1,9.334175E0,2.0008682E1,4.858956E1,2.0647709E1,8.043986E1,2.1363117E1,8.25724E0,9.101355E0,1.3268938E1,8.172146E0,0E0,0E0,0E0,0E0,0E0,0E0,0E0,0E0,0E0,0E0,0E0,0E0,0E0,0E0,0E0,0E0],"parents":[2147483647,0,0,1,1,2,2,3,3,4,4,5,5,6,6,7,7,8,8,9,9,10,10,11,11,12,12,13,13,14,14],"right_children":[2,4,6,8,10,12,14,16,18,20,22,24,26,28,30,-1,-1,-1,-1,-1,-1,-1,-1,-1,-1,-1,-1,-1,-1,-1,-1],"split_conditions":[1E0,7.2592276E-1,1.04461975E1,2.8301962E2,1.0913239E1,3.4706726E0,3.1596844E2,6.2755426E2,2.8548416E2,4.6843686E2,1.7896296E1,1.3413252E2,3.722212E0,3.1481571E0,4.0372574E2,9.848551E-4,4.820207E-2,-1.0682839E-2,1.0872154E-2,-2.1226108E-3,7.09789E-2,-1.1477128E-2,-4.836888E-2,7.233662E-4,-4.2242628E-2,-3.253114E-2,6.326101E-2,-6.5197416E-2,1.1900785E-1,-4.405136E-2,3.03078E-2],"split_indices":[6,4,3,0,3,10,0,7,0,0,4,7,4,4,0,0,0,0,0,0,0,0,0,0,0,0,0,0,0,0,0],"split_type":[0,0,0,0,0,0,0,0,0,0,0,0,0,0,0,0,0,0,0,0,0,0,0,0,0,0,0,0,0,0,0],"sum_hessian":[1.0920058E4,1.0352868E4,5.6718915E2,3.062694E3,7.2901743E3,5.1384454E2,5.334457E1,5.7731104E2,2.485383E3,6.886116E3,4.0405777E2,4.9018515E2,2.3659412E1,1.6792192E1,3.6552376E1,2.3501117E2,3.4229984E2,3.2673947E2,2.1586436E3,6.7893916E3,9.6724884E1,1.9013974E2,2.1391801E2,3.04873E1,4.5969785E2,1.2999072E1,1.066034E1,2.3228211E0,1.4469371E1,2.0714212E1,1.5838165E1],"tree_param":{"num_deleted":"0","num_feature":"11","num_nodes":"31","size_leaf_vector":"1"}},{"base_weights":[-2.9506076E-3,1.0932864E-1,-7.47434E-2,3.6177066E-1,7.587517E-2,-2.9655885E-2,-2.2409089E-1,3.7347525E-1,-1.7851226E-1,8.5946076E-2,-6.2271637E-1,-4.414739E-2,5.6248176E-1,-7.172966E-2,-3.4247738E-1,5.1450305E-2,2.447265E-2,1.9339766E-2,3.800485E-3,-7.916847E-2,-3.4317426E-2,-8.441007E-2,-2.43644E-3,2.6357329E-2,9.358753E-2,-8.25303E-2,-1.59789E-3,-4.3055125E-2,-6.713757E-3],"categories":[],"categories_nodes":[],"categories_segments":[],"categories_sizes":[],"default_left":[0,0,0,0,0,0,0,0,0,0,0,0,0,0,0,0,0,0,0,0,0,0,0,0,0,0,0,0,0],"id":44,"left_children":[1,3,5,7,9,11,13,15,-1,17,19,21,23,25,27,-1,-1,-1,-1,-1,-1,-1,-1,-1,-1,-1,-1,-1,-1],"loss_changes":[8.757894E1,3.5758816E1,4.461891E1,1.5875275E1,2.6386898E1,4.3715374E1,2.7692352E1,8.80764E0,0E0,2.209175E1,3.3652077E0,6.877556E1,1.6838543E1,3.3422684E1,4.36985E1,0E0,0E0,0E0,0E0,0E0,0E0,0E0,0E0,0E0,0E0,0E0,0E0,0E0,0E0],"parents":[2147483647,0,0,1,1,2,2,3,3,4,4,5,5,6,6,7,7,9,9,10,10,11,11,12,12,13,13,14,14],"right_children":[2,4,6,8,10,12,14,16,-1,18,20,22,24,26,28,-1,-1,-1,-1,-1,-1,-1,-1,-1,-1,-1,-1,-1,-1],"split_conditions":[5.476924E-1,6.600342E-1,4.6878967E0,3.8062286E-2,1E0,4.8329268E0,3.247336E2,2.8312677E2,-1.7851226E-1,4.3332925E-1,1.7417297E0,1.8600834E1,3.264129E2,7.0829865E1,4.0372574E2,5.1450305E-2,2.447265E-2,1.9339766E-2,3.800485E-3,-7.916847E-2,-3.4317426E-2,-8.441007E-2,-2.43644E-3,2.6357329E-2,9.358753E-2,-8.25303E-2,-1.59789E-3,-4.3055125E-2,-6.713757E-3],"split_indices":[1,3,3,8,6,9,0,0,0,4,3,5,0,5,0,0,0,0,0,0,0,0,0,0,0,0,0,0,0],"split_type":[0,0,0,0,0,0,0,0,0,0,0,0,0,0,0,0,0,0,0,0,0,0,0,0,0,0,0,0,0],"sum_hessian":[1.0862728E4,4.236537E3,6.626191E3,4.9458127E2,3.7419558E3,5.0905645E3,1.5356261E3,4.932111E2,1.3701875E0,3.6896428E3,5.231297E1,4.969862E3,1.20702995E2,6.721663E2,8.634597E2,9.711532E1,3.9609576E2,7.291282E2,2.9605146E3,1.6659063E1,3.5653908E1,6.5392105E1,4.9044697E3,8.834992E1,3.2353073E1,3.3419285E1,6.387471E2,4.9084024E2,3.726195E2],"tree_param":{"num_deleted":"0","num_feature":"11","num_nodes":"29","size_leaf_vector":"1"}},{"base_weights":[-3.294026E-3,1.0550048E-1,-7.236239E-2,1.15891345E-1,-4.905159E-1,-4.9263664E-2,-3.6077613E-1,8.926712E-2,3.8684553E-1,-6.568642E-1,4.6452016E-1,-1.9624343E-2,-2.6804978E-1,-2.376133E-1,-6.678146E-1,6.3329944E-3,5.1779173E-2,3.7300155E-2,-7.0684943E-3,-1.0599317E-1,-2.5333129E-2,-4.9753938E-2,7.153502E-2,7.969594E-2,-2.0743557E-3,-2.6017435E-2,4.412157E-2,-2.9219665E-2,-2.1348614E-3,-5.863485E-2,-1.5967308E-2],"categories":[],"categories_nodes":[],"categories_segments":[],"categories_sizes":[],"default_left":[0,0,0,0,0,0,0,0,0,0,0,0,0,0,0,0,0,0,0,0,0,0,0,0,0,0,0,0,0,0,0],"id":45,"left_children":[1,3,5,7,9,11,13,15,17,19,21,23,25,27,29,-1,-1,-1,-1,-1,-1,-1,-1,-1,-1,-1,-1,-1,-1,-1,-1],