{"learner":{"attributes":{"scikit_learn":"{\"_estimator_type\": \"classifier\"}"},"feature_names":[],"feature_types":[],"gradient_booster":{"model":{"cats":{"enc":[],"feature_segments":[],"sorted_idx":[]},"gbtree_model_param":{"num_parallel_tree":"1","num_trees":"300"},"iteration_indptr":[0,1,2,3,4,5,6,7,8,9,10,11,12,13,14,15,16,17,18,19,20,21,22,23,24,25,26,27,28,29,30,31,32,33,34,35,36,37,38,39,40,41,42,43,44,45,46,47,48,49,50,51,52,53,54,55,56,57,58,59,60,61,62,63,64,65,66,67,68,69,70,71,72,73,74,75,76,77,78,79,80,81,82,83,84,85,86,87,88,89,90,91,92,93,94,95,96,97,98,99,100,101,102,103,104,105,106,107,108,109,110,111,112,113,114,115,116,117,118,119,120,121,122,123,124,125,126,127,128,129,130,131,132,133,134,135,136,137,138,139,140,141,142,143,144,145,146,147,148,149,150,151,152,153,154,155,156,157,158,159,160,161,162,163,164,165,166,167,168,169,170,171,172,173,174,175,176,177,178,179,180,181,182,183,184,185,186,187,188,189,190,191,192,193,194,195,196,197,198,199,200,201,202,203,204,205,206,207,208,209,210,211,212,213,214,215,216,217,218,219,220,221,222,223,224,225,226,227,228,229,230,231,232,233,234,235,236,237,238,239,240,241,242,243,244,245,246,247,248,249,250,251,252,253,254,255,256,257,258,259,260,261,262,263,264,265,266,267,268,269,270,271,272,273,274,275,276,277,278,279,280,281,282,283,284,285,286,287,288,289,290,291,292,293,294,295,296,297,298,299,300],"tree_info":[0,0,0,0,0,0,0,0,0,0,0,0,0,0,0,0,0,0,0,0,0,0,0,0,0,0,0,0,0,0,0,0,0,0,0,0,0,0,0,0,0,0,0,0,0,0,0,0,0,0,0,0,0,0,0,0,0,0,0,0,0,0,0,0,0,0,0,0,0,0,0,0,0,0,0,0,0,0,0,0,0,0,0,0,0,0,0,0,0,0,0,0,0,0,0,0,0,0,0,0,0,0,0,0,0,0,0,0,0,0,0,0,0,0,0,0,0,0,0,0,0,0,0,0,0,0,0,0,0,0,0,0,0,0,0,0,0,0,0,0,0,0,0,0,0,0,0,0,0,0,0,0,0,0,0,0,0,0,0,0,0,0,0,0,0,0,0,0,0,0,0,0,0,0,0,0,0,0,0,0,0,0,0,0,0,0,0,0,0,0,0,0,0,0,0,0,0,0,0,0,0,0,0,0,0,0,0,0,0,0,0,0,0,0,0,0,0,0,0,0,0,0,0,0,0,0,0,0,0,0,0,0,0,0,0,0,0,0,0,0,0,0,0,0,0,0,0,0,0,0,0,0,0,0,0,0,0,0,0,0,0,0,0,0,0,0,0,0,0,0,0,0,0,0,0,0,0,0,0,0,0,0,0,0,0,0,0,0,0,0,0,0,0,0,0,0,0,0,0,0],"trees":[{"base_weights":[1.1118214E-3,1.1334534E0,-1.4148996E0,1.4733434E0,-1.7933686E0,-8.3354366E-1,-1.882592E0,1.6335294E0,-8.1860864E-1,-1.8209693E0,-8.196721E-1,4.3611112E-1,-1.1544001E0,-1.7409794E0,-1.9121511E0,1.3509037E-1,6.520755E-2,5.618321E-3,-9.286051E-2,-1.2109423E-1,-1.4769562E-1,3.265306E-3,-1.05974026E-1,5.109244E-2,-1.2511277E-1,-1.9267417E-2,-1.3462359E-1,-1.400325E-1,-4.645161E-2,-1.5369731E-1,-1.3985185E-1],"categories":[],"categories_nodes":[],"categories_segments":[],"categories_sizes":[],"default_left":[0,0,0,0,0,0,0,0,0,0,0,0,0,0,0,0,0,0,0,0,0,0,0,0,0,0,0,0,0,0,0],"id":0,"left_children":[1,3,5,7,9,11,13,15,17,19,21,23,25,27,29,-1,-1,-1,-1,-1,-1,-1,-1,-1,-1,-1,-1,-1,-1,-1,-1],"loss_changes":[2.8844518E4,9.94664E3,2.1718281E3,3.2896152E3,2.6470459E1,1.4530061E3,1.5211914E1,3.761543E2,1.7821625E2,5.0424805E0,1.3307825E1,2.926657E2,1.3736538E3,7.4716797E0,2.0742188E0,0E0,0E0,0E0,0E0,0E0,0E0,0E0,0E0,0E0,0E0,0E0,0E0,0E0,0E0,0E0,0E0],"parents":[2147483647,0,0,1,1,2,2,3,3,4,4,5,5,6,6,7,7,8,8,9,9,10,10,11,11,12,12,13,13,14,14],"right_children":[2,4,6,8,10,12,14,16,18,20,22,24,26,28,30,-1,-1,-1,-1,-1,-1,-1,-1,-1,-1,-1,-1,-1,-1,-1,-1],"split_conditions":[1.7179537E3,1E0,1E0,5.5684204E0,3.6617713E0,2.4145422E3,3.115326E0,1.7670898E0,6.274475E0,3.3072894E2,5.3803406E0,3.4333344E0,2.6376648E0,4.229674E0,1.1442277E0,1.3509037E-1,6.520755E-2,5.618321E-3,-9.286051E-2,-1.2109423E-1,-1.4769562E-1,3.265306E-3,-1.05974026E-1,5.109244E-2,-1.2511277E-1,-1.9267417E-2,-1.3462359E-1,-1.400325E-1,-4.645161E-2,-1.5369731E-1,-1.3985185E-1],"split_indices":[5,6,6,3,9,5,3,10,3,5,3,4,3,9,9,0,0,0,0,0,0,0,0,0,0,0,0,0,0,0,0],"split_type":[0,0,0,0,0,0,0,0,0,0,0,0,0,0,0,0,0,0,0,0,0,0,0,0,0,0,0,0,0,0,0],"sum_hessian":[1.79875E4,9.995E3,7.9925E3,8.9555E3,1.0395E3,3.5645E3,4.428E3,8.37075E3,5.8475E2,1.01E3,2.95E1,7.19E2,2.8455E3,7.75E2,3.653E3,7.84175E3,5.29E2,1.6275E2,4.22E2,8.125E1,9.2875E2,1.125E1,1.825E1,6.535E2,6.55E1,1.04325E3,1.80225E3,7.6825E2,6.75E0,3.4515E3,2.015E2],"tree_param":{"num_deleted":"0","num_feature":"11","num_nodes":"31","size_leaf_vector":"1"}},{"base_weights":[6.5192115E-3,1.0503972E0,-1.303249E0,1.3614277E0,-1.665676E0,-7.5970143E-1,-1.7403773E0,1.5042019E0,-8.2052034E-1,-1.6870214E0,-8.8723093E-1,-4.1356173E-1,-1.8035915E0,-1.5908248E0,-1.7645333E0,1.2211348E-1,-1.1252577E-1,1.1685236E-2,-1.20228305E-1,-1.2724094E-1,-1.4183228E-1,2.4812996E-2,-1.0336788E-1,4.0977113E-2,-5.8707185E-2,-1.4586462E-1,8.324749E-3,-1.2798682E-1,-5.3563304E-2,-1.4188983E-1,-1.2845726E-1],"categories":[],"categories_nodes":[],"categories_segments":[],"categories_sizes":[],"default_left":[0,0,0,0,0,0,0,0,0,0,0,0,0,0,0,0,0,0,0,0,0,0,0,0,0,0,0,0,0,0,0],"id":1,"left_children":[1,3,5,7,9,11,13,15,17,19,21,23,25,27,29,-1,-1,-1,-1,-1,-1,-1,-1,-1,-1,-1,-1,-1,-1,-1,-1],"loss_changes":[2.4484908E4,8.4211E3,1.8858418E3,2.7869883E3,1.5525391E1,1.2791372E3,1.3094727E1,5.4493164E2,3.6285938E2,5.4350586E0,1.4677473E1,7.8948944E2,3.335376E1,4.093872E0,2.6083984E0,0E0,0E0,0E0,0E0,0E0,0E0,0E0,0E0,0E0,0E0,0E0,0E0,0E0,0E0,0E0,0E0],"parents":[2147483647,0,0,1,1,2,2,3,3,4,4,5,5,6,6,7,7,8,8,9,9,10,10,11,11,12,12,13,13,14,14],"right_children":[2,4,6,8,10,12,14,16,18,20,22,24,26,28,30,-1,-1,-1,-1,-1,-1,-1,-1,-1,-1,-1,-1,-1,-1,-1,-1],"split_conditions":[1.7179537E3,1E0,1E0,5.670395E0,3.6617713E0,2.1713388E2,2.822235E0,2.1054247E2,2.0741855E2,6.343521E0,2.0417302E2,2.4145422E3,1.3641357E4,4.229674E0,1.1442277E0,1.2211348E-1,-1.1252577E-1,1.1685236E-2,-1.20228305E-1,-1.2724094E-1,-1.4183228E-1,2.4812996E-2,-1.0336788E-1,4.0977113E-2,-5.8707185E-2,-1.4586462E-1,8.324749E-3,-1.2798682E-1,-5.3563304E-2,-1.4188983E-1,-1.2845726E-1],"split_indices":[5,6,6,3,9,0,3,0,0,3,0,5,5,9,9,0,0,0,0,0,0,0,0,0,0,0,0,0,0,0,0],"split_type":[0,0,0,0,0,0,0,0,0,0,0,0,0,0,0,0,0,0,0,0,0,0,0,0,0,0,0,0,0,0,0],"sum_hessian":[1.7906299E4,9.964692E3,7.941606E3,8.941282E3,1.02341016E3,3.5411267E3,4.400479E3,8.392439E3,5.488427E2,9.949606E2,2.844953E1,2.660378E3,8.807488E2,6.2122906E2,3.77925E3,8.329341E3,6.309874E1,2.274399E2,3.2140283E2,4.7768442E2,5.172762E2,7.247881E0,2.1201649E1,6.836533E2,1.9767246E3,8.7178284E2,8.9659815E0,6.144827E2,6.7463603E0,3.565044E3,2.1420619E2],"tree_param":{"num_deleted":"0","num_feature":"11","num_nodes":"31","size_leaf_vector":"1"}},{"base_weights":[-4.263134E-3,9.792551E-1,-1.2153705E0,1.2662882E0,-1.5480303E0,-7.038677E-1,-1.6341897E0,1.4058427E0,-7.099033E-1,-1.1623726E0,-1.5918067E0,-2.3509534E-1,-1.4031922E0,-1.5126133E0,-1.6597528E0,1.1392295E-1,-1.0051637E-1,9.459891E-3,-1.0740348E-1,-2.988452E-2,-1.1962766E-1,-1.2780397E-1,-4.138473E-4,4.8484802E-2,-4.117518E-2,-6.712055E-3,-1.3483672E-1,-1.2190971E-1,-8.6970635E-2,-1.8195137E-2,-1.3282193E-1],"categories":[],"categories_nodes":[],"categories_segments":[],"categories_sizes":[],"default_left":[0,0,0,0,0,0,0,0,0,0,0,0,0,0,0,0,0,0,0,0,0,0,0,0,0,0,0,0,0,0,0],"id":2,"left_children":[1,3,5,7,9,11,13,15,17,19,21,23,25,27,29,-1,-1,-1,-1,-1,-1,-1,-1,-1,-1,-1,-1,-1,-1,-1,-1],"loss_changes":[2.1114193E4,7.0980283E3,1.7006387E3,2.4237725E3,1.5000977E1,1.1726174E3,1.1060547E1,3.992705E2,3.0409668E2,2.7139801E1,8.134766E0,5.0437613E2,5.3449756E2,2.0316162E0,2.3095703E0,0E0,0E0,0E0,0E0,0E0,0E0,0E0,0E0,0E0,0E0,0E0,0E0,0E0,0E0,0E0,0E0],"parents":[2147483647,0,0,1,1,2,2,3,3,4,4,5,5,6,6,7,7,8,8,9,9,10,10,11,11,12,12,13,13,14,14],"right_children":[2,4,6,8,10,12,14,16,18,20,22,24,26,28,30,-1,-1,-1,-1,-1,-1,-1,-1,-1,-1,-1,-1,-1,-1,-1,-1],"split_conditions":[1.6874382E3,1E0,1E0,5.5684204E0,3.3072894E2,4.064743E0,3.115326E0,2.1054247E2,2.0741855E2,5.720978E0,4.702053E0,2.5226377E3,2.4145422E3,2.2979779E2,1.965E2,1.1392295E-1,-1.0051637E-1,9.459891E-3,-1.0740348E-1,-2.988452E-2,-1.1962766E-1,-1.2780397E-1,-4.138473E-4,4.8484802E-2,-4.117518E-2,-6.712055E-3,-1.3483672E-1,-1.2190971E-1,-8.6970635E-2,-1.8195137E-2,-1.3282193E-1],"split_indices":[5,6,6,3,5,3,3,0,0,3,9,5,5,0,0,0,0,0,0,0,0,0,0,0,0,0,0,0,0,0,0],"split_type":[0,0,0,0,0,0,0,0,0,0,0,0,0,0,0,0,0,0,0,0,0,0,0,0,0,0,0,0,0,0,0],"sum_hessian":[1.7723945E4,9.781091E3,7.9428545E3,8.783964E3,9.9712787E2,3.576979E3,4.3658755E3,8.204843E3,5.7912036E2,1.0445556E2,8.926723E2,2.1422913E3,1.4346877E3,7.6895404E2,3.5969214E3,8.1496133E3,5.523E1,2.511577E2,3.2796268E2,3.1634674E1,7.2820885E1,8.8944604E2,3.2262726E0,5.3414795E2,1.6081433E3,2.5308536E2,1.1816024E3,7.4661707E2,2.2336933E1,1.4679222E0,3.5954534E3],"tree_param":{"num_deleted":"0","num_feature":"11","num_nodes":"31","size_leaf_vector":"1"}},{"base_weights":[-3.1986209E-3,9.1273E-1,-1.1413418E0,1.1845431E0,-1.4463041E0,-6.651366E-1,-1.5353258E0,1.3127093E0,-7.5029755E-1,-1.4715469E0,-5.52962E-1,-2.209836E-1,-1.3285763E0,-1.4084413E0,-1.562189E0,1.0650733E-1,-9.466158E-2,5.4588085E-3,-1.0732725E-1,-1.108267E-1,-1.2637825E-1,4.2173393E-2,-7.7617794E-2,3.8551357E-2,-3.952793E-2,-7.5366953E-3,-1.2684193E-1,-1.1333476E-1,-4.065976E-2,-1.2093675E-1,-1.2718071E-1],"categories":[],"categories_nodes":[],"categories_segments":[],"categories_sizes":[],"default_left":[0,0,0,0,0,0,0,0,0,0,0,0,0,0,0,0,0,0,0,0,0,0,0,0,0,0,0,0,0,0,0],"id":3,"left_children":[1,3,5,7,9,11,13,15,17,19,21,23,25,27,29,-1,-1,-1,-1,-1,-1,-1,-1,-1,-1,-1,-1,-1,-1,-1,-1],"loss_changes":[1.8183855E4,6.1991694E3,1.4582832E3,2.1502676E3,2.1714844E1,1.0379277E3,1.2305664E1,3.7962305E2,2.6100677E2,6.867676E0,1.3606684E1,4.0560553E2,4.4791113E2,4.873047E0,2.4716797E0,0E0,0E0,0E0,0E0,0E0,0E0,0E0,0E0,0E0,0E0,0E0,0E0,0E0,0E0,0E0,0E0],"parents":[2147483647,0,0,1,1,2,2,3,3,4,4,5,5,6,6,7,7,8,8,9,9,10,10,11,11,12,12,13,13,14,14],"right_children":[2,4,6,8,10,12,14,16,18,20,22,24,26,28,30,-1,-1,-1,-1,-1,-1,-1,-1,-1,-1,-1,-1,-1,-1,-1,-1],"split_conditions":[1.7179537E3,1E0,1E0,5.670395E0,3.6617713E0,4.064743E0,3.115326E0,2.1054247E2,2.0741855E2,2.1167772E2,2.0417302E2,2.923965E3,2.4145422E3,4.229674E0,2.0942125E2,1.0650733E-1,-9.466158E-2,5.4588085E-3,-1.0732725E-1,-1.108267E-1,-1.2637825E-1,4.2173393E-2,-7.7617794E-2,3.8551357E-2,-3.952793E-2,-7.5366953E-3,-1.2684193E-1,-1.1333476E-1,-4.065976E-2,-1.2093675E-1,-1.2718071E-1],"split_indices":[5,6,6,3,9,3,3,0,0,0,0,5,5,9,0,0,0,0,0,0,0,0,0,0,0,0,0,0,0,0,0],"split_type":[0,0,0,0,0,0,0,0,0,0,0,0,0,0,0,0,0,0,0,0,0,0,0,0,0,0,0,0,0,0,0],"sum_hessian":[1.7441252E4,9.664154E3,7.7770977E3,8.666122E3,9.9803204E2,3.5223503E3,4.254747E3,8.128033E3,5.3808923E2,9.699765E2,2.8055582E1,2.1106602E3,1.4116902E3,7.527369E2,3.5020103E3,8.0682705E3,5.976245E1,2.2605026E2,3.1203894E2,5.474783E2,4.2249823E2,7.7445273E0,2.0311056E1,5.904206E2,1.5202395E3,2.4346419E2,1.168226E3,7.45338E2,7.398915E0,1.2567632E3,2.2452473E3],"tree_param":{"num_deleted":"0","num_feature":"11","num_nodes":"31","size_leaf_vector":"1"}},{"base_weights":[2.6037537E-3,8.3439404E-1,-1.1022462E0,1.1026092E0,-1.3875293E0,-6.7011535E-1,-1.4544512E0,1.1914675E0,-1.3554043E0,-9.776927E-1,-1.429439E0,-3.792789E-1,-1.5355666E0,-1.4674177E0,-1.3110927E0,1.0266498E-1,5.81607E-2,-3.5958532E-2,-1.19109154E-1,-4.6683744E-2,-1.2073933E-1,-1.1473596E-1,-1.8445458E-2,-4.8587408E-2,3.132652E-2,-1.24237604E-1,3.2754403E-2,-1.0526596E-1,-1.1812317E-1,-9.169365E-2,-1.1975756E-1],"categories":[],"categories_nodes":[],"categories_segments":[],"categories_sizes":[],"default_left":[0,0,0,0,0,0,0,0,0,0,0,0,0,0,0,0,0,0,0,0,0,0,0,0,0,0,0,0,0,0,0],"id":4,"left_children":[1,3,5,7,9,11,13,15,17,19,21,23,25,27,29,-1,-1,-1,-1,-1,-1,-1,-1,-1,-1,-1,-1,-1,-1,-1,-1],"loss_changes":[1.5644229E4,5.789197E3,1.1118135E3,1.8944287E3,1.6577026E1,8.2627783E2,5.5634766E0,3.558711E2,3.59433E1,2.0122444E1,5.0755615E0,4.3273553E2,2.8593872E1,3.152832E0,8.8125E0,0E0,0E0,0E0,0E0,0E0,0E0,0E0,0E0,0E0,0E0,0E0,0E0,0E0,0E0,0E0,0E0],"parents":[2147483647,0,0,1,1,2,2,3,3,4,4,5,5,6,6,7,7,8,8,9,9,10,10,11,11,12,12,13,13,14,14],"right_children":[2,4,6,8,10,12,14,16,18,20,22,24,26,28,30,-1,-1,-1,-1,-1,-1,-1,-1,-1,-1,-1,-1,-1,-1,-1,-1],"split_conditions":[1.8467262E3,1E0,1E0,2.1038914E2,3.3072894E2,2.1713388E2,7.7160937E-1,2.2988381E0,2.1100406E2,2.1306969E2,4.702053E0,1.1732916E4,1.39186875E4,2.0263194E2,2.0952242E2,1.0266498E-1,5.81607E-2,-3.5958532E-2,-1.19109154E-1,-4.6683744E-2,-1.2073933E-1,-1.1473596E-1,-1.8445458E-2,-4.8587408E-2,3.132652E-2,-1.24237604E-1,3.2754403E-2,-1.0526596E-1,-1.1812317E-1,-9.169365E-2,-1.1975756E-1],"split_indices":[5,6,6,0,5,0,9,1,0,0,9,5,5,0,0,0,0,0,0,0,0,0,0,0,0,0,0,0,0,0,0],"split_type":[0,0,0,0,0,0,0,0,0,0,0,0,0,0,0,0,0,0,0,0,0,0,0,0,0,0,0,0,0,0,0],"sum_hessian":[1.7021035E4,9.710611E3,7.3104243E3,8.665122E3,1.0454894E3,3.28404E3,4.0263843E3,8.3633E3,3.0182217E2,9.9249985E1,9.4623944E2,2.459095E3,8.2494507E2,3.683941E3,3.4244342E2,6.9810625E3,1.3822373E3,3.9315804E1,2.6250638E2,5.8195553E1,4.1054436E1,9.4230133E2,3.938099E0,1.8978243E3,5.612707E2,8.1782886E2,7.1162486E0,2.173405E2,3.4666003E3,1.8524669E2,1.5719673E2],"tree_param":{"num_deleted":"0","num_feature":"11","num_nodes":"31","size_leaf_vector":"1"}},{"base_weights":[-3.356078E-4,8.1813204E-1,-1.0024086E0,1.0870489E0,-9.1103315E-1,-2.953E-1,-1.2317753E0,1.17309E0,-2.8450632E-2,-1.3149777E-1,-1.1466599E0,-5.558572E-1,5.608926E-1,-2.577618E-1,-1.3364018E0,1.0004911E-1,7.318168E-2,8.0591515E-2,-4.278248E-2,5.2748527E-2,-6.828876E-2,-1.06424555E-1,-6.148432E-2,5.439049E-2,-5.995983E-2,5.8885217E-2,-1.22998245E-1,1.9243214E-2,-1.0953891E-1,-1.0859579E-1,6.1908585E-4],"categories":[],"categories_nodes":[],"categories_segments":[],"categories_sizes":[],"default_left":[0,0,0,0,0,0,0,0,0,0,0,0,0,0,0,0,0,0,0,0,0,0,0,0,0,0,0,0,0,0,0],"id":5,"left_children":[1,3,5,7,9,11,13,15,17,19,21,23,25,27,29,-1,-1,-1,-1,-1,-1,-1,-1,-1,-1,-1,-1,-1,-1,-1,-1],"loss_changes":[1.367024E4,4.2670693E3,1.2149629E3,7.621074E2,2.2674744E2,4.1004028E2,5.762217E2,1.4647656E2,2.9925787E2,1.6495001E2,6.483545E1,3.375758E2,1.5882794E2,3.049637E2,1.4452637E2,0E0,0E0,0E0,0E0,0E0,0E0,0E0,0E0,0E0,0E0,0E0,0E0,0E0,0E0,0E0,0E0],"parents":[2147483647,0,0,1,1,2,2,3,3,4,4,5,5,6,6,7,7,8,8,9,9,10,10,11,11,12,12,13,13,14,14],"right_children":[2,4,6,8,10,12,14,16,18,20,22,24,26,28,30,-1,-1,-1,-1,-1,-1,-1,-1,-1,-1,-1,-1,-1,-1,-1,-1],"split_conditions":[1.6874382E3,5.3352203E0,2.6376648E0,1.9165344E0,3.3072894E2,1.1732916E4,2.0700479E3,1.6316832E0,1.0750732E0,6.343521E0,6.9783453E2,8.0329895E-1,2.8044744E3,2.3876584E0,1.3641357E4,1.0004911E-1,7.318168E-2,8.0591515E-2,-4.278248E-2,5.2748527E-2,-6.828876E-2,-1.06424555E-1,-6.148432E-2,5.439049E-2,-5.995983E-2,5.8885217E-2,-1.22998245E-1,1.9243214E-2,-1.0953891E-1,-1.0859579E-1,6.1908585E-4],"split_indices":[5,3,3,10,5,5,5,1,3,3,7,3,7,4,5,0,0,0,0,0,0,0,0,0,0,0,0,0,0,0,0],"split_type":[0,0,0,0,0,0,0,0,0,0,0,0,0,0,0,0,0,0,0,0,0,0,0,0,0,0,0,0,0,0,0],"sum_hessian":[1.6665686E4,9.173328E3,7.492357E3,7.939034E3,1.2342941E3,1.8356298E3,5.656727E3,7.3704805E3,5.685534E2,2.8685052E2,9.474435E2,1.4076144E3,4.2801547E2,5.4903033E2,5.107697E3,5.666167E3,1.7043137E3,1.8634386E2,3.8220956E2,1.3695012E2,1.499004E2,6.360123E2,3.1143118E2,1.9035199E2,1.2172623E3,3.956368E2,3.237866E1,3.796205E2,1.6940984E2,5.0289473E3,7.874979E1],"tree_param":{"num_deleted":"0","num_feature":"11","num_nodes":"31","size_leaf_vector":"1"}},{"base_weights":[8.6786086E-4,7.29643E-1,-1.0057234E0,9.401664E-1,-1.2885059E0,-2.9612473E-1,-1.244437E0,1.0441427E0,-4.6866038E-1,1.0468503E0,-1.3125087E0,-5.8267426E-1,4.5144215E-1,-7.634738E-1,-1.3070356E0,9.022282E-2,2.908582E-2,-9.226421E-3,-6.817943E-2,9.786582E-2,-1.1442245E-2,-6.2614046E-2,-1.0983212E-1,1.4023887E-2,-7.474591E-2,-1.0876647E-1,4.2694233E-2,4.6037145E-2,-1.100072E-1,-1.0616349E-1,1.4657734E-2],"categories":[],"categories_nodes":[],"categories_segments":[],"categories_sizes":[],"default_left":[0,0,0,0,0,0,0,0,0,0,0,0,0,0,0,0,0,0,0,0,0,0,0,0,0,0,0,0,0,0,0],"id":6,"left_children":[1,3,5,7,9,11,13,15,17,19,21,23,25,27,29,-1,-1,-1,-1,-1,-1,-1,-1,-1,-1,-1,-1,-1,-1,-1,-1],"loss_changes":[1.1927317E4,4.008141E3,1.1562456E3,1.2515732E3,5.1335083E1,3.6873602E2,1.528208E2,4.5236914E2,7.955365E1,2.195774E0,2.7169067E1,3.3171667E2,7.179526E1,4.8458453E2,1.3499365E2,0E0,0E0,0E0,0E0,0E0,0E0,0E0,0E0,0E0,0E0,0E0,0E0,0E0,0E0,0E0,0E0],"parents":[2147483647,0,0,1,1,2,2,3,3,4,4,5,5,6,6,7,7,8,8,9,9,10,10,11,11,12,12,13,13,14,14],"right_children":[2,4,6,8,10,12,14,16,18,20,22,24,26,28,30,-1,-1,-1,-1,-1,-1,-1,-1,-1,-1,-1,-1,-1,-1,-1,-1],"split_conditions":[1.9177168E3,2.1015097E2,2.664688E0,5.5684204E0,7.482559E-3,1.1206208E4,2.4598025E3,1.3823853E0,2.551545E0,9.264483E2,2.108377E2,2.983821E3,2.1100406E2,2.060819E2,1.39186875E4,9.022282E-2,2.908582E-2,-9.226421E-3,-6.817943E-2,9.786582E-2,-1.1442245E-2,-6.2614046E-2,-1.0983212E-1,1.4023887E-2,-7.474591E-2,-1.0876647E-1,4.2694233E-2,4.6037145E-2,-1.100072E-1,-1.0616349E-1,1.4657734E-2],"split_indices":[5,0,3,3,9,5,5,10,1,5,0,5,0,0,5,0,0,0,0,0,0,0,0,0,0,0,0,0,0,0,0],"split_type":[0,0,0,0,0,0,0,0,0,0,0,0,0,0,0,0,0,0,0,0,0,0,0,0,0,0,0,0,0,0,0],"sum_hessian":[1.6257085E4,9.430007E3,6.827079E3,8.539719E3,8.9028754E2,1.7191089E3,5.10797E3,7.953017E3,5.867016E2,8.623757E0,8.816638E2,1.2429102E3,4.7619876E2,5.8977246E2,4.5181978E3,7.0819795E3,8.710379E2,3.0607074E2,2.8063086E2,7.48547E0,1.1382873E0,9.164161E1,7.900222E2,3.9404865E2,8.488615E2,2.0009546E1,4.561892E2,1.8494771E2,4.0482477E2,4.458448E3,5.9749157E1],"tree_param":{"num_deleted":"0","num_feature":"11","num_nodes":"31","size_leaf_vector":"1"}},{"base_weights":[-2.7697657E-3,5.270706E-1,-1.2840028E0,9.071855E-1,-7.0586336E-1,-8.925542E-1,-1.2920055E0,9.9999624E-1,-1.2722791E0,-1.1615275E-1,-1.1887494E0,-3.324139E-1,-1.1345165E0,-1.1133583E0,-1.3040195E0,8.5108384E-2,1.40368175E-2,-3.8487036E-2,-1.095934E-1,-4.321994E-2,3.714466E-2,-9.887629E-2,2.3507375E-2,1.1477735E-2,-8.008821E-2,1.7239956E-2,-9.366186E-2,-1.0742522E-1,-8.268098E-2,-1.0502949E-1,-9.227836E-2],"categories":[],"categories_nodes":[],"categories_segments":[],"categories_sizes":[],"default_left":[0,0,0,0,0,0,0,0,0,0,0,0,0,0,0,0,0,0,0,0,0,0,0,0,0,0,0,0,0,0,0],"id":7,"left_children":[1,3,5,7,9,11,13,15,17,19,21,23,25,27,29,-1,-1,-1,-1,-1,-1,-1,-1,-1,-1,-1,-1,-1,-1,-1,-1],"loss_changes":[1.0745265E4,5.2486055E3,1.3353516E1,1.7326758E3,7.514498E2,1.2635132E1,8.282227E0,4.3212695E2,2.6382812E1,2.9303458E2,1.01910645E2,9.809942E0,3.5137558E0,3.9737854E0,4.1396484E0,0E0,0E0,0E0,0E0,0E0,0E0,0E0,0E0,0E0,0E0,0E0,0E0,0E0,0E0,0E0,0E0],"parents":[2147483647,0,0,1,1,2,2,3,3,4,4,5,5,6,6,7,7,8,8,9,9,10,10,11,11,12,12,13,13,14,14],"right_children":[2,4,6,8,10,12,14,16,18,20,22,24,26,28,30,-1,-1,-1,-1,-1,-1,-1,-1,-1,-1,-1,-1,-1,-1,-1,-1],"split_conditions":[1E0,2.3612424E3,3.3072894E2,2.1038914E2,2.9767761E0,5.720978E0,1.997818E0,5.1628876E0,2.1100406E2,1.1206208E4,1.39186875E4,2.460592E-2,3.3849945E1,1.07923E-2,1.1442277E0,8.5108384E-2,1.40368175E-2,-3.8487036E-2,-1.095934E-1,-4.321994E-2,3.714466E-2,-9.887629E-2,2.3507375E-2,1.1477735E-2,-8.008821E-2,1.7239956E-2,-9.366186E-2,-1.0742522E-1,-8.268098E-2,-1.0502949E-1,-9.227836E-2],"split_indices":[6,5,5,0,3,3,3,3,0,5,5,8,7,9,9,0,0,0,0,0,0,0,0,0,0,0,0,0,0,0,0],"split_type":[0,0,0,0,0,0,0,0,0,0,0,0,0,0,0,0,0,0,0,0,0,0,0,0,0,0,0,0,0,0,0],"sum_hessian":[1.5826655E4,1.1196889E4,4.629766E3,8.558544E3,2.6383447E3,9.500819E1,4.534758E3,8.209491E3,3.4905338E2,1.1883488E3,1.449996E3,2.9376255E1,6.563193E1,2.9164664E2,4.2431113E3,7.619116E3,5.903745E2,3.899479E1,3.1005856E2,6.8670074E2,5.0164807E2,1.4054153E3,4.4580616E1,1.7621214E1,1.1755043E1,1.587252E0,6.404468E1,7.120477E1,2.2044188E2,4.0002424E3,2.4286885E2],"tree_param":{"num_deleted":"0","num_feature":"11","num_nodes":"31","size_leaf_vector":"1"}},{"base_weights":[-1.1425E-3,4.986716E-1,-1.2342191E0,8.5830384E-1,-6.669839E-1,-1.2397561E0,-6.193171E-1,9.4794965E-1,-1.2052184E0,-1.0160615E-1,-1.1473056E0,-1.1834359E0,-1.2878903E0,5.102037E-1,-8.006764E-1,7.945789E-2,-9.090116E-3,8.441643E-2,-9.9463336E-2,-3.936435E-2,3.338798E-2,-9.506387E-2,9.194723E-3,-3.126922E-2,-9.5130965E-2,-8.75279E-2,-1.0351087E-1,9.343472E-2,-2.9079916E-2,-6.879576E-2,4.2163208E-2],"categories":[],"categories_nodes":[],"categories_segments":[],"categories_sizes":[],"default_left":[0,0,0,0,0,0,0,0,0,0,0,0,0,0,0,0,0,0,0,0,0,0,0,0,0,0,0,0,0,0,0],"id":8,"left_children":[1,3,5,7,9,11,13,15,17,19,21,23,25,27,29,-1,-1,-1,-1,-1,-1,-1,-1,-1,-1,-1,-1,-1,-1,-1,-1],"loss_changes":[9.462746E3,4.580582E3,1.4309082E1,1.5457495E3,6.995807E2,1.0371582E1,8.913718E0,3.8474072E2,3.1268402E1,2.4023283E2,7.221277E1,8.727783E0,1.3205566E0,4.0764956E0,3.2991676E0,0E0,0E0,0E0,0E0,0E0,0E0,0E0,0E0,0E0,0E0,0E0,0E0,0E0,0E0,0E0,0E0],"parents":[2147483647,0,0,1,1,2,2,3,3,4,4,5,5,6,6,7,7,8,8,9,9,10,10,11,11,12,12,13,13,14,14],"right_children":[2,4,6,8,10,12,14,16,18,20,22,24,26,28,30,-1,-1,-1,-1,-1,-1,-1,-1,-1,-1,-1,-1,-1,-1,-1,-1],"split_conditions":[1E0,2.4145422E3,4.229674E0,2.1038914E2,2.9767761E0,5.3803406E0,2.017649E2,5.8956757E0,7.483636E-3,1.1206208E4,1.39186875E4,2.7865976E2,4.0380545E2,9.1643E0,7.071686E0,7.945789E-2,-9.090116E-3,8.441643E-2,-9.9463336E-2,-3.936435E-2,3.338798E-2,-9.506387E-2,9.194723E-3,-3.126922E-2,-9.5130965E-2,-8.75279E-2,-1.0351087E-1,9.343472E-2,-2.9079916E-2,-6.879576E-2,4.2163208E-2],"split_indices":[6,5,9,0,3,3,0,3,9,5,5,5,5,9,10,0,0,0,0,0,0,0,0,0,0,0,0,0,0,0,0],"split_type":[0,0,0,0,0,0,0,0,0,0,0,0,0,0,0,0,0,0,0,0,0,0,0,0,0,0,0,0,0,0,0],"sum_hessian":[1.5351899E4,1.0924406E4,4.4274927E3,8.348853E3,2.5755542E3,4.3869736E3,4.051939E1,8.001771E3,3.4708124E2,1.1835873E3,1.391967E3,2.0333778E3,2.3535957E3,5.354971E0,3.516442E1,7.6745327E3,3.2723822E2,5.306683E0,3.4177457E2,6.754494E2,5.0813782E2,1.3482397E3,4.3727314E1,1.5018889E1,2.0183589E3,7.613786E1,2.2774578E3,2.8629532E0,2.4920177E0,3.3998985E1,1.1654371E0],"tree_param":{"num_deleted":"0","num_feature":"11","num_nodes":"31","size_leaf_vector":"1"}},{"base_weights":[-2.7503823E-3,4.7020575E-1,-1.1911006E0,7.549208E-1,-6.910977E-1,-1.196513E0,-6.306596E-1,7.9442E-1,-1.1224777E0,-1.442052E-2,-1.1656544E0,-1.0817581E0,-1.2201482E0,5.1410174E-1,-7.8222746E-1,7.300629E-2,1.8417574E-2,-9.960566E-2,-5.63139E-2,8.480023E-3,-9.520024E-2,-7.6992586E-2,-1.03872515E-1,-8.984307E-2,-7.186161E-2,-9.438854E-2,-1.0081268E-1,9.440818E-2,-4.8088025E-2,-6.737506E-2,7.744387E-3],"categories":[],"categories_nodes":[],"categories_segments":[],"categories_sizes":[],"default_left":[0,0,0,0,0,0,0,0,0,0,0,0,0,0,0,0,0,0,0,0,0,0,0,0,0,0,0,0,0,0,0],"id":9,"left_children":[1,3,5,7,9,11,13,15,17,19,21,23,25,27,29,-1,-1,-1,-1,-1,-1,-1,-1,-1,-1,-1,-1,-1,-1,-1,-1],"loss_changes":[8.334014E3,3.5075554E3,1.2050293E1,6.326113E2,6.707917E2,1.001709E1,7.7750854E0,5.5603613E2,8.151978E0,1.22170715E2,3.1879395E1,4.46521E0,4.0878906E0,4.847637E0,2.0802612E0,0E0,0E0,0E0,0E0,0E0,0E0,0E0,0E0,0E0,0E0,0E0,0E0,0E0,0E0,0E0,0E0],"parents":[2147483647,0,0,1,1,2,2,3,3,4,4,5,5,6,6,7,7,8,8,9,9,10,10,11,11,12,12,13,13,14,14],"right_children":[2,4,6,8,10,12,14,16,18,20,22,24,26,28,30,-1,-1,-1,-1,-1,-1,-1,-1,-1,-1,-1,-1,-1,-1,-1,-1],"split_conditions":[1E0,2.1015097E2,4.229674E0,1.628076E3,3.414215E0,3.0860748E0,2.02117E2,1.1472473E0,3.660965E0,2.1713388E2,5.0224304E-1,2.131905E2,2.115177E2,9.1643E0,6.179596E0,7.300629E-2,1.8417574E-2,-9.960566E-2,-5.63139E-2,8.480023E-3,-9.520024E-2,-7.6992586E-2,-1.03872515E-1,-8.984307E-2,-7.186161E-2,-9.438854E-2,-1.0081268E-1,9.440818E-2,-4.8088025E-2,-6.737506E-2,7.744387E-3],"split_indices":[6,0,9,7,3,3,0,10,3,0,10,0,0,9,10,0,0,0,0,0,0,0,0,0,0,0,0,0,0,0,0],"split_type":[0,0,0,0,0,0,0,0,0,0,0,0,0,0,0,0,0,0,0,0,0,0,0,0,0,0,0,0,0,0,0],"sum_hessian":[1.482622E4,1.0605785E4,4.2204336E3,8.517831E3,2.087954E3,4.178941E3,4.149311E1,8.34288E3,1.749518E2,8.611123E2,1.2268418E3,7.2169403E2,3.4572468E3,4.5717473E0,3.692136E1,6.8976997E3,1.4451799E3,1.3379036E2,4.1161434E1,7.819256E2,7.918672E1,4.8798032E2,7.388615E2,5.849696E2,1.3672441E2,1.7377656E3,1.7194811E3,2.8259122E0,1.7458353E0,3.4602936E1,2.318427E0],"tree_param":{"num_deleted":"0","num_feature":"11","num_nodes":"31","size_leaf_vector":"1"}},{"base_weights":[-2.62785E-3,6.386377E-1,-7.951207E-1,8.584202E-1,-7.42528E-1,-3.9493287E-1,-1.0970746E0,9.388454E-1,-1.093545E-1,-4.5697767E-2,-9.470193E-1,-5.4935396E-1,3.153819E-1,-5.815072E-1,-1.1962234E0,2.8439473E-2,8.3053045E-2,2.8902976E-2,-9.94382E-2,2.7095243E-2,-9.1626555E-2,-9.046165E-2,-4.5154233E-2,-1.21483E-4,-6.518853E-2,3.384627E-2,-1.03395395E-1,3.7970375E-2,-9.43399E-2,-9.6079975E-2,-6.227337E-3],"categories":[],"categories_nodes":[],"categories_segments":[],"categories_sizes":[],"default_left":[0,0,0,0,0,0,0,0,0,0,0,0,0,0,0,0,0,0,0,0,0,0,0,0,0,0,0,0,0,0,0],"id":10,"left_children":[1,3,5,7,9,11,13,15,17,19,21,23,25,27,29,-1,-1,-1,-1,-1,-1,-1,-1,-1,-1,-1,-1,-1,-1,-1,-1],"loss_changes":[7.310818E3,2.4143804E3,7.770642E2,5.3407227E2,1.5558301E2,3.0385098E2,1.8673438E2,3.6661328E2,2.8176584E2,1.0556773E2,5.871826E1,3.3083386E2,8.6265686E1,3.751356E2,1.632959E1,0E0,0E0,0E0,0E0,0E0,0E0,0E0,0E0,0E0,0E0,0E0,0E0,0E0,0E0,0E0,0E0],"parents":[2147483647,0,0,1,1,2,2,3,3,4,4,5,5,6,6,7,7,8,8,9,9,10,10,11,11,12,12,13,13,14,14],"right_children":[2,4,6,8,10,12,14,16,18,20,22,24,26,28,30,-1,-1,-1,-1,-1,-1,-1,-1,-1,-1,-1,-1,-1,-1,-1,-1],"split_conditions":[1.6874382E3,5.3352203E0,3.7622223E0,1.9165344E0,3.15452E2,1.1977518E4,2.4145422E3,2.017649E2,2.0687079E2,2.1068803E2,6.9783453E2,2.923965E3,3.025913E3,2.0655006E2,1.4239517E4,2.8439473E-2,8.3053045E-2,2.8902976E-2,-9.94382E-2,2.7095243E-2,-9.1626555E-2,-9.046165E-2,-4.5154233E-2,-1.21483E-4,-6.518853E-2,3.384627E-2,-1.03395395E-1,3.7970375E-2,-9.43399E-2,-9.6079975E-2,-6.227337E-3],"split_indices":[5,3,3,10,5,5,5,0,0,0,7,5,7,0,5,0,0,0,0,0,0,0,0,0,0,0,0,0,0,0,0],"split_type":[0,0,0,0,0,0,0,0,0,0,0,0,0,0,0,0,0,0,0,0,0,0,0,0,0,0,0,0,0,0,0],"sum_hessian":[1.4383756E4,7.9505566E3,6.4331987E3,6.859409E3,1.0911473E3,2.7675703E3,3.6656287E3,6.333135E3,5.2627423E2,2.4783644E2,8.43311E2,2.2735347E3,4.940355E2,5.923433E2,3.0732854E3,9.2203766E2,5.411097E3,3.7236304E2,1.5391118E2,1.8415514E2,6.3681297E1,5.683754E2,2.7493552E2,7.424914E2,1.5310433E3,4.6371167E2,3.0323814E1,2.1415804E2,3.781853E2,3.060142E3,1.31432905E1],"tree_param":{"num_deleted":"0","num_feature":"11","num_nodes":"31","size_leaf_vector":"1"}},{"base_weights":[-4.4479435E-3,4.276553E-1,-1.1237528E0,7.455964E-1,-5.674259E-1,-7.138409E-1,-1.1328949E0,8.244855E-1,-1.1029198E0,-7.917748E-2,-1.0204853E0,-1.507154E-1,-9.923622E-1,-1.0222253E0,-1.1567515E0,2.5269665E-2,7.334908E-2,-5.3861413E-2,-1.015811E-1,-3.3237275E-2,2.9957978E-2,-8.5512236E-2,2.0751446E-2,-5.0297696E-2,3.1061849E-2,-8.87154E-2,-2.318619E-2,-8.486979E-2,-6.754271E-2,-8.834176E-2,-9.5090404E-2],"categories":[],"categories_nodes":[],"categories_segments":[],"categories_sizes":[],"default_left":[0,0,0,0,0,0,0,0,0,0,0,0,0,0,0,0,0,0,0,0,0,0,0,0,0,0,0,0,0,0,0],"id":11,"left_children":[1,3,5,7,9,11,13,15,17,19,21,23,25,27,29,-1,-1,-1,-1,-1,-1,-1,-1,-1,-1,-1,-1,-1,-1,-1,-1],"loss_changes":[6.767505E3,3.1943174E3,1.379541E1,1.1166577E3,5.407814E2,1.360936E1,8.878418E0,3.4451123E2,2.1624786E1,1.7985596E2,7.886316E1,8.02721E0,4.471096E0,3.8104248E0,3.9189453E0,0E0,0E0,0E0,0E0,0E0,0E0,0E0,0E0,0E0,0E0,0E0,0E0,0E0,0E0,0E0,0E0],"parents":[2147483647,0,0,1,1,2,2,3,3,4,4,5,5,6,6,7,7,8,8,9,9,10,10,11,11,12,12,13,13,14,14],"right_children":[2,4,6,8,10,12,14,16,18,20,22,24,26,28,30,-1,-1,-1,-1,-1,-1,-1,-1,-1,-1,-1,-1,-1,-1,-1,-1],"split_conditions":[1E0,2.3612424E3,3.3072894E2,2.1038914E2,2.9767761E0,5.720978E0,3.0860748E0,2.0143935E2,2.896576E-1,1.1206208E4,1.39186875E4,4.368561E0,8.387373E0,2.131905E2,2.0957967E2,2.5269665E-2,7.334908E-2,-5.3861413E-2,-1.015811E-1,-3.3237275E-2,2.9957978E-2,-8.5512236E-2,2.0751446E-2,-5.0297696E-2,3.1061849E-2,-8.87154E-2,-2.318619E-2,-8.486979E-2,-6.754271E-2,-8.834176E-2,-9.5090404E-2],"split_indices":[6,5,5,0,3,3,3,0,10,5,5,3,1,0,0,0,0,0,0,0,0,0,0,0,0,0,0,0,0,0,0],"split_type":[0,0,0,0,0,0,0,0,0,0,0,0,0,0,0,0,0,0,0,0,0,0,0,0,0,0,0,0,0,0,0],"sum_hessian":[1.399042E4,1.0094209E4,3.8962117E3,7.6501416E3,2.4440667E3,8.672449E1,3.8094873E3,7.3375513E3,3.1259045E2,1.1769153E3,1.2671515E3,2.9209229E1,5.7515255E1,6.8334436E2,3.1261428E3,1.1285282E3,6.209023E3,8.884202E1,2.2374844E2,6.759348E2,5.0098044E2,1.2211213E3,4.6030136E1,1.5392127E1,1.38171015E1,4.8833263E1,8.681993E0,5.573351E2,1.2600929E2,1.1948271E3,1.9313158E3],"tree_param":{"num_deleted":"0","num_feature":"11","num_nodes":"31","size_leaf_vector":"1"}},{"base_weights":[-2.4915668E-3,4.0650544E-1,-1.0835345E0,7.068857E-1,-5.51851E-1,-1.0901824E0,-4.4424757E-1,7.798767E-1,-1.0662383E0,-1.1849463E-2,-9.591445E-1,-9.752516E-1,-1.1149229E0,5.4818547E-1,-6.2227535E-1,6.722203E-2,-1.5937854E-3,-2.9393679E-2,-9.084022E-2,-8.861269E-2,9.892652E-3,-8.8891886E-2,-2.6947863E-2,-8.1228934E-2,-6.319282E-2,-6.671915E-2,-9.016423E-2,-2.0765718E-2,9.1498524E-2,-5.9852436E-2,1.9305935E-2],"categories":[],"categories_nodes":[],"categories_segments":[],"categories_sizes":[],"default_left":[0,0,0,0,0,0,0,0,0,0,0,0,0,0,0,0,0,0,0,0,0,0,0,0,0,0,0,0,0,0,0],"id":12,"left_children":[1,3,5,7,9,11,13,15,17,19,21,23,25,27,29,-1,-1,-1,-1,-1,-1,-1,-1,-1,-1,-1,-1,-1,-1,-1,-1],"loss_changes":[5.9588433E3,2.8151582E3,1.5237305E1,9.6437256E2,5.133078E2,9.321289E0,7.3660927E0,3.454673E2,1.3851013E1,1.4929408E2,1.254729E2,4.0774536E0,9.301025E0,3.4618936E0,3.8964243E0,0E0,0E0,0E0,0E0,0E0,0E0,0E0,0E0,0E0,0E0,0E0,0E0,0E0,0E0,0E0,0E0],"parents":[2147483647,0,0,1,1,2,2,3,3,4,4,5,5,6,6,7,7,8,8,9,9,10,10,11,11,12,12,13,13,14,14],"right_children":[2,4,6,8,10,12,14,16,18,20,22,24,26,28,30,-1,-1,-1,-1,-1,-1,-1,-1,-1,-1,-1,-1,-1,-1,-1,-1],"split_conditions":[1E0,2.4598025E3,4.229674E0,2.1054247E2,2.6376648E0,3.0860748E0,2.02117E2,5.3352203E0,2.1100406E2,2.051638E2,1.0766829E4,2.131905E2,5.5581506E2,1.3382685E0,7.9091887E0,6.722203E-2,-1.5937854E-3,-2.9393679E-2,-9.084022E-2,-8.861269E-2,9.892652E-3,-8.8891886E-2,-2.6947863E-2,-8.1228934E-2,-6.319282E-2,-6.671915E-2,-9.016423E-2,-2.0765718E-2,9.1498524E-2,-5.9852436E-2,1.9305935E-2],"split_indices":[6,5,9,0,3,3,0,3,0,0,5,0,5,4,1,0,0,0,0,0,0,0,0,0,0,0,0,0,0,0,0],"split_type":[0,0,0,0,0,0,0,0,0,0,0,0,0,0,0,0,0,0,0,0,0,0,0,0,0,0,0,0,0,0,0],"sum_hessian":[1.347518E4,9.776867E3,3.6983127E3,7.443951E3,2.3329155E3,3.659552E3,3.8760838E1,7.1501733E3,2.937781E2,1.0034893E3,1.3294263E3,6.5539014E2,3.0041619E3,5.579296E0,3.318154E1,6.648077E3,5.020958E2,2.7061066E1,2.6671704E2,1.0964546E2,8.938439E2,1.067813E3,2.6161322E2,5.351081E2,1.202821E2,1.2723045E2,2.8769314E3,2.6072078E0,2.9720886E0,2.9076906E1,4.104635E0],"tree_param":{"num_deleted":"0","num_feature":"11","num_nodes":"31","size_leaf_vector":"1"}},{"base_weights":[-3.3982012E-3,5.8016175E-1,-6.627428E-1,7.81293E-1,-6.2230617E-1,-2.9942554E-1,-9.70879E-1,8.4865975E-1,-1.6997807E-1,9.3376234E-2,-9.026675E-1,3.489493E-1,-4.4091663E-1,-3.234858E-1,-1.0762539E0,2.2318317E-2,7.626421E-2,2.1474425E-2,-1.0181676E-1,4.325269E-2,-5.2515242E-2,-8.16502E-2,-3.1357702E-2,4.2956445E-2,-4.27342E-2,-4.927498E-2,1.0791673E-2,4.609548E-2,-8.302527E-2,-7.627438E-2,-9.1943175E-2],"categories":[],"categories_nodes":[],"categories_segments":[],"categories_sizes":[],"default_left":[0,0,0,0,0,0,0,0,0,0,0,0,0,0,0,0,0,0,0,0,0,0,0,0,0,0,0,0,0,0,0],"id":13,"left_children":[1,3,5,7,9,11,13,15,17,19,21,23,25,27,29,-1,-1,-1,-1,-1,-1,-1,-1,-1,-1,-1,-1,-1,-1,-1,-1],"loss_changes":[5.033863E3,1.6790244E3,6.8737866E2,3.8120215E2,1.9974655E2,2.5888916E2,2.263606E2,3.3077368E2,1.9085904E2,9.459533E1,4.2677795E1,8.4262054E1,2.3344312E2,3.004851E2,2.4538574E1,0E0,0E0,0E0,0E0,0E0,0E0,0E0,0E0,0E0,0E0,0E0,0E0,0E0,0E0,0E0,0E0],"parents":[2147483647,0,0,1,1,2,2,3,3,4,4,5,5,6,6,7,7,8,8,9,9,10,10,11,11,12,12,13,13,14,14],"right_children":[2,4,6,8,10,12,14,16,18,20,22,24,26,28,30,-1,-1,-1,-1,-1,-1,-1,-1,-1,-1,-1,-1,-1,-1,-1,-1],"split_conditions":[1.529023E3,5.1628876E0,3.7893677E0,2.0298157E0,3.15452E2,1.2328491E0,2.0700479E3,2.017649E2,2.0655006E2,6.66951E0,8.986311E2,1.6683964E3,1.0958378E4,2.060819E2,5.670395E0,2.2318317E-2,7.626421E-2,2.1474425E-2,-1.0181676E-1,4.325269E-2,-5.2515242E-2,-8.16502E-2,-3.1357702E-2,4.2956445E-2,-4.27342E-2,-4.927498E-2,1.0791673E-2,4.609548E-2,-8.302527E-2,-7.627438E-2,-9.1943175E-2],"split_indices":[5,3,3,10,5,3,5,0,0,3,7,7,5,0,3,0,0,0,0,0,0,0,0,0,0,0,0,0,0,0,0],"split_type":[0,0,0,0,0,0,0,0,0,0,0,0,0,0,0,0,0,0,0,0,0,0,0,0,0,0,0,0,0,0,0],"sum_hessian":[1.3080882E4,6.9393E3,6.1415815E3,5.9452207E3,9.940791E2,2.8193335E3,3.322248E3,5.5521396E3,3.9308148E2,2.7999603E2,7.1408307E2,5.047732E2,2.3145603E3,4.6562836E2,2.8566196E3,8.621611E2,4.6899785E3,2.8180286E2,1.1127862E2,1.7555344E2,1.044426E2,5.7928253E2,1.3480054E2,4.164981E2,8.8275085E1,1.7749785E3,5.3958185E2,2.0616393E2,2.5946445E2,1.0704698E3,1.7861498E3],"tree_param":{"num_deleted":"0","num_feature":"11","num_nodes":"31","size_leaf_vector":"1"}},{"base_weights":[-2.5045266E-3,5.268153E-1,-6.626706E-1,7.049926E-1,-6.8188196E-1,-3.1079048E-1,-9.7051275E-1,8.0474937E-1,-1.533933E-2,-2.6371345E-1,-9.208981E-1,-4.522308E-1,2.8845066E-1,-4.713926E-1,-1.0749722E0,2.6764914E-2,7.351335E-2,2.0897254E-2,-9.2708856E-2,-4.37271E-2,5.287361E-2,-2.1963716E-2,-8.099809E-2,-1.3036286E-2,-7.0468776E-2,2.9995002E-2,-9.056249E-2,3.2874238E-2,-8.3886705E-2,-7.61857E-2,-8.9010395E-2],"categories":[],"categories_nodes":[],"categories_segments":[],"categories_sizes":[],"default_left":[0,0,0,0,0,0,0,0,0,0,0,0,0,0,0,0,0,0,0,0,0,0,0,0,0,0,0,0,0,0,0],"id":14,"left_children":[1,3,5,7,9,11,13,15,17,19,21,23,25,27,29,-1,-1,-1,-1,-1,-1,-1,-1,-1,-1,-1,-1,-1,-1,-1,-1],"loss_changes":[4.417874E3,1.5116255E3,6.091277E2,4.3947925E2,8.9909E1,2.2276149E2,1.5592285E2,2.8805518E2,2.3587863E2,8.6530396E1,3.3670197E1,2.6340237E2,6.2121845E1,2.6577673E2,1.0396484E1,0E0,0E0,0E0,0E0,0E0,0E0,0E0,0E0,0E0,0E0,0E0,0E0,0E0,0E0,0E0,0E0],"parents":[2147483647,0,0,1,1,2,2,3,3,4,4,5,5,6,6,7,7,8,8,9,9,10,10,11,11,12,12,13,13,14,14],"right_children":[2,4,6,8,10,12,14,16,18,20,22,24,26,28,30,-1,-1,-1,-1,-1,-1,-1,-1,-1,-1,-1,-1,-1,-1,-1,-1],"split_conditions":[1.6874382E3,5.517639E0,3.7893677E0,1.4212799E0,2.0731142E2,1.1977518E4,2.4145422E3,2.0255699E2,2.0795058E2,6.9783453E2,6.081833E0,7.5159076E2,3.025913E3,2.0671504E2,4.9366913E0,2.6764914E-2,7.351335E-2,2.0897254E-2,-9.2708856E-2,-4.37271E-2,5.287361E-2,-2.1963716E-2,-8.099809E-2,-1.3036286E-2,-7.0468776E-2,2.9995002E-2,-9.056249E-2,3.2874238E-2,-8.3886705E-2,-7.61857E-2,-8.9010395E-2],"split_indices":[5,3,3,10,0,5,5,0,0,7,3,7,7,0,3,0,0,0,0,0,0,0,0,0,0,0,0,0,0,0,0],"split_type":[0,0,0,0,0,0,0,0,0,0,0,0,0,0,0,0,0,0,0,0,0,0,0,0,0,0,0,0,0,0,0],"sum_hessian":[1.2640763E4,7.0157505E3,5.625012E3,6.114772E3,9.0097833E2,2.6257024E3,2.9993098E3,5.37086E3,7.439123E2,3.284481E2,5.725302E2,2.1244976E3,5.0120496E2,5.200342E2,2.4792756E3,1.0500911E3,4.3207686E3,5.9965924E2,1.4425307E2,2.5181776E2,7.663034E1,7.1547935E1,5.009823E2,1.2692643E3,8.552333E2,4.7313397E2,2.807099E1,2.0577115E2,3.1426303E2,5.885781E2,1.8906974E3],"tree_param":{"num_deleted":"0","num_feature":"11","num_nodes":"31","size_leaf_vector":"1"}},{"base_weights":[6.3477794E-4,3.6588943E-1,-1.0130302E0,6.250284E-1,-4.502179E-1,-1.02236E0,-4.4032755E-1,6.9404614E-1,-8.656014E-1,-8.0753E-2,-9.7023E-1,-8.5778266E-1,-1.0390445E0,-9.5383406E-1,-1.8545334E-1,1.6694363E-2,6.307948E-2,1.7624948E-2,-7.8303345E-2,-8.7032236E-2,3.452517E-3,-8.000423E-2,2.996692E-2,-7.4145265E-2,-4.4646982E-2,-5.830649E-2,-8.380163E-2,-8.438066E-2,2.2627685E-2,6.3463755E-2,-2.7904566E-2],"categories":[],"categories_nodes":[],"categories_segments":[],"categories_sizes":[],"default_left":[0,0,0,0,0,0,0,0,0,0,0,0,0,0,0,0,0,0,0,0,0,0,0,0,0,0,0,0,0,0,0],"id":15,"left_children":[1,3,5,7,9,11,13,15,17,19,21,23,25,27,29,-1,-1,-1,-1,-1,-1,-1,-1,-1,-1,-1,-1,-1,-1,-1,-1],"loss_changes":[4.5338853E3,1.904057E3,1.6881592E1,7.0356396E2,4.16852E2,7.8703613E0,6.858161E0,2.9922827E2,3.7435913E1,1.585098E2,3.6522644E1,5.677948E0,6.8415527E0,2.493557E0,6.218541E0,0E0,0E0,0E0,0E0,0E0,0E0,0E0,0E0,0E0,0E0,0E0,0E0,0E0,0E0,0E0,0E0],"parents":[2147483647,0,0,1,1,2,2,3,3,4,4,5,5,6,6,7,7,8,8,9,9,10,10,11,11,12,12,13,13,14,14],"right_children":[2,4,6,8,10,12,14,16,18,20,22,24,26,28,30,-1,-1,-1,-1,-1,-1,-1,-1,-1,-1,-1,-1,-1,-1,-1,-1],"split_conditions":[1E0,2.4598025E3,3.6617713E0,2.1015097E2,3.414215E0,2.2331238E0,5.2345634E-1,2.0143935E2,9.5712245E-1,2.051638E2,1.4239517E4,2.131905E2,4.198569E2,7.196297E0,9.689085E-1,1.6694363E-2,6.307948E-2,1.7624948E-2,-7.8303345E-2,-8.7032236E-2,3.452517E-3,-8.000423E-2,2.996692E-2,-7.4145265E-2,-4.4646982E-2,-5.830649E-2,-8.380163E-2,-8.438066E-2,2.2627685E-2,6.3463755E-2,-2.7904566E-2],"split_indices":[6,5,9,0,3,3,4,0,1,0,5,0,5,1,1,0,0,0,0,0,0,0,0,0,0,0,0,0,0,0,0],"split_type":[0,0,0,0,0,0,0,0,0,0,0,0,0,0,0,0,0,0,0,0,0,0,0,0,0,0,0,0,0,0,0],"sum_hessian":[1.2243607E4,9.000934E3,3.242674E3,6.8318477E3,2.1690857E3,3.1899219E3,5.275213E1,6.530034E3,3.018133E2,1.268781E3,9.003046E2,2.9844525E2,2.8914768E3,1.6588388E1,3.6163742E1,1.0642166E3,5.465818E3,2.8400578E1,2.7341272E2,1.381448E2,1.1306362E3,8.8102325E2,1.9281372E1,2.4086969E2,5.757555E1,7.921535E1,2.8122615E3,1.5472775E1,1.115612E0,4.620893E0,3.154285E1],"tree_param":{"num_deleted":"0","num_feature":"11","num_nodes":"31","size_leaf_vector":"1"}},{"base_weights":[-5.7723196E-3,3.3878437E-1,-9.8218745E-1,5.831456E-1,-4.342566E-1,-9.9147004E-1,-4.4088423E-1,6.4247525E-1,-9.662728E-1,-7.029356E-1,1.5981501E-1,-9.1975695E-1,-1.0300624E0,3.6541027E-1,-5.409686E-1,5.9894975E-2,1.8536972E-2,-5.069023E-2,-8.669618E-2,-4.1814346E-2,-8.859315E-2,-1.12256065E-1,1.839519E-2,-2.6906516E-2,-7.501567E-2,-8.27395E-2,-1.6731614E-2,7.037556E-2,-2.690761E-2,-3.3757623E-2,-7.669515E-2],"categories":[],"categories_nodes":[],"categories_segments":[],"categories_sizes":[],"default_left":[0,0,0,0,0,0,0,0,0,0,0,0,0,0,0,0,0,0,0,0,0,0,0,0,0,0,0,0,0,0,0],"id":16,"left_children":[1,3,5,7,9,11,13,15,17,19,21,23,25,27,29,-1,-1,-1,-1,-1,-1,-1,-1,-1,-1,-1,-1,-1,-1,-1,-1],"loss_changes":[3.9797769E3,1.6519866E3,1.5066406E1,6.113989E2,3.3541397E2,7.446289E0,4.5409107E0,2.7903516E2,8.900513E0,1.0489838E2,7.211655E1,1.0887329E1,6.522705E0,2.6561434E0,1.995431E0,0E0,0E0,0E0,0E0,0E0,0E0,0E0,0E0,0E0,0E0,0E0,0E0,0E0,0E0,0E0,0E0],"parents":[2147483647,0,0,1,1,2,2,3,3,4,4,5,5,6,6,7,7,8,8,9,9,10,10,11,11,12,12,13,13,14,14],"right_children":[2,4,6,8,10,12,14,16,18,20,22,24,26,28,30,-1,-1,-1,-1,-1,-1,-1,-1,-1,-1,-1,-1,-1,-1,-1,-1],"split_conditions":[1E0,2.5226377E3,3.6617713E0,2.108377E2,1.1206208E4,2.0824178E2,2.017649E2,2.1658125E0,2.896576E-1,2.1687138E2,2.1100406E2,4.1244397E2,3.68338E3,9.1643E0,7.4385123E0,5.9894975E-2,1.8536972E-2,-5.069023E-2,-8.669618E-2,-4.1814346E-2,-8.859315E-2,-1.12256065E-1,1.839519E-2,-2.6906516E-2,-7.501567E-2,-8.27395E-2,-1.6731614E-2,7.037556E-2,-2.690761E-2,-3.3757623E-2,-7.669515E-2],"split_indices":[6,5,9,0,5,0,0,1,10,0,0,5,7,9,9,0,0,0,0,0,0,0,0,0,0,0,0,0,0,0,0],"split_type":[0,0,0,0,0,0,0,0,0,0,0,0,0,0,0,0,0,0,0,0,0,0,0,0,0,0,0,0,0,0,0],"sum_hessian":[1.1827433E4,8.742897E3,3.0845347E3,6.6432017E3,2.099696E3,3.0317136E3,5.28212E1,6.398768E3,2.4443353E2,1.4456797E3,6.5401636E2,1.0693896E3,1.9623239E3,5.5399027E0,4.72813E1,5.0834946E3,1.3152736E3,6.544418E1,1.7898936E2,1.0016057E3,4.440739E2,2.7266314E1,6.2675E2,3.248942E1,1.0369003E3,1.9521208E3,1.0203005E1,3.050655E0,2.4892478E0,3.8362846E1,8.91845E0],"tree_param":{"num_deleted":"0","num_feature":"11","num_nodes":"31","size_leaf_vector":"1"}},{"base_weights":[2.3094136E-3,3.293132E-1,-9.516644E-1,5.661924E-1,-3.9418283E-1,-9.597346E-1,-2.6758826E-1,6.2144244E-1,-8.9780843E-1,-6.372621E-1,1.9290072E-1,-8.813809E-1,-1.0036889E0,3.3709073E-1,-5.762571E-1,1.263992E-2,5.739241E-2,-4.192145E-2,-8.3415486E-2,-3.614323E-2,-8.758456E-2,2.2445658E-2,-8.597838E-2,-2.181399E-2,-7.215773E-2,-8.0684215E-2,-9.58171E-3,6.1310735E-2,-4.3272566E-2,-7.008656E-2,4.9785193E-2],"categories":[],"categories_nodes":[],"categories_segments":[],"categories_sizes":[],"default_left":[0,0,0,0,0,0,0,0,0,0,0,0,0,0,0,0,0,0,0,0,0,0,0,0,0,0,0,0,0,0,0],"id":17,"left_children":[1,3,5,7,9,11,13,15,17,19,21,23,25,27,29,-1,-1,-1,-1,-1,-1,-1,-1,-1,-1,-1,-1,-1,-1,-1,-1],"loss_changes":[3.5755347E3,1.4631055E3,1.5895752E1,5.207258E2,3.006626E2,9.073486E0,6.8205185E0,2.7551343E2,1.2141342E1,1.2591205E2,6.891712E1,1.2880737E1,7.8116455E0,5.174611E0,9.124231E0,0E0,0E0,0E0,0E0,0E0,0E0,0E0,0E0,0E0,0E0,0E0,0E0,0E0,0E0,0E0,0E0],"parents":[2147483647,0,0,1,1,2,2,3,3,4,4,5,5,6,6,7,7,8,8,9,9,10,10,11,11,12,12,13,13,14,14],"right_children":[2,4,6,8,10,12,14,16,18,20,22,24,26,28,30,-1,-1,-1,-1,-1,-1,-1,-1,-1,-1,-1,-1,-1,-1,-1,-1],"split_conditions":[1E0,2.4145422E3,4.229674E0,2.1068803E2,1.1464669E4,2.083501E2,2.0623468E2,2.015912E2,2.896576E-1,2.1687138E2,3.025913E3,4.198569E2,3.68338E3,9.1643E0,6.753048E0,1.263992E-2,5.739241E-2,-4.192145E-2,-8.3415486E-2,-3.614323E-2,-8.758456E-2,2.2445658E-2,-8.597838E-2,-2.181399E-2,-7.215773E-2,-8.0684215E-2,-9.58171E-3,6.1310735E-2,-4.3272566E-2,-7.008656E-2,4.9785193E-2],"split_indices":[6,5,9,0,5,0,0,0,10,0,7,5,7,9,1,0,0,0,0,0,0,0,0,0,0,0,0,0,0,0,0],"split_type":[0,0,0,0,0,0,0,0,0,0,0,0,0,0,0,0,0,0,0,0,0,0,0,0,0,0,0,0,0,0,0],"sum_hessian":[1.1459767E4,8.534843E3,2.924924E3,6.4298643E3,2.1049785E3,2.8904224E3,3.4501873E1,6.196586E3,2.3327803E2,1.488561E3,6.164174E2,1.0463086E3,1.8441138E3,1.1628901E1,2.287297E1,1.0634407E3,5.1331455E3,6.64528E1,1.6682523E2,1.0606146E3,4.2794647E2,5.7727167E2,3.9145767E1,3.470143E1,1.0116072E3,1.8338818E3,1.0231884E1,7.8955345E0,3.7333663E0,1.851138E1,4.3615923E0],"tree_param":{"num_deleted":"0","num_feature":"11","num_nodes":"31","size_leaf_vector":"1"}},{"base_weights":[4.0124837E-4,3.086257E-1,-9.2763007E-1,6.002278E-1,-2.206568E-1,-9.489372E-1,-6.2812877E-1,7.398537E-1,7.094725E-2,4.4422243E-2,-5.0069565E-1,-6.605546E-1,-9.570451E-1,-7.1048045E-1,-2.6372898E-1,-2.0700544E-2,6.21917E-2,4.0779743E-2,-3.9347555E-2,9.462312E-2,-1.6168688E-3,-4.3001226E-3,-5.517563E-2,-6.2490206E-2,5.100564E-2,-8.2554184E-2,-7.4824795E-2,-6.3144624E-2,-8.940122E-3,-3.2749295E-2,4.2254236E-2],"categories":[],"categories_nodes":[],"categories_segments":[],"categories_sizes":[],"default_left":[0,0,0,0,0,0,0,0,0,0,0,0,0,0,0,0,0,0,0,0,0,0,0,0,0,0,0,0,0,0,0],"id":18,"left_children":[1,3,5,7,9,11,13,15,17,19,21,23,25,27,29,-1,-1,-1,-1,-1,-1,-1,-1,-1,-1,-1,-1,-1,-1,-1,-1],"loss_changes":[3.1775386E3,1.2871768E3,1.707837E1,3.9731677E2,2.1997258E2,5.4089355E0,5.421524E0,1.5970532E2,2.7770078E2,1.12085815E2,1.21681E2,1.2062016E1,3.121582E0,7.0792007E0,4.373192E0,0E0,0E0,0E0,0E0,0E0,0E0,0E0,0E0,0E0,0E0,0E0,0E0,0E0,0E0,0E0,0E0],"parents":[2147483647,0,0,1,1,2,2,3,3,4,4,5,5,6,6,7,7,8,8,9,9,10,10,11,11,12,12,13,13,14,14],"right_children":[2,4,6,8,10,12,14,16,18,20,22,24,26,28,30,-1,-1,-1,-1,-1,-1,-1,-1,-1,-1,-1,-1,-1,-1,-1,-1],"split_conditions":[1E0,1.529023E3,1.1442277E0,2.1658125E0,1.6316832E0,4.1244397E2,4.229674E0,5.0557465E1,4.8465747E2,6.2208865E-2,2.5226377E3,1.2196655E0,7.867504E-3,1.3420323E3,7.9091887E0,-2.0700544E-2,6.21917E-2,4.0779743E-2,-3.9347555E-2,9.462312E-2,-1.6168688E-3,-4.3001226E-3,-5.517563E-2,-6.2490206E-2,5.100564E-2,-8.2554184E-2,-7.4824795E-2,-6.3144624E-2,-8.940122E-3,-3.2749295E-2,4.2254236E-2],"split_indices":[6,5,9,1,1,5,9,5,5,1,5,2,9,7,1,0,0,0,0,0,0,0,0,0,0,0,0,0,0,0,0],"split_type":[0,0,0,0,0,0,0,0,0,0,0,0,0,0,0,0,0,0,0,0,0,0,0,0,0,0,0,0,0,0,0],"sum_hessian":[1.1106645E4,8.338026E3,2.7686182E3,5.3760303E3,2.9619958E3,2.5827104E3,1.8590758E2,4.253536E3,1.1224945E3,1.5220736E3,1.4399224E3,7.288244E1,2.5098281E3,1.5086377E2,3.504382E1,1.5390347E2,4.099633E3,6.3077985E2,4.917146E2,8.084638E1,1.4412272E3,4.283204E2,1.011602E3,6.705269E1,5.829749E0,5.541562E2,1.9556719E3,1.3303088E2,1.7832876E1,3.000817E1,5.0356493E0],"tree_param":{"num_deleted":"0","num_feature":"11","num_nodes":"31","size_leaf_vector":"1"}},{"base_weights":[-4.065917E-3,2.878303E-1,-9.0337753E-1,5.0024295E-1,-3.652635E-1,-8.226494E-1,-9.8226535E-1,6.07867E-1,-2.9045805E-1,-1.791812E-2,-8.5749483E-1,-8.253131E-2,-8.3417606E-1,-7.9663295E-1,-1.0034885E0,-2.9794166E-2,5.2227333E-2,2.1723306E-4,-6.0778353E-2,-1.4782159E-2,3.6248412E-2,-7.166024E-2,2.7094968E-2,-5.0151654E-2,5.841147E-2,-5.2223887E-2,-6.935053E-2,-3.9927367E-2,-7.267211E-2,-8.114985E-2,-6.0764194E-2],"categories":[],"categories_nodes":[],"categories_segments":[],"categories_sizes":[],"default_left":[0,0,0,0,0,0,0,0,0,0,0,0,0,0,0,0,0,0,0,0,0,0,0,0,0,0,0,0,0,0,0],"id":19,"left_children":[1,3,5,7,9,11,13,15,17,19,21,23,25,27,29,-1,-1,-1,-1,-1,-1,-1,-1,-1,-1,-1,-1,-1,-1,-1,-1],"loss_changes":[2.8229653E3,1.1264619E3,1.5973877E1,5.2154785E2,3.407512E2,1.1094421E1,4.4310303E0,2.3801172E2,1.0107857E2,9.200291E1,3.803772E1,9.826078E0,7.0768433E0,4.2377853E0,2.3826904E0,0E0,0E0,0E0,0E0,0E0,0E0,0E0,0E0,0E0,0E0,0E0,0E0,0E0,0E0,0E0,0E0],"parents":[2147483647,0,0,1,1,2,2,3,3,4,4,5,5,6,6,7,7,8,8,9,9,10,10,11,11,12,12,13,13,14,14],"right_children":[2,4,6,8,10,12,14,16,18,20,22,24,26,28,30,-1,-1,-1,-1,-1,-1,-1,-1,-1,-1,-1,-1,-1,-1,-1,-1],"split_conditions":[1E0,2.5226377E3,5.3803406E0,5.1628876E0,3.2217255E0,2.7865976E2,8.731611E2,3.7553143E1,7.088318E-1,1.2732817E4,1.4239517E4,4.635193E0,1.997818E0,6.965744E0,1.0325094E1,-2.9794166E-2,5.2227333E-2,2.1723306E-4,-6.0778353E-2,-1.4782159E-2,3.6248412E-2,-7.166024E-2,2.7094968E-2,-5.0151654E-2,5.841147E-2,-5.2223887E-2,-6.935053E-2,-3.9927367E-2,-7.267211E-2,-8.114985E-2,-6.0764194E-2],"split_indices":[6,5,3,3,3,5,5,7,10,5,5,3,3,3,1,0,0,0,0,0,0,0,0,0,0,0,0,0,0,0,0],"split_type":[0,0,0,0,0,0,0,0,0,0,0,0,0,0,0,0,0,0,0,0,0,0,0,0,0,0,0,0,0,0,0],"sum_hessian":[1.0751932E4,8.117768E3,2.634164E3,6.1256816E3,1.9920864E3,1.3075454E3,1.3266187E3,5.391996E3,7.3368555E2,1.1685383E3,8.2354816E2,2.0176634E1,1.2873688E3,1.4006357E2,1.186555E3,2.3620706E2,5.155789E3,4.5218243E2,2.8150308E2,8.6331775E2,3.0522055E2,7.982679E2,2.5280315E1,1.2219854E1,7.9567795E0,1.9987434E2,1.0874944E3,3.973901E1,1.00324554E2,1.1328489E3,5.370612E1],"tree_param":{"num_deleted":"0","num_feature":"11","num_nodes":"31","size_leaf_vector":"1"}},{"base_weights":[-2.3730018E-3,2.7252987E-1,-8.7499934E-1,5.444006E-1,-1.9909713E-1,-6.855952E-1,-9.138677E-1,6.37144E-1,-4.9168044E-1,4.8608482E-1,-3.3055004E-1,4.357619E-1,-7.001421E-1,-6.201755E-1,-9.2989385E-1,-1.4110078E-2,5.5410836E-2,1.4963559E-2,-5.7469532E-2,5.16037E-2,-2.5041131E-2,-1.9038565E-2,-7.665579E-2,6.8124555E-2,-4.839641E-2,-7.312903E-2,-5.24542E-2,-1.6902007E-2,-6.472469E-2,-6.926274E-2,-7.7868156E-2],"categories":[],"categories_nodes":[],"categories_segments":[],"categories_sizes":[],"default_left":[0,0,0,0,0,0,0,0,0,0,0,0,0,0,0,0,0,0,0,0,0,0,0,0,0,0,0,0,0,0,0],"id":20,"left_children":[1,3,5,7,9,11,13,15,17,19,21,23,25,27,29,-1,-1,-1,-1,-1,-1,-1,-1,-1,-1,-1,-1,-1,-1,-1,-1],"loss_changes":[2.504494E3,1.0180864E3,1.7785889E1,4.842589E2,2.617053E2,7.317169E0,9.17688E0,2.0882166E2,6.3886093E1,5.9628426E1,1.4136115E2,3.164048E0,3.4417114E0,8.3424225E0,4.626465E0,0E0,0E0,0E0,0E0,0E0,0E0,0E0,0E0,0E0,0E0,0E0,0E0,0E0,0E0,0E0,0E0],"parents":[2147483647,0,0,1,1,2,2,3,3,4,4,5,5,6,6,7,7,8,8,9,9,10,10,11,11,12,12,13,13,14,14],"right_children":[2,4,6,8,10,12,14,16,18,20,22,24,26,28,30,-1,-1,-1,-1,-1,-1,-1,-1,-1,-1,-1,-1,-1,-1,-1,-1],"split_conditions":[1E0,1.5056715E3,2.8700104E0,5.5684204E0,1.3245239E0,8.655572E1,5.5581506E2,5.0557465E1,2.630396E2,1.6683964E3,7.2167816E0,9.094238E-1,6.053314E-1,5.720978E0,5.4281006E0,-1.4110078E-2,5.5410836E-2,1.4963559E-2,-5.7469532E-2,5.16037E-2,-2.5041131E-2,-1.9038565E-2,-7.665579E-2,6.8124555E-2,-4.839641E-2,-7.312903E-2,-5.24542E-2,-1.6902007E-2,-6.472469E-2,-6.926274E-2,-7.7868156E-2],"split_indices":[6,5,3,3,3,5,5,7,5,7,3,3,10,3,3,0,0,0,0,0,0,0,0,0,0,0,0,0,0,0,0],"split_type":[0,0,0,0,0,0,0,0,0,0,0,0,0,0,0,0,0,0,0,0,0,0,0,0,0,0,0,0,0,0,0],"sum_hessian":[1.0438292E4,7.938211E3,2.5000813E3,5.035391E3,2.9028198E3,4.2886685E2,2.0712146E3,4.62204E3,4.1335083E2,4.6682977E2,2.43599E3,5.1214266E0,4.2374542E2,1.0922754E2,1.9619869E3,2.950051E2,4.327035E3,1.0353458E2,3.0981625E2,3.8953415E2,7.729564E1,2.1240986E3,3.1189145E2,3.789269E0,1.3321577E0,6.954165E1,3.5420377E2,3.518231E1,7.4045235E1,8.011111E2,1.1608759E3],"tree_param":{"num_deleted":"0","num_feature":"11","num_nodes":"31","size_leaf_vector":"1"}},{"base_weights":[-4.056464E-3,2.5549266E-1,-8.527819E-1,5.0237685E-1,-2.144956E-1,-6.865897E-1,-8.946039E-1,6.0556626E-1,-2.9013172E-1,-7.357485E-2,-1.0441009E0,-7.490103E-1,-4.0653092E-1,-5.0036705E-1,-9.1049194E-1,7.192429E-3,5.7474174E-2,2.3965495E-2,-4.2143214E-2,-1.09104164E-1,-1.864484E-3,-8.46561E-2,1.5472512E-2,-6.4405255E-2,-2.5955893E-2,1.8387517E-2,-4.3218195E-2,-1.0291769E-2,-7.862641E-2,-7.398836E-2,-5.3036347E-2],"categories":[],"categories_nodes":[],"categories_segments":[],"categories_sizes":[],"default_left":[0,0,0,0,0,0,0,0,0,0,0,0,0,0,0,0,0,0,0,0,0,0,0,0,0,0,0,0,0,0,0],"id":21,"left_children":[1,3,5,7,9,11,13,15,17,19,21,23,25,27,29,-1,-1,-1,-1,-1,-1,-1,-1,-1,-1,-1,-1,-1,-1,-1,-1],"loss_changes":[2.2276846E3,8.9871063E2,1.5846436E1,4.154137E2,3.1181177E2,8.0946045E0,1.137561E1,2.6141614E2,8.188881E1,1.4794269E2,6.9625244E0,9.060913E0,7.7606974E0,1.3394693E1,5.8377686E0,0E0,0E0,0E0,0E0,0E0,0E0,0E0,0E0,0E0,0E0,0E0,0E0,0E0,0E0,0E0,0E0],"parents":[2147483647,0,0,1,1,2,2,3,3,4,4,5,5,6,6,7,7,8,8,9,9,10,10,11,11,12,12,13,13,14,14],"right_children":[2,4,6,8,10,12,14,16,18,20,22,24,26,28,30,-1,-1,-1,-1,-1,-1,-1,-1,-1,-1,-1,-1,-1,-1,-1,-1],"split_conditions":[1E0,1.6583285E3,3.0860748E0,5.1628876E0,2.1747919E2,2.131905E2,4.198569E2,2.017649E2,2.7079956E2,2E2,1.3641357E4,9.7374856E-1,2.1415573E2,2.1184496E2,1.1442277E0,7.192429E-3,5.7474174E-2,2.3965495E-2,-4.2143214E-2,-1.09104164E-1,-1.864484E-3,-8.46561E-2,1.5472512E-2,-6.4405255E-2,-2.5955893E-2,1.8387517E-2,-4.3218195E-2,-1.0291769E-2,-7.862641E-2,-7.398836E-2,-5.3036347E-2],"split_indices":[6,5,3,3,0,0,5,0,5,0,5,9,0,0,9,0,0,0,0,0,0,0,0,0,0,0,0,0,0,0,0],"split_type":[0,0,0,0,0,0,0,0,0,0,0,0,0,0,0,0,0,0,0,0,0,0,0,0,0,0,0,0,0,0,0],"sum_hessian":[1.0110707E4,7.7433945E3,2.367312E3,5.076596E3,2.6667986E3,4.7945853E2,1.8878536E3,4.4919526E3,5.846434E2,2.280509E3,3.8628952E2,3.907027E2,8.8755844E1,7.439334E1,1.8134602E3,8.06923E2,3.6850298E3,1.6735817E2,4.1728522E2,8.4539536E1,2.1959695E3,3.8208096E2,4.208569E0,3.4434247E2,4.6360226E1,1.5284563E1,7.347128E1,4.2734577E1,3.165876E1,1.7114242E3,1.02036026E2],"tree_param":{"num_deleted":"0","num_feature":"11","num_nodes":"31","size_leaf_vector":"1"}},{"base_weights":[-8.073838E-4,4.185929E-1,-4.052137E-1,5.364462E-1,-6.7425966E-1,-1.3284862E-1,-7.579537E-1,1.4469843E-1,7.1118E-1,-7.3331887E-1,3.730753E-1,3.6416632E-1,-2.57618E-1,-2.1389215E-1,-9.4079477E-1,8.187657E-2,-1.4994053E-2,6.6229686E-2,-3.5955873E-3,-2.6617521E-2,-6.602795E-2,-7.566708E-2,9.710141E-2,3.9807316E-2,-2.498951E-2,-2.5801232E-2,5.3165004E-2,3.1465337E-2,-7.157458E-2,-6.166488E-2,-7.828703E-2],"categories":[],"categories_nodes":[],"categories_segments":[],"categories_sizes":[],"default_left":[0,0,0,0,0,0,0,0,0,0,0,0,0,0,0,0,0,0,0,0,0,0,0,0,0,0,0,0,0,0,0],"id":22,"left_children":[1,3,5,7,9,11,13,15,17,19,21,23,25,27,29,-1,-1,-1,-1,-1,-1,-1,-1,-1,-1,-1,-1,-1,-1,-1,-1],"loss_changes":[1.6679811E3,6.2214716E2,4.8090912E2,2.9822852E2,2.9368866E1,1.7536615E2,2.1678174E2,3.9291104E2,2.659447E2,1.6153824E1,2.9723667E1,5.1388374E1,1.3545937E2,2.2769196E2,9.731934E0,0E0,0E0,0E0,0E0,0E0,0E0,0E0,0E0,0E0,0E0,0E0,0E0,0E0,0E0,0E0,0E0],"parents":[2147483647,0,0,1,1,2,2,3,3,4,4,5,5,6,6,7,7,8,8,9,9,10,10,11,11,12,12,13,13,14,14],"right_children":[2,4,6,8,10,12,14,16,18,20,22,24,26,28,30,-1,-1,-1,-1,-1,-1,-1,-1,-1,-1,-1,-1,-1,-1,-1,-1],"split_conditions":[1.3251791E3,5.8956757E0,4.0378265E0,2.0355583E2,4.702053E0,1.3245239E0,2.0655006E2,1.97E2,1.2188568E0,6.470352E0,1.3539978E2,1.6683964E3,1.3641357E4,2.4145422E3,2.0947067E2,8.187657E-2,-1.4994053E-2,6.6229686E-2,-3.5955873E-3,-2.6617521E-2,-6.602795E-2,-7.566708E-2,9.710141E-2,3.9807316E-2,-2.498951E-2,-2.5801232E-2,5.3165004E-2,3.1465337E-2,-7.157458E-2,-6.166488E-2,-7.828703E-2],"split_indices":[5,3,3,0,9,3,0,0,10,3,5,7,5,5,0,0,0,0,0,0,0,0,0,0,0,0,0,0,0,0,0],"split_type":[0,0,0,0,0,0,0,0,0,0,0,0,0,0,0,0,0,0,0,0,0,0,0,0,0,0,0,0,0,0,0],"sum_hessian":[9.832323E3,4.826666E3,5.0056567E3,4.357285E3,4.6938077E2,2.8254146E3,2.1802424E3,1.3445881E3,3.012697E3,4.446091E2,2.477166E1,5.665724E2,2.2588423E3,5.489518E2,1.6312905E3,3.6822623E2,9.763619E2,2.6098325E3,4.0286456E2,8.392164E1,3.6068747E2,9.594434E0,1.5177226E1,4.734616E2,9.3110794E1,2.1109377E3,1.4790453E2,2.9037946E2,2.5857236E2,3.006116E2,1.330679E3],"tree_param":{"num_deleted":"0","num_feature":"11","num_nodes":"31","size_leaf_vector":"1"}},{"base_weights":[-1.3021079E-6,2.3485553E-1,-8.03855E-1,4.0796682E-1,-3.179005E-1,-8.290751E-1,-4.705378E-1,4.686006E-1,-7.565981E-1,-6.1690104E-1,1.4059237E-1,-6.0189086E-1,-8.594051E-1,-2.792784E-1,-7.7164334E-1,-4.111272E-4,4.5838322E-2,-3.2596566E-2,-8.399453E-2,-5.012581E-3,-6.2679164E-2,-8.757719E-2,1.8881487E-2,-5.740015E-2,-9.682317E-3,-4.431553E-2,-6.996918E-2,-4.0671222E-2,4.698092E-3,-1.307577E-2,-6.972608E-2],"categories":[],"categories_nodes":[],"categories_segments":[],"categories_sizes":[],"default_left":[0,0,0,0,0,0,0,0,0,0,0,0,0,0,0,0,0,0,0,0,0,0,0,0,0,0,0,0,0,0,0],"id":23,"left_children":[1,3,5,7,9,11,13,15,17,19,21,23,25,27,29,-1,-1,-1,-1,-1,-1,-1,-1,-1,-1,-1,-1,-1,-1,-1,-1],"loss_changes":[1.8097615E3,7.100056E2,1.78302E1,3.9929846E2,2.4271098E2,1.3358032E1,8.697857E0,2.6558057E2,2.8246841E1,9.887558E1,8.270474E1,1.3283714E1,7.758301E0,7.481185E0,3.4772263E0,0E0,0E0,0E0,0E0,0E0,0E0,0E0,0E0,0E0,0E0,0E0,0E0,0E0,0E0,0E0,0E0],"parents":[2147483647,0,0,1,1,2,2,3,3,4,4,5,5,6,6,7,7,8,8,9,9,10,10,11,11,12,12,13,13,14,14],"right_children":[2,4,6,8,10,12,14,16,18,20,22,24,26,28,30,-1,-1,-1,-1,-1,-1,-1,-1,-1,-1,-1,-1,-1,-1,-1,-1],"split_conditions":[1E0,2.923965E3,1.1442277E0,2.1015097E2,1.0766829E4,2.3767242E0,2.0957967E2,2.0143935E2,1.2134155E3,1.8791351E0,2.1167772E2,2.131905E2,5.5581506E2,8.501454E1,7.3324854E2,-4.111272E-4,4.5838322E-2,-3.2596566E-2,-8.399453E-2,-5.012581E-3,-6.2679164E-2,-8.757719E-2,1.8881487E-2,-5.740015E-2,-9.682317E-3,-4.431553E-2,-6.996918E-2,-4.0671222E-2,4.698092E-3,-1.307577E-2,-6.972608E-2],"split_indices":[6,5,9,0,5,3,0,0,5,3,0,0,5,7,5,0,0,0,0,0,0,0,0,0,0,0,0,0,0,0,0],"split_type":[0,0,0,0,0,0,0,0,0,0,0,0,0,0,0,0,0,0,0,0,0,0,0,0,0,0,0,0,0,0,0],"sum_hessian":[9.584082E3,7.417628E3,2.1664536E3,5.6488057E3,1.7688223E3,2.0126788E3,1.5377472E2,5.3698203E3,2.7898538E2,1.0704172E3,6.984051E2,2.3950807E2,1.7731708E3,9.5219604E1,5.8555103E1,9.696855E2,4.400135E3,1.2846664E2,1.5051874E2,2.4769771E2,8.2271954E2,4.9331345E1,6.490737E2,1.9268883E2,4.681924E1,8.5877846E1,1.6872928E3,5.6450974E1,3.8768635E1,8.635362E0,4.9919743E1],"tree_param":{"num_deleted":"0","num_feature":"11","num_nodes":"31","size_leaf_vector":"1"}},{"base_weights":[-1.7847418E-3,2.1955483E-1,-7.789033E-1,3.4015834E-1,-4.896957E-1,-7.924931E-1,-1.21784195E-1,5.535098E-1,-1.691475E-2,-1.7698798E-1,-9.63997E-1,-7.279209E-1,-8.988178E-1,-2.5109366E-1,5.2740663E-1,2.4575548E-2,6.498189E-2,-1.0326182E-1,2.4055003E-3,9.161511E-3,-4.2379584E-2,-8.3186485E-2,-5.6883056E-2,-7.08919E-2,-5.4898705E-2,-7.2192974E-2,5.2120116E-2,1.3618564E-2,-5.43396E-2,9.420965E-2,-1.6371617E-2],"categories":[],"categories_nodes":[],"categories_segments":[],"categories_sizes":[],"default_left":[0,0,0,0,0,0,0,0,0,0,0,0,0,0,0,0,0,0,0,0,0,0,0,0,0,0,0,0,0,0,0],"id":24,"left_children":[1,3,5,7,9,11,13,15,17,19,21,23,25,27,29,-1,-1,-1,-1,-1,-1,-1,-1,-1,-1,-1,-1,-1,-1,-1,-1],"loss_changes":[1.6023118E3,6.2034705E2,1.8344604E1,4.7212732E2,1.5617245E2,1.3234985E1,3.7440758E0,2.4701135E2,1.3882408E2,6.551238E1,7.2908325E0,7.7285767E0,4.8237305E0,6.709735E0,3.796033E0,0E0,0E0,0E0,0E0,0E0,0E0,0E0,0E0,0E0,0E0,0E0,0E0,0E0,0E0,0E0,0E0],"parents":[2147483647,0,0,1,1,2,2,3,3,4,4,5,5,6,6,7,7,8,8,9,9,10,10,11,11,12,12,13,13,14,14],"right_children":[2,4,6,8,10,12,14,16,18,20,22,24,26,28,30,-1,-1,-1,-1,-1,-1,-1,-1,-1,-1,-1,-1,-1,-1,-1,-1],"split_conditions":[1E0,5.1628876E0,3.6617713E0,1.4198677E3,2.1100406E2,6.343521E0,8.148612E0,2.0666095E2,2E2,5.0808716E-1,8.0148086E-2,8.321888E-3,1.2732817E4,2.0772633E2,0E0,2.4575548E-2,6.498189E-2,-1.0326182E-1,2.4055003E-3,9.161511E-3,-4.2379584E-2,-8.3186485E-2,-5.6883056E-2,-7.08919E-2,-5.4898705E-2,-7.2192974E-2,5.2120116E-2,1.3618564E-2,-5.43396E-2,9.420965E-2,-1.6371617E-2],"split_indices":[6,3,9,5,0,3,1,0,0,10,9,9,5,0,2,0,0,0,0,0,0,0,0,0,0,0,0,0,0,0,0],"split_type":[0,0,0,0,0,0,0,0,0,0,0,0,0,0,0,0,0,0,0,0,0,0,0,0,0,0,0,0,0,0,0],"sum_hessian":[9.313388E3,7.249342E3,2.0640461E3,6.1962324E3,1.0531094E3,2.0220231E3,4.20232E1,3.8783596E3,2.3178728E3,6.354977E2,4.1761166E2,1.2628971E3,7.591259E2,3.555448E1,6.468719E0,1.9880944E3,1.8902651E3,8.150712E1,2.2363657E3,3.4832693E2,2.8717078E2,3.1889886E2,9.8712776E1,2.5912012E2,1.003777E3,7.577869E2,1.3390318E0,1.8223703E1,1.7330778E1,3.1035051E0,3.3652139E0],"tree_param":{"num_deleted":"0","num_feature":"11","num_nodes":"31","size_leaf_vector":"1"}},{"base_weights":[-4.7935657E-3,2.037167E-1,-7.595357E-1,4.2022374E-1,-1.7727858E-1,-7.8557646E-1,-4.2591187E-1,5.9144294E-1,6.34087E-2,4.30334E-1,-3.797738E-1,-5.900273E-1,-8.2771593E-1,-5.0013113E-1,8.6472616E-2,-1.480213E-2,5.1645994E-2,2.2270385E-2,-1.9114342E-2,4.366466E-2,-4.736462E-2,1.2290522E-2,-4.8123103E-2,-1.7778516E-2,-5.108113E-2,-3.2097194E-2,-6.734768E-2,-2.9922063E-2,-7.083892E-2,-9.81552E-3,8.287186E-2],"categories":[],"categories_nodes":[],"categories_segments":[],"categories_sizes":[],"default_left":[0,0,0,0,0,0,0,0,0,0,0,0,0,0,0,0,0,0,0,0,0,0,0,0,0,0,0,0,0,0,0],"id":25,"left_children":[1,3,5,7,9,11,13,15,17,19,21,23,25,27,29,-1,-1,-1,-1,-1,-1,-1,-1,-1,-1,-1,-1,-1,-1,-1,-1],"loss_changes":[1.4278708E3,5.8650183E2,1.6728882E1,2.7692853E2,3.172042E2,1.4514404E1,5.534092E0,1.2887744E2,9.5681305E1,7.641953E1,2.2877185E2,5.6764374E0,8.674194E0,5.8047314E0,3.924284E0,0E0,0E0,0E0,0E0,0E0,0E0,0E0,0E0,0E0,0E0,0E0,0E0,0E0,0E0,0E0,0E0],"parents":[2147483647,0,0,1,1,2,2,3,3,4,4,5,5,6,6,7,7,8,8,9,9,10,10,11,11,12,12,13,13,14,14],"right_children":[2,4,6,8,10,12,14,16,18,20,22,24,26,28,30,-1,-1,-1,-1,-1,-1,-1,-1,-1,-1,-1,-1,-1,-1,-1,-1],"split_conditions":[1E0,1.6316832E0,1.1442277E0,1.5056715E3,4.1244397E2,2.8700104E0,4.702053E0,6.638521E1,8.14241E2,6.343521E0,2.2112274E0,1.8587857E2,3.9609222E2,6.8102264E0,8.962398E0,-1.480213E-2,5.1645994E-2,2.2270385E-2,-1.9114342E-2,4.366466E-2,-4.736462E-2,1.2290522E-2,-4.8123103E-2,-1.7778516E-2,-5.108113E-2,-3.2097194E-2,-6.734768E-2,-2.9922063E-2,-7.083892E-2,-9.81552E-3,8.287186E-2],"split_indices":[6,1,9,5,5,3,9,5,7,3,3,7,5,3,1,0,0,0,0,0,0,0,0,0,0,0,0,0,0,0,0],"split_type":[0,0,0,0,0,0,0,0,0,0,0,0,0,0,0,0,0,0,0,0,0,0,0,0,0,0,0,0,0,0,0],"sum_hessian":[9.07127E3,7.1082305E3,1.9630388E3,4.532473E3,2.5757576E3,1.8196522E3,1.4338654E2,3.062339E3,1.4701339E3,6.4355725E2,1.9322004E3,3.2526318E2,1.494389E3,1.2526563E2,1.8120903E1,1.9942123E2,2.8629177E3,8.592566E2,6.108773E2,5.7866583E2,6.489138E1,5.6750446E2,1.364696E3,3.8535606E1,2.8672757E2,4.886446E1,1.4455247E3,9.586497E1,2.9400665E1,1.5563009E1,2.5578938E0],"tree_param":{"num_deleted":"0","num_feature":"11","num_nodes":"31","size_leaf_vector":"1"}},{"base_weights":[-6.0619805E-3,1.9260515E-1,-7.412865E-1,2.5963205E-1,-9.2524207E-1,-6.308096E-1,-8.159334E-1,4.2461163E-1,-5.688215E-2,-9.795019E-1,6.347578E-1,-6.393048E-2,-6.5970266E-1,-8.49839E-1,-5.636656E-1,-1.0259689E-2,4.158887E-2,3.363702E-2,-1.9305365E-2,-7.9281725E-2,-2.8496968E-2,8.108546E-2,-3.2942608E-2,-9.6750654E-2,1.1991693E-2,-4.0729146E-2,-5.5904813E-2,-5.379505E-2,-6.9995366E-2,-1.931204E-2,-6.124521E-2],"categories":[],"categories_nodes":[],"categories_segments":[],"categories_sizes":[],"default_left":[0,0,0,0,0,0,0,0,0,0,0,0,0,0,0,0,0,0,0,0,0,0,0,0,0,0,0,0,0,0,0],"id":26,"left_children":[1,3,5,7,9,11,13,15,17,19,21,23,25,27,29,-1,-1,-1,-1,-1,-1,-1,-1,-1,-1,-1,-1,-1,-1,-1,-1],"loss_changes":[1.2915585E3,5.218246E2,1.4997681E1,3.4301172E2,3.3973206E1,1.2453125E1,9.093384E0,2.2744257E2,1.9831808E2,2.383789E0,5.9083486E0,9.514314E0,3.9184875E0,3.7962646E0,8.635761E0,0E0,0E0,0E0,0E0,0E0,0E0,0E0,0E0,0E0,0E0,0E0,0E0,0E0,0E0,0E0,0E0],"parents":[2147483647,0,0,1,1,2,2,3,3,4,4,5,5,6,6,7,7,8,8,9,9,10,10,11,11,12,12,13,13,14,14],"right_children":[2,4,6,8,10,12,14,16,18,20,22,24,26,28,30,-1,-1,-1,-1,-1,-1,-1,-1,-1,-1,-1,-1,-1,-1,-1,-1],"split_conditions":[1E0,2.1687138E2,2.0861963E2,1.615694E0,1.3641357E4,4.198569E2,1.6683964E3,2.0143935E2,4.1244397E2,3.2665298E3,3.8333333E0,5.666572E-1,4.6049312E-1,1.0598788E3,1.956844E3,-1.0259689E-2,4.158887E-2,3.363702E-2,-1.9305365E-2,-7.9281725E-2,-2.8496968E-2,8.108546E-2,-3.2942608E-2,-9.6750654E-2,1.1991693E-2,-4.0729146E-2,-5.5904813E-2,-5.379505E-2,-6.9995366E-2,-1.931204E-2,-6.124521E-2],"split_indices":[6,0,0,1,5,5,7,0,5,7,4,4,4,5,7,0,0,0,0,0,0,0,0,0,0,0,0,0,0,0,0],"split_type":[0,0,0,0,0,0,0,0,0,0,0,0,0,0,0,0,0,0,0,0,0,0,0,0,0,0,0,0,0,0,0],"sum_hessian":[8.84038E3,6.9603433E3,1.8800364E3,6.5673296E3,3.9301385E2,7.61892E2,1.1181444E3,4.3168677E3,2.250462E3,3.8016315E2,1.2850703E1,3.7105156E1,7.2478687E2,9.835794E2,1.3456502E2,6.3437897E2,3.6824885E3,6.268365E2,1.6236254E3,3.7268518E2,7.47797E0,9.45855E0,3.3921535E0,5.1045527E0,3.2000603E1,1.5231133E2,5.724755E2,1.2537257E2,8.5820685E2,5.2677944E1,8.188707E1],"tree_param":{"num_deleted":"0","num_feature":"11","num_nodes":"31","size_leaf_vector":"1"}},{"base_weights":[-4.0351646E-3,1.811454E-1,-5.837334E-1,4.6809402E-1,-1.4714772E-1,1.4068043E-1,-7.0041424E-1,6.2295284E-2,6.3365334E-1,2.9178756E-1,-2.436246E-1,4.033685E-1,-4.6624568E-1,-3.4404165E-1,-8.260371E-1,7.660528E-2,-3.0934695E-2,6.0740612E-2,1.167723E-3,8.678311E-2,1.4208417E-2,-2.3403777E-2,3.904687E-2,1.1288707E-2,7.196136E-2,-8.489309E-2,-1.7837984E-2,-5.7566114E-2,3.1097466E-3,-6.7083165E-2,7.0506126E-2],"categories":[],"categories_nodes":[],"categories_segments":[],"categories_sizes":[],"default_left":[0,0,0,0,0,0,0,0,0,0,0,0,0,0,0,0,0,0,0,0,0,0,0,0,0,0,0,0,0,0,0],"id":27,"left_children":[1,3,5,7,9,11,13,15,17,19,21,23,25,27,29,-1,-1,-1,-1,-1,-1,-1,-1,-1,-1,-1,-1,-1,-1,-1,-1],"loss_changes":[9.314391E2,6.195577E2,1.7765894E2,2.3572461E2,1.299855E2,4.678205E1,8.072125E1,4.095483E2,1.9377905E2,4.9902843E1,9.019385E1,2.6483147E1,1.2607098E1,6.80882E1,2.9281494E1,0E0,0E0,0E0,0E0,0E0,0E0,0E0,0E0,0E0,0E0,0E0,0E0,0E0,0E0,0E0,0E0],"parents":[2147483647,0,0,1,1,2,2,3,3,4,4,5,5,6,6,7,7,8,8,9,9,10,10,11,11,12,12,13,13,14,14],"right_children":[2,4,6,8,10,12,14,16,18,20,22,24,26,28,30,-1,-1,-1,-1,-1,-1,-1,-1,-1,-1,-1,-1,-1,-1,-1,-1],"split_conditions":[4.903549E0,1.3251791E3,3.15452E2,2.0308032E2,1.3245239E0,4.7372437E-1,2.0660095E2,1.97E2,1.0332947E0,9.6336E-2,1.3641357E4,2.089253E2,1.0241536E-2,5.1848505E2,4.702053E0,7.660528E-2,-3.0934695E-2,6.0740612E-2,1.167723E-3,8.678311E-2,1.4208417E-2,-2.3403777E-2,3.904687E-2,1.1288707E-2,7.196136E-2,-8.489309E-2,-1.7837984E-2,-5.7566114E-2,3.1097466E-3,-6.7083165E-2,7.0506126E-2],"split_indices":[3,5,5,0,3,10,0,0,10,1,5,0,9,7,9,0,0,0,0,0,0,0,0,0,0,0,0,0,0,0,0],"split_type":[0,0,0,0,0,0,0,0,0,0,0,0,0,0,0,0,0,0,0,0,0,0,0,0,0,0,0,0,0,0,0],"sum_hessian":[8.674766E3,6.575087E3,2.0996785E3,3.5082405E3,3.0668464E3,2.9124942E2,1.808429E3,1.01696277E3,2.4912778E3,5.522558E2,2.5145906E3,2.0350455E2,8.774488E1,4.7230664E2,1.3361223E3,3.392869E2,6.7767584E2,2.070878E3,4.203999E2,6.843957E1,4.8381622E2,2.3575627E3,1.5702792E2,1.3397237E2,6.953219E1,2.4490757E1,6.3254128E1,2.380069E2,2.3429973E2,1.3269147E3,9.207661E0],"tree_param":{"num_deleted":"0","num_feature":"11","num_nodes":"31","size_leaf_vector":"1"}},{"base_weights":[-1.3019014E-3,1.7429525E-1,-6.8522376E-1,2.3355561E-1,-8.980433E-1,-5.8660245E-1,-8.0068964E-1,3.51928E-1,-1.20305784E-1,-9.605597E-1,5.3734106E-1,-6.234892E-1,-2.1464789E-1,-5.247914E-1,-8.3642E-1,-1.3337575E-2,3.5152055E-2,2.7640976E-2,-2.518166E-2,1.1922926E-1,-7.8207016E-2,9.099604E-2,-1.2739314E-2,-3.285115E-2,-5.3265963E-2,-2.299125E-3,-6.856598E-2,-2.0620253E-2,-6.250929E-2,-6.8456985E-2,-3.481529E-2],"categories":[],"categories_nodes":[],"categories_segments":[],"categories_sizes":[],"default_left":[0,0,0,0,0,0,0,0,0,0,0,0,0,0,0,0,0,0,0,0,0,0,0,0,0,0,0,0,0,0,0],"id":28,"left_children":[1,3,5,7,9,11,13,15,17,19,21,23,25,27,29,-1,-1,-1,-1,-1,-1,-1,-1,-1,-1,-1,-1,-1,-1,-1,-1],"loss_changes":[1.0169571E3,4.2838965E2,1.9230225E1,2.675319E2,3.2198547E1,1.2719055E1,7.3901367E0,2.171773E2,1.451784E2,1.5591949E1,6.609044E0,7.401703E0,1.0251888E1,6.2214527E0,5.0572815E0,0E0,0E0,0E0,0E0,0E0,0E0,0E0,0E0,0E0,0E0,0E0,0E0,0E0,0E0,0E0,0E0],"parents":[2147483647,0,0,1,1,2,2,3,3,4,4,5,5,6,6,7,7,8,8,9,9,10,10,11,11,12,12,13,13,14,14],"right_children":[2,4,6,8,10,12,14,16,18,20,22,24,26,28,30,-1,-1,-1,-1,-1,-1,-1,-1,-1,-1,-1,-1,-1,-1,-1,-1],"split_conditions":[1E0,2.1687138E2,5.4768677E0,2.1658125E0,1.3641357E4,1.1442277E0,8.731611E2,2.0119958E2,4.1244397E2,7.4815475E-3,1.6929626E-1,1.997818E0,2.0995544E2,2.1216956E2,1.0325094E1,-1.3337575E-2,3.5152055E-2,2.7640976E-2,-2.518166E-2,1.1922926E-1,-7.8207016E-2,9.099604E-2,-1.2739314E-2,-3.285115E-2,-5.3265963E-2,-2.299125E-3,-6.856598E-2,-2.0620253E-2,-6.250929E-2,-6.8456985E-2,-3.481529E-2],"split_indices":[6,0,3,1,5,9,5,0,5,9,10,3,0,0,1,0,0,0,0,0,0,0,0,0,0,0,0,0,0,0,0],"split_type":[0,0,0,0,0,0,0,0,0,0,0,0,0,0,0,0,0,0,0,0,0,0,0,0,0,0,0,0,0,0,0],"sum_hessian":[8.465963E3,6.7369854E3,1.7289779E3,6.3849194E3,3.520659E2,9.3578723E2,7.931907E2,4.784449E3,1.6004702E3,3.3768906E2,1.437684E1,8.507429E2,8.504435E1,9.274344E1,7.0044727E2,6.903407E2,4.0941084E3,4.711379E2,1.1293323E3,1.7329521E0,3.3595612E2,7.3832383E0,6.993601E0,1.4291377E2,7.0782916E2,6.676755E1,1.8276802E1,4.642733E1,4.6316113E1,6.672318E2,3.321541E1],"tree_param":{"num_deleted":"0","num_feature":"11","num_nodes":"31","size_leaf_vector":"1"}},{"base_weights":[-1.8691241E-3,1.6409852E-1,-6.708025E-1,3.0533093E-1,-3.0472213E-1,-5.6583184E-1,-7.9073054E-1,3.52119E-1,-8.186263E-1,-6.3444424E-1,1.0327792E-1,2.5938222E-1,-5.839047E-1,-8.2262874E-1,-4.4307086E-1,-7.966674E-3,3.5912715E-2,-7.2079845E-2,-1.0629573E-2,1.1148292E-3,-5.9015665E-2,-8.357144E-2,1.6022485E-2,-1.8922174E-2,7.382046E-2,-2.828427E-2,-4.9138155E-2,-4.856481E-2,-6.9632046E-2,1.7323108E-2,-5.7814155E-2],"categories":[],"categories_nodes":[],"categories_segments":[],"categories_sizes":[],"default_left":[0,0,0,0,0,0,0,0,0,0,0,0,0,0,0,0,0,0,0,0,0,0,0,0,0,0,0,0,0,0,0],"id":29,"left_children":[1,3,5,7,9,11,13,15,17,19,21,23,25,27,29,-1,-1,-1,-1,-1,-1,-1,-1,-1,-1,-1,-1,-1,-1,-1,-1],"loss_changes":[9.2339636E2,4.4132953E2,2.036676E1,2.6962573E2,2.0767453E2,1.3352997E1,8.165558E0,2.150473E2,1.145929E1,5.715851E1,7.7110245E1,6.686898E0,5.835266E0,6.7151184E0,1.2478365E1,0E0,0E0,0E0,0E0,0E0,0E0,0E0,0E0,0E0,0E0,0E0,0E0,0E0,0E0,0E0,0E0],"parents":[2147483647,0,0,1,1,2,2,3,3,4,4,5,5,6,6,7,7,8,8,9,9,10,10,11,11,12,12,13,13,14,14],"right_children":[2,4,6,8,10,12,14,16,18,20,22,24,26,28,30,-1,-1,-1,-1,-1,-1,-1,-1,-1,-1,-1,-1,-1,-1,-1,-1],"split_conditions":[1E0,3.4978894E3,5.3803406E0,2.1100406E2,1.0766829E4,2.7079956E2,8.962398E0,2.01E2,1.3153442E1,1.3469543E0,2.1184496E2,4.368561E0,1.6827698E0,1.3251791E3,1.2382739E0,-7.966674E-3,3.5912715E-2,-7.2079845E-2,-1.0629573E-2,1.1148292E-3,-5.9015665E-2,-8.357144E-2,1.6022485E-2,-1.8922174E-2,7.382046E-2,-2.828427E-2,-4.9138155E-2,-4.856481E-2,-6.9632046E-2,1.7323108E-2,-5.7814155E-2],"split_indices":[6,5,3,0,5,5,1,0,3,3,0,3,3,5,4,0,0,0,0,0,0,0,0,0,0,0,0,0,0,0,0],"split_type":[0,0,0,0,0,0,0,0,0,0,0,0,0,0,0,0,0,0,0,0,0,0,0,0,0,0,0,0,0,0,0],"sum_hessian":[8.315299E3,6.6629287E3,1.6523705E3,5.120673E3,1.5422559E3,8.841819E2,7.681886E2,4.9166875E3,2.0398509E2,8.526436E2,6.896123E2,1.8663126E1,8.6551874E2,7.0237836E2,6.581027E1,8.676204E2,4.0490671E3,1.8183011E2,2.2154982E1,1.1724648E2,7.353971E2,5.297264E1,6.3663965E2,1.1047752E1,7.615374E0,1.0215217E2,7.633666E2,1.2990309E2,5.724752E2,1.9658976E1,4.6151295E1],"tree_param":{"num_deleted":"0","num_feature":"11","num_nodes":"31","size_leaf_vector":"1"}},{"base_weights":[-1.291756E-3,1.5352978E-1,-6.39832E-1,2.559328E-1,-4.1155857E-1,-5.3726375E-1,-7.5856817E-1,3.727601E-1,-3.495005E-2,-1.2109873E-1,-6.917687E-1,-6.603733E-1,-4.319162E-1,-7.9260236E-1,-4.007478E-1,3.370508E-2,-1.6356545E-2,4.5144252E-2,-1.5216264E-2,1.3507222E-2,-4.5470003E-2,-4.1143607E-2,-8.0254085E-2,-2.1869931E-2,-5.4981504E-2,-3.5626978E-2,6.84155E-2,-5.6687754E-2,-7.014863E-2,1.0595325E-2,-5.237627E-2],"categories":[],"categories_nodes":[],"categories_segments":[],"categories_sizes":[],"default_left":[0,0,0,0,0,0,0,0,0,0,0,0,0,0,0,0,0,0,0,0,0,0,0,0,0,0,0,0,0,0,0],"id":30,"left_children":[1,3,5,7,9,11,13,15,17,19,21,23,25,27,29,-1,-1,-1,-1,-1,-1,-1,-1,-1,-1,-1,-1,-1,-1,-1,-1],"loss_changes":[8.038038E2,3.787893E2,1.8915955E1,1.8830392E2,8.165924E1,1.0799988E1,8.608368E0,1.1087659E2,1.4790263E2,6.420634E1,2.7724045E1,3.8948517E0,8.387199E0,4.1086426E0,8.980577E0,0E0,0E0,0E0,0E0,0E0,0E0,0E0,0E0,0E0,0E0,0E0,0E0,0E0,0E0,0E0,0E0],"parents":[2147483647,0,0,1,1,2,2,3,3,4,4,5,5,6,6,7,7,8,8,9,9,10,10,11,11,12,12,13,13,14,14],"right_children":[2,4,6,8,10,12,14,16,18,20,22,24,26,28,30,-1,-1,-1,-1,-1,-1,-1,-1,-1,-1,-1,-1,-1,-1,-1,-1],"split_conditions":[1E0,5.006592E0,5.3803406E0,9.406433E-1,2.2988381E0,2.1193957E-2,8.962398E0,1.5593036E3,8.746033E-1,5.0808716E-1,7.8943787E0,1.3469543E0,3.68338E3,7.7013397E0,1.288893E0,3.370508E-2,-1.6356545E-2,4.5144252E-2,-1.5216264E-2,1.3507222E-2,-4.5470003E-2,-4.1143607E-2,-8.0254085E-2,-2.1869931E-2,-5.4981504E-2,-3.5626978E-2,6.84155E-2,-5.6687754E-2,-7.014863E-2,1.0595325E-2,-5.237627E-2],"split_indices":[6,3,3,10,1,9,1,7,3,10,3,3,7,3,4,0,0,0,0,0,0,0,0,0,0,0,0,0,0,0,0],"split_type":[0,0,0,0,0,0,0,0,0,0,0,0,0,0,0,0,0,0,0,0,0,0,0,0,0,0,0,0,0,0,0],"sum_hessian":[8.1287515E3,6.543068E3,1.5856836E3,5.539728E3,1.00333997E3,8.537289E2,7.3195465E2,3.9521462E3,1.5875817E3,4.9336276E2,5.0997723E2,3.912474E2,4.624815E2,6.672719E2,6.468276E1,3.6457485E3,3.0639767E2,3.261313E2,1.2614504E3,2.997061E2,1.9365668E2,3.2653424E2,1.8344298E2,2.614935E1,3.6509805E2,4.5835608E2,4.1254015E0,3.3884393E2,3.2842798E2,2.102289E1,4.365987E1],"tree_param":{"num_deleted":"0","num_feature":"11","num_nodes":"31","size_leaf_vector":"1"}},{"base_weights":[-2.6534887E-3,2.795977E-1,-2.7385983E-1,3.6760157E-1,-5.602425E-1,3.5974304E-3,-4.7679377E-1,1.4191005E-1,6.442776E-1,-6.1980504E-1,3.9399937E-1,2.0465375E-1,-6.6662526E-1,-7.586259E-1,-2.9727055E-2,7.431146E-2,-1.1371801E-3,6.0041994E-2,-7.836211E-2,-5.5028148E-2,1.9770714E-2,-5.7118457E-2,8.7162875E-2,-9.715804E-2,2.6375512E-2,9.8066464E-2,-5.6019858E-2,1.04202665E-1,-6.270276E-2,9.425446E-3,-6.0586855E-2],"categories":[],"categories_nodes":[],"categories_segments":[],"categories_sizes":[],"default_left":[0,0,0,0,0,0,0,0,0,0,0,0,0,0,0,0,0,0,0,0,0,0,0,0,0,0,0,0,0,0,0],"id":31,"left_children":[1,3,5,7,9,11,13,15,17,19,21,23,25,27,29,-1,-1,-1,-1,-1,-1,-1,-1,-1,-1,-1,-1,-1,-1,-1,-1],"loss_changes":[6.119253E2,2.897251E2,2.2954495E2,2.2135126E2,2.138398E1,2.3233553E2,2.9665125E2,2.4014343E2,2.755517E2,2.084526E1,1.8088957E1,2.357468E2,2.6174805E1,7.590784E1,9.79387E1,0E0,0E0,0E0,0E0,0E0,0E0,0E0,0E0,0E0,0E0,0E0,0E0,0E0,0E0,0E0,0E0],"parents":[2147483647,0,0,1,1,2,2,3,3,4,4,5,5,6,6,7,7,8,8,9,9,10,10,11,11,12,12,13,13,14,14],"right_children":[2,4,6,8,10,12,14,16,18,20,22,24,26,28,30,-1,-1,-1,-1,-1,-1,-1,-1,-1,-1,-1,-1,-1,-1,-1,-1],"split_conditions":[1.3251791E3,5.958084E0,2.0778918E2,2.0682083E2,4.702053E0,4.6209634E3,9.255326E3,1.97E2,1.6256866E0,1.088434E3,1.8587857E2,2E2,1.9911821E2,7.481919E-3,3.9804535E0,7.431146E-2,-1.1371801E-3,6.0041994E-2,-7.836211E-2,-5.5028148E-2,1.9770714E-2,-5.7118457E-2,8.7162875E-2,-9.715804E-2,2.6375512E-2,9.8066464E-2,-5.6019858E-2,1.04202665E-1,-6.270276E-2,9.425446E-3,-6.0586855E-2],"split_indices":[5,3,0,0,9,5,5,0,10,7,5,0,0,9,3,0,0,0,0,0,0,0,0,0,0,0,0,0,0,0,0],"split_type":[0,0,0,0,0,0,0,0,0,0,0,0,0,0,0,0,0,0,0,0,0,0,0,0,0,0,0,0,0,0,0],"sum_hessian":[7.991975E3,3.916228E3,4.075747E3,3.5452917E3,3.709363E2,1.7221522E3,2.353595E3,1.9533821E3,1.5919097E3,3.494731E2,2.1463192E1,1.3252827E3,3.9686945E2,1.4431389E3,9.10456E2,3.2254904E2,1.630833E3,1.4946508E3,9.725891E1,3.2423053E2,2.5242575E1,8.267177E0,1.3196015E1,1.06610146E2,1.2186726E3,6.30904E0,3.905604E2,1.6790304E1,1.4263486E3,7.5765594E2,1.5280006E2],"tree_param":{"num_deleted":"0","num_feature":"11","num_nodes":"31","size_leaf_vector":"1"}},{"base_weights":[-1.6108584E-3,1.5174279E-1,-4.5119077E-1,3.814467E-1,-1.1977474E-1,9.166169E-2,-6.035734E-1,-9.712909E-2,5.17251E-1,3.685387E-1,-1.9277246E-1,2.4542937E-1,-5.698264E-1,-2.5524253E-1,-7.188015E-1,7.0295915E-2,-6.992695E-2,4.6648692E-2,-3.0610016E-2,6.799121E-2,1.047456E-2,-8.7453805E-2,-1.2028759E-2,1.340719E-4,6.8584934E-2,-5.8693975E-2,2.3517128E-2,-9.916722E-2,-2.542194E-3,-5.91186E-2,5.0324116E-2],"categories":[],"categories_nodes":[],"categories_segments":[],"categories_sizes":[],"default_left":[0,0,0,0,0,0,0,0,0,0,0,0,0,0,0,0,0,0,0,0,0,0,0,0,0,0,0,0,0,0,0],"id":32,"left_children":[1,3,5,7,9,11,13,15,17,19,21,23,25,27,29,-1,-1,-1,-1,-1,-1,-1,-1,-1,-1,-1,-1,-1,-1,-1,-1],"loss_changes":[5.3895776E2,3.635905E2,1.645286E2,2.0528796E2,9.5320435E1,4.455523E1,6.2134888E1,5.306309E2,1.460116E2,3.967284E1,8.86342E1,5.2946495E1,1.191477E1,8.519566E1,3.2184692E1,0E0,0E0,0E0,0E0,0E0,0E0,0E0,0E0,0E0,0E0,0E0,0E0,0E0,0E0,0E0,0E0],"parents":[2147483647,0,0,1,1,2,2,3,3,4,4,5,5,6,6,7,7,8,8,9,9,10,10,11,11,12,12,13,13,14,14],"right_children":[2,4,6,8,10,12,14,16,18,20,22,24,26,28,30,-1,-1,-1,-1,-1,-1,-1,-1,-1,-1,-1,-1,-1,-1,-1,-1],"split_conditions":[4.635193E0,1.4198677E3,4.1244397E2,2.017649E2,1.0498047E0,7.1286774E0,2.060819E2,1.97E2,4.105075E0,2.0355583E2,2.005E2,2.087192E2,2.4309628E0,1.2134155E3,4.229674E0,7.0295915E-2,-6.992695E-2,4.6648692E-2,-3.0610016E-2,6.799121E-2,1.047456E-2,-8.7453805E-2,-1.2028759E-2,1.340719E-4,6.8584934E-2,-5.8693975E-2,2.3517128E-2,-9.916722E-2,-2.542194E-3,-5.91186E-2,5.0324116E-2],"split_indices":[3,5,5,0,3,3,0,0,1,0,0,0,9,5,9,0,0,0,0,0,0,0,0,0,0,0,0,0,0,0,0],"split_type":[0,0,0,0,0,0,0,0,0,0,0,0,0,0,0,0,0,0,0,0,0,0,0,0,0,0,0,0,0,0,0],"sum_hessian":[7.8152515E3,5.8279688E3,1.9872828E3,3.1568596E3,2.6711091E3,4.3566287E2,1.55162E3,6.978642E2,2.4589954E3,3.4684744E2,2.3242617E3,3.5400162E2,8.1661255E1,3.864895E2,1.1651304E3,3.0928436E2,3.885798E2,2.2916338E3,1.6736177E2,1.1377713E2,2.3307033E2,1.034437E2,2.2208179E3,2.5387073E2,1.0013088E2,6.876768E1,1.2893579E1,7.066557E1,3.1582394E2,1.1483877E3,1.6742727E1],"tree_param":{"num_deleted":"0","num_feature":"11","num_nodes":"31","size_leaf_vector":"1"}},{"base_weights":[-3.4920587E-3,2.5963414E-1,-2.4422611E-1,3.9219016E-1,-1.6879597E-1,-7.6179236E-2,-5.385898E-1,-8.101037E-2,5.3573674E-1,1.0532032E-1,-5.755498E-1,-1.0436625E0,-3.913543E-2,-4.0913474E-2,-7.568994E-1,5.4617703E-2,-8.440863E-2,4.7770422E-2,-4.1322928E-2,2.0115167E-2,-4.117097E-2,-9.510477E-2,-3.075444E-2,-1.0785707E-1,5.090452E-3,3.357471E-2,-1.0443911E-2,3.4636546E-2,-6.0971063E-2,-6.493538E-2,-3.9404284E-2],"categories":[],"categories_nodes":[],"categories_segments":[],"categories_sizes":[],"default_left":[0,0,0,0,0,0,0,0,0,0,0,0,0,0,0,0,0,0,0,0,0,0,0,0,0,0,0,0,0,0,0],"id":33,"left_children":[1,3,5,7,9,11,13,15,17,19,21,23,25,27,29,-1,-1,-1,-1,-1,-1,-1,-1,-1,-1,-1,-1,-1,-1,-1,-1],"loss_changes":[4.8564737E2,2.0809668E2,1.9801463E2,1.9009006E2,9.664613E1,9.134661E1,1.5803778E2,4.8581906E2,1.3899615E2,4.7085403E1,4.04368E1,3.178321E1,1.0310404E2,1.5230017E2,1.4246948E1,0E0,0E0,0E0,0E0,0E0,0E0,0E0,0E0,0E0,0E0,0E0,0E0,0E0,0E0,0E0,0E0],"parents":[2147483647,0,0,1,1,2,2,3,3,4,4,5,5,6,6,7,7,8,8,9,9,10,10,11,11,12,12,13,13,14,14],"right_children":[2,4,6,8,10,12,14,16,18,20,22,24,26,28,30,-1,-1,-1,-1,-1,-1,-1,-1,-1,-1,-1,-1,-1,-1,-1,-1],"split_conditions":[1.2855096E3,4.368561E0,4.009613E0,2.015912E2,4.1244397E2,2E2,2.0655006E2,1.9730359E2,2.3169708E0,6.66951E0,2.0565598E2,2.7161255E0,2.0371437E2,2.4145422E3,1.416636E3,5.4617703E-2,-8.440863E-2,4.7770422E-2,-4.1322928E-2,2.0115167E-2,-4.117097E-2,-9.510477E-2,-3.075444E-2,-1.0785707E-1,5.090452E-3,3.357471E-2,-1.0443911E-2,3.4636546E-2,-6.0971063E-2,-6.493538E-2,-3.9404284E-2],"split_indices":[5,3,3,0,5,0,0,0,10,3,0,10,0,5,7,0,0,0,0,0,0,0,0,0,0,0,0,0,0,0,0],"split_type":[0,0,0,0,0,0,0,0,0,0,0,0,0,0,0,0,0,0,0,0,0,0,0,0,0,0,0,0,0,0,0],"sum_hessian":[7.6648916E3,3.6620898E3,4.002802E3,2.7968354E3,8.6525446E2,2.5489255E3,1.4538765E3,6.510589E2,2.1457766E3,5.173483E2,3.4790616E2,9.299429E1,2.4559312E3,4.436602E2,1.01021625E3,3.6510278E2,2.8595615E2,2.0278942E3,1.17882355E2,4.191518E2,9.8196495E1,8.142168E1,2.664845E2,7.276372E1,2.0230576E1,4.074219E2,2.0485093E3,2.6798453E2,1.7567566E2,8.350574E2,1.7515889E2],"tree_param":{"num_deleted":"0","num_feature":"11","num_nodes":"31","size_leaf_vector":"1"}},{"base_weights":[-8.347418E-4,1.2661749E-1,-5.6848145E-1,1.9211736E-1,-5.49559E-1,-6.0030746E-1,-2.0473722E-1,2.9678103E-1,-1.7340149E-1,7.140388E-1,-6.4897126E-1,-1.9818853E-1,-6.157947E-1,2.1916926E-3,-6.165195E-1,2.5438147E-2,-1.3025628E-1,-4.6270285E-2,1.2817121E-2,6.2121436E-2,-6.183954E-2,4.577705E-2,-5.953534E-2,1.4272121E-2,-7.671545E-2,-5.1129732E-2,-3.223483E-2,-2.4815448E-2,3.35509E-2,7.0636654E-3,-6.2374763E-2],"categories":[],"categories_nodes":[],"categories_segments":[],"categories_sizes":[],"default_left":[0,0,0,0,0,0,0,0,0,0,0,0,0,0,0,0,0,0,0,0,0,0,0,0,0,0,0,0,0,0,0],"id":34,"left_children":[1,3,5,7,9,11,13,15,17,19,21,23,25,27,29,-1,-1,-1,-1,-1,-1,-1,-1,-1,-1,-1,-1,-1,-1,-1,-1],"loss_changes":[5.440442E2,2.720881E2,1.5839142E1,2.1426619E2,6.862227E1,7.770813E0,9.583381E0,1.7814151E2,1.685809E2,4.3212852E0,5.8978607E1,1.4059145E1,5.7996826E0,1.0013824E1,4.394432E0,0E0,0E0,0E0,0E0,0E0,0E0,0E0,0E0,0E0,0E0,0E0,0E0,0E0,0E0,0E0,0E0],"parents":[2147483647,0,0,1,1,2,2,3,3,4,4,5,5,6,6,7,7,8,8,9,9,10,10,11,11,12,12,13,13,14,14],"right_children":[2,4,6,8,10,12,14,16,18,20,22,24,26,28,30,-1,-1,-1,-1,-1,-1,-1,-1,-1,-1,-1,-1,-1,-1,-1,-1],"split_conditions":[1E0,3.9604883E0,1.1442277E0,3.4978894E3,1.985E2,4.198569E2,2.0995544E2,1.6683964E3,9.764106E3,7.196297E0,7.4853483E-3,2.1232153E2,1.6683964E3,8.501454E1,7.3324854E2,2.5438147E-2,-1.3025628E-1,-4.6270285E-2,1.2817121E-2,6.2121436E-2,-6.183954E-2,4.577705E-2,-5.953534E-2,1.4272121E-2,-7.671545E-2,-5.1129732E-2,-3.223483E-2,-2.4815448E-2,3.35509E-2,7.0636654E-3,-6.2374763E-2],"split_indices":[6,4,9,5,0,5,0,7,5,1,9,0,7,7,5,0,0,0,0,0,0,0,0,0,0,0,0,0,0,0,0],"split_type":[0,0,0,0,0,0,0,0,0,0,0,0,0,0,0,0,0,0,0,0,0,0,0,0,0,0,0,0,0,0,0],"sum_hessian":[7.517845E3,6.1400195E3,1.3778256E3,5.5984272E3,5.415926E2,1.2663732E3,1.114524E2,4.352351E3,1.246076E3,3.9050556E1,5.0254202E2,4.7476185E1,1.218897E3,7.483898E1,3.6613422E1,4.3057754E3,4.6575638E1,5.6250977E2,6.835663E2,3.7934505E1,1.1160489E0,3.5988407E1,4.6655362E2,3.226821E1,1.52079735E1,1.0967081E3,1.2218889E2,4.2941753E1,3.1897226E1,6.9689364E0,2.9644484E1],"tree_param":{"num_deleted":"0","num_feature":"11","num_nodes":"31","size_leaf_vector":"1"}},{"base_weights":[-7.7478884E-4,1.1974065E-1,-5.503908E-1,1.6290578E-1,-7.981818E-1,-4.8500592E-1,-7.2070295E-1,2.8707877E-1,-6.101464E-2,6.623464E-1,-8.293959E-1,-5.20612E-1,-1.3490996E-1,-7.5928277E-1,-9.641578E-3,-1.5990496E-2,3.043134E-2,2.6380898E-2,-1.5614165E-2,1.430222E-1,-1.849665E-2,-7.138408E-2,-3.662392E-2,-2.2630254E-2,-4.468504E-2,-4.038431E-2,1.2890421E-2,1.4215712E-2,-6.17886E-2,1.0116848E-1,-5.034498E-2],"categories":[],"categories_nodes":[],"categories_segments":[],"categories_sizes":[],"default_left":[0,0,0,0,0,0,0,0,0,0,0,0,0,0,0,0,0,0,0,0,0,0,0,0,0,0,0,0,0,0,0],"id":35,"left_children":[1,3,5,7,9,11,13,15,17,19,21,23,25,27,29,-1,-1,-1,-1,-1,-1,-1,-1,-1,-1,-1,-1,-1,-1,-1,-1],"loss_changes":[4.8802963E2,2.395625E2,1.4405823E1,1.6051575E2,1.2930069E1,1.1903076E1,1.0019882E1,1.6881027E2,1.0806176E2,6.687031E0,5.817169E0,7.704788E0,9.938793E0,4.384552E0,1.6449268E1,0E0,0E0,0E0,0E0,0E0,0E0,0E0,0E0,0E0,0E0,0E0,0E0,0E0,0E0,0E0,0E0],"parents":[2147483647,0,0,1,1,2,2,3,3,4,4,5,5,6,6,7,7,8,8,9,9,10,10,11,11,12,12,13,13,14,14],"right_children":[2,4,6,8,10,12,14,16,18,20,22,24,26,28,30,-1,-1,-1,-1,-1,-1,-1,-1,-1,-1,-1,-1,-1,-1,-1,-1],"split_conditions":[1E0,2.1687138E2,6.965744E0,1.615694E0,7.481919E-3,1.1442277E0,1.100237E1,2.0143935E2,1.8363342E0,-1.3272095E-1,1.5005406E3,1.997818E0,6.5718E1,2.8164858E1,1.1740745E0,-1.5990496E-2,3.043134E-2,2.6380898E-2,-1.5614165E-2,1.430222E-1,-1.849665E-2,-7.138408E-2,-3.662392E-2,-2.2630254E-2,-4.468504E-2,-4.038431E-2,1.2890421E-2,1.4215712E-2,-6.17886E-2,1.0116848E-1,-5.034498E-2],"split_indices":[6,0,3,1,9,9,1,0,3,2,7,3,7,7,4,0,0,0,0,0,0,0,0,0,0,0,0,0,0,0,0],"split_type":[0,0,0,0,0,0,0,0,0,0,0,0,0,0,0,0,0,0,0,0,0,0,0,0,0,0,0,0,0,0,0],"sum_hessian":[7.3659126E3,6.0418794E3,1.3240332E3,5.771307E3,2.7057217E2,9.595125E2,3.6452066E2,3.7123667E3,2.0589404E3,5.2385335E0,2.6533365E2,8.70493E2,8.901954E1,3.456965E2,1.8824163E1,5.967975E2,3.1155693E3,5.2584625E2,1.5330941E3,1.875542E0,3.3629916E0,2.2572151E2,3.961212E1,1.2099644E2,7.494966E2,3.9260036E1,4.9759502E1,4.584237E0,3.4111227E2,5.8185434E0,1.300562E1],"tree_param":{"num_deleted":"0","num_feature":"11","num_nodes":"31","size_leaf_vector":"1"}},{"base_weights":[-5.347643E-3,1.0660688E-1,-5.289058E-1,1.6432959E-1,-4.990332E-1,-4.322476E-1,-6.6108805E-1,2.573812E-1,-1.554246E-1,5.8060825E-2,-7.233493E-1,1.3763164E-1,-4.4980782E-1,-7.089048E-1,-3.055924E-1,-5.9165552E-2,2.3959199E-2,-4.015051E-2,1.282601E-2,3.2397423E-2,-1.865538E-2,-6.550147E-2,1.4572584E-2,-2.5851624E-2,5.895011E-2,-3.981042E-2,-1.6081354E-2,-3.7824146E-2,-6.1250575E-2,1.4233847E-2,-4.7686916E-2],"categories":[],"categories_nodes":[],"categories_segments":[],"categories_sizes":[],"default_left":[0,0,0,0,0,0,0,0,0,0,0,0,0,0,0,0,0,0,0,0,0,0,0,0,0,0,0,0,0,0,0],"id":36,"left_children":[1,3,5,7,9,11,13,15,17,19,21,23,25,27,29,-1,-1,-1,-1,-1,-1,-1,-1,-1,-1,-1,-1,-1,-1,-1,-1],"loss_changes":[4.251511E2,2.0898358E2,1.6039703E1,1.6238686E2,6.505072E1,7.476761E0,8.925568E0,1.776647E2,1.3469563E2,1.5276524E1,3.220047E1,6.565325E0,8.454926E0,5.9771423E0,9.309119E0,0E0,0E0,0E0,0E0,0E0,0E0,0E0,0E0,0E0,0E0,0E0,0E0,0E0,0E0,0E0,0E0],"parents":[2147483647,0,0,1,1,2,2,3,3,4,4,5,5,6,6,7,7,8,8,9,9,10,10,11,11,12,12,13,13,14,14],"right_children":[2,4,6,8,10,12,14,16,18,20,22,24,26,28,30,-1,-1,-1,-1,-1,-1,-1,-1,-1,-1,-1,-1,-1,-1,-1,-1],"split_conditions":[1E0,3.9604883E0,5.4768677E0,3.4978894E3,3.534038E2,3.3072894E2,8.148612E0,2.8164858E1,1.0132896E4,4.4838715E0,1.39186875E4,4.368561E0,7.8474893E3,1.3251791E3,1.4086486E0,-5.9165552E-2,2.3959199E-2,-4.015051E-2,1.282601E-2,3.2397423E-2,-1.865538E-2,-6.550147E-2,1.4572584E-2,-2.5851624E-2,5.895011E-2,-3.981042E-2,-1.6081354E-2,-3.7824146E-2,-6.1250575E-2,1.4233847E-2,-4.7686916E-2],"split_indices":[6,4,3,5,5,5,1,7,5,3,5,3,5,5,4,0,0,0,0,0,0,0,0,0,0,0,0,0,0,0,0],"split_type":[0,0,0,0,0,0,0,0,0,0,0,0,0,0,0,0,0,0,0,0,0,0,0,0,0,0,0,0,0,0,0],"sum_hessian":[7.251356E3,5.9745835E3,1.2767725E3,5.4553687E3,5.192149E2,7.3995264E2,5.368199E2,4.225811E3,1.2295576E3,1.4926158E2,3.6995334E2,2.1914848E1,7.180378E2,4.7229825E2,6.452163E1,1.7058348E2,4.0552275E3,5.859899E2,6.435677E2,6.7944046E1,8.131753E1,3.3477206E2,3.51813E1,1.264923E1,9.265619E0,6.014309E2,1.1660685E2,9.330246E1,3.789958E2,2.43611E1,4.0160534E1],"tree_param":{"num_deleted":"0","num_feature":"11","num_nodes":"31","size_leaf_vector":"1"}},{"base_weights":[1.2231844E-3,1.0381147E-1,-4.8855928E-1,2.7100468E-1,-9.8690115E-2,-5.0852853E-1,1.8515469E-1,3.5688922E-1,-9.014408E-2,3.124396E-1,-2.3880622E-1,-4.3227956E-1,-6.6317576E-1,-5.139206E-1,4.84465E-1,3.0354017E-2,-1.3066533E-1,-3.2665845E-2,9.093896E-3,3.1658635E-2,-5.603177E-2,6.180463E-3,-3.264543E-2,-5.3451113E-2,-2.9597906E-2,-5.870166E-2,-2.9825477E-2,2.2150595E-2,-7.481664E-2,5.069203E-2,-6.127489E-2],"categories":[],"categories_nodes":[],"categories_segments":[],"categories_sizes":[],"default_left":[0,0,0,0,0,0,0,0,0,0,0,0,0,0,0,0,0,0,0,0,0,0,0,0,0,0,0,0,0,0,0],"id":37,"left_children":[1,3,5,7,9,11,13,15,17,19,21,23,25,27,29,-1,-1,-1,-1,-1,-1,-1,-1,-1,-1,-1,-1,-1,-1,-1,-1],"loss_changes":[3.5946463E2,2.0029453E2,1.6762665E1,1.0053682E2,1.542181E2,1.39053955E1,7.8652334E0,1.1803906E2,4.0469574E1,5.769243E1,1.0682534E2,1.1641159E1,7.8350067E0,4.056123E0,5.335774E0,0E0,0E0,0E0,0E0,0E0,0E0,0E0,0E0,0E0,0E0,0E0,0E0,0E0,0E0,0E0,0E0],"parents":[2147483647,0,0,1,1,2,2,3,3,4,4,5,5,6,6,7,7,8,8,9,9,10,10,11,11,12,12,13,13,14,14],"right_children":[2,4,6,8,10,12,14,16,18,20,22,24,26,28,30,-1,-1,-1,-1,-1,-1,-1,-1,-1,-1,-1,-1,-1,-1,-1,-1],"split_conditions":[1E0,1.3208425E0,3.6617713E0,4.6209634E3,4.4631403E2,6.343521E0,5.2345634E-1,1.6683964E3,1.0958378E4,3.421761E-2,2.2112274E0,8.587067E-3,6.8840876E0,8.395348E-2,9.752472E0,3.0354017E-2,-1.3066533E-1,-3.2665845E-2,9.093896E-3,3.1658635E-2,-5.603177E-2,6.180463E-3,-3.264543E-2,-5.3451113E-2,-2.9597906E-2,-5.870166E-2,-2.9825477E-2,2.2150595E-2,-7.481664E-2,5.069203E-2,-6.127489E-2],"split_indices":[6,1,9,5,5,3,4,7,5,8,3,9,1,4,3,0,0,0,0,0,0,0,0,0,0,0,0,0,0,0,0],"split_type":[0,0,0,0,0,0,0,0,0,0,0,0,0,0,0,0,0,0,0,0,0,0,0,0,0,0,0,0,0,0,0],"sum_hessian":[7.152093E3,5.9141265E3,1.2379663E3,3.2392979E3,2.6748286E3,1.2025668E3,3.5399544E1,2.6169697E3,6.223281E2,6.7957745E2,1.9952512E3,8.079846E2,3.9458215E2,1.0397624E1,2.500192E1,2.5884688E3,2.8501059E1,2.4260118E2,3.7972693E2,6.2850037E2,5.107714E1,6.960542E2,1.299197E3,1.6680771E2,6.411769E2,3.1618137E2,7.8400795E1,3.7330496E0,6.6645746E0,2.277757E1,2.2243497E0],"tree_param":{"num_deleted":"0","num_feature":"11","num_nodes":"31","size_leaf_vector":"1"}},{"base_weights":[-8.446064E-3,1.0985593E-1,-3.4650093E-1,3.8552946E-1,-2.3937829E-2,-1.6739924E-1,-7.1418697E-1,1.7171383E-2,6.703166E-1,-1.4776229E0,3.0504521E-2,4.978273E-2,-4.7936472E-1,-4.7706124E-1,-7.698629E-1,6.68793E-2,-3.5294615E-2,5.6451365E-2,-1.3842979E-1,-1.9982584E-1,-6.1779283E-2,2.0736797E-2,-1.0128841E-2,-8.756622E-3,3.846008E-2,-4.640161E-2,8.1541445E-3,-6.530122E-2,-8.2931435E-3,-6.368889E-2,-1.3866818E-2],"categories":[],"categories_nodes":[],"categories_segments":[],"categories_sizes":[],"default_left":[0,0,0,0,0,0,0,0,0,0,0,0,0,0,0,0,0,0,0,0,0,0,0,0,0,0,0,0,0,0,0],"id":38,"left_children":[1,3,5,7,9,11,13,15,17,19,21,23,25,27,29,-1,-1,-1,-1,-1,-1,-1,-1,-1,-1,-1,-1,-1,-1,-1,-1],"loss_changes":[2.8169318E2,1.9245804E2,1.20123505E2,1.7884564E2,2.78134E2,8.3302505E1,7.5247498E0,2.797615E2,8.2764404E1,8.9367645E1,1.2177152E2,4.9846348E1,2.9582253E1,1.4645248E1,7.416626E0,0E0,0E0,0E0,0E0,0E0,0E0,0E0,0E0,0E0,0E0,0E0,0E0,0E0,0E0,0E0,0E0],"parents":[2147483647,0,0,1,1,2,2,3,3,4,4,5,5,6,6,7,7,8,8,9,9,10,10,11,11,12,12,13,13,14,14],"right_children":[2,4,6,8,10,12,14,16,18,20,22,24,26,28,30,-1,-1,-1,-1,-1,-1,-1,-1,-1,-1,-1,-1,-1,-1,-1,-1],"split_conditions":[4.4838715E0,6.527391E2,2.115177E2,2.0371437E2,2E2,7.088318E-1,1.3251791E3,1.97E2,3.3287964E0,1.9177168E3,1.8981476E0,2.0899042E2,6.1741585E-1,7.833454E2,1.0325094E1,6.68793E-2,-3.5294615E-2,5.6451365E-2,-1.3842979E-1,-1.9982584E-1,-6.1779283E-2,2.0736797E-2,-1.0128841E-2,-8.756622E-3,3.846008E-2,-4.640161E-2,8.1541445E-3,-6.530122E-2,-8.2931435E-3,-6.368889E-2,-1.3866818E-2],"split_indices":[3,5,0,0,0,10,5,0,10,5,3,0,9,5,1,0,0,0,0,0,0,0,0,0,0,0,0,0,0,0,0],"split_type":[0,0,0,0,0,0,0,0,0,0,0,0,0,0,0,0,0,0,0,0,0,0,0,0,0,0,0,0,0,0,0],"sum_hessian":[7.041688E3,5.216762E3,1.8249261E3,1.7039662E3,3.512796E3,1.2281456E3,5.967805E2,7.4343286E2,9.605334E2,1.2586581E2,3.38693E3,7.24564E2,5.0358157E2,1.15296616E2,4.814839E2,2.6650858E2,4.7692426E2,9.473002E2,1.3233211E1,5.0412563E1,7.545325E1,1.3789718E3,2.0079583E3,5.296188E2,1.949453E2,4.2925476E2,7.432681E1,5.9792984E1,5.550363E1,4.6087024E2,2.0613623E1],"tree_param":{"num_deleted":"0","num_feature":"11","num_nodes":"31","size_leaf_vector":"1"}},{"base_weights":[-1.7717294E-4,9.2351496E-2,-4.587058E-1,1.2644735E-1,-7.920796E-1,1.3754189E-1,-4.8295575E-1,7.975584E-1,9.466177E-2,-8.3338886E-1,3.8723537E-1,3.7760314E-1,-7.6049864E-2,-5.702919E-1,-3.7067115E-1,6.530475E-2,-4.045731E-2,-5.109063E-2,1.49803E-2,6.143354E-2,-6.7639075E-2,8.581597E-2,-2.8996298E-2,-6.791879E-2,4.3343306E-2,-3.512189E-2,-5.250241E-2,1.257398E-2,-3.3204705E-2],"categories":[],"categories_nodes":[],"categories_segments":[],"categories_sizes":[],"default_left":[0,0,0,0,0,0,0,0,0,0,0,0,0,0,0,0,0,0,0,0,0,0,0,0,0,0,0,0,0],"id":39,"left_children":[1,3,5,7,9,11,13,15,17,19,21,23,-1,25,27,-1,-1,-1,-1,-1,-1,-1,-1,-1,-1,-1,-1,-1,-1],"loss_changes":[2.955725E2,1.7490623E2,1.6980103E1,1.1900885E2,1.0812256E1,1.2504577E1,1.0813812E1,6.5787506E0,3.6209375E2,4.68602E0,4.4843E0,8.275358E0,0E0,6.829071E0,1.16568985E1,0E0,0E0,0E0,0E0,0E0,0E0,0E0,0E0,0E0,0E0,0E0,0E0,0E0,0E0],"parents":[2147483647,0,0,1,1,2,2,3,3,4,4,5,5,6,6,7,7,8,8,9,9,10,10,11,11,13,13,14,14],"right_children":[2,4,6,8,10,12,14,16,18,20,22,24,-1,26,28,-1,-1,-1,-1,-1,-1,-1,-1,-1,-1,-1,-1,-1,-1],"split_conditions":[1E0,2.1713388E2,3.3072894E2,1.968198E2,1.39186875E4,2.1494063E2,2.932524E-2,1.0320712E3,2.01E2,7.481919E-3,1.1003113E-1,5.666572E-1,-7.6049864E-2,2.0844589E2,3.6068745E-2,6.530475E-2,-4.045731E-2,-5.109063E-2,1.49803E-2,6.143354E-2,-6.7639075E-2,8.581597E-2,-2.8996298E-2,-6.791879E-2,4.3343306E-2,-3.512189E-2,-5.250241E-2,1.257398E-2,-3.3204705E-2],"split_indices":[6,0,5,0,5,0,9,5,0,9,10,4,0,0,9,0,0,0,0,0,0,0,0,0,0,0,0,0,0],"split_type":[0,0,0,0,0,0,0,0,0,0,0,0,0,0,0,0,0,0,0,0,0,0,0,0,0,0,0,0,0],"sum_hessian":[6.964607E3,5.795836E3,1.1687708E3,5.581519E3,2.1431702E2,4.5494617E1,1.1232761E3,2.5131154E2,5.3302075E3,2.0734734E2,6.9696727E0,3.7806973E1,7.6876445E0,6.295368E2,4.937393E2,2.4811539E2,3.1961386E0,5.969202E2,4.733287E3,1.0865226E0,2.0626082E2,3.4157166E0,3.5539563E0,3.9709206E0,3.3836052E1,2.5158182E2,3.77955E2,3.8101826E1,4.5563745E2],"tree_param":{"num_deleted":"0","num_feature":"11","num_nodes":"29","size_leaf_vector":"1"}},{"base_weights":[3.5439553E-3,9.16638E-2,-4.414879E-1,1.4545143E-1,-4.356617E-1,-6.2402356E-1,-3.6933452E-1,2.3107868E-1,-1.4664473E-1,4.653124E-2,-6.7890584E-1,-6.852719E-1,-4.4117847E-1,2.7960485E-1,-4.0129915E-1,-1.1678204E-2,2.5176337E-2,-3.5271708E-2,1.3020102E-2,5.5984773E-2,-1.0762897E-2,-1.5282378E-1,-4.4969376E-2,-4.9687658E-2,-6.980549E-2,6.0417995E-2,-3.7461743E-2,3.8295757E-2,-7.160903E-2,-4.7662607E-3,-3.6197335E-2],"categories":[],"categories_nodes":[],"categories_segments":[],"categories_sizes":[],"default_left":[0,0,0,0,0,0,0,0,0,0,0,0,0,0,0,0,0,0,0,0,0,0,0,0,0,0,0,0,0,0,0],"id":40,"left_children":[1,3,5,7,9,11,13,15,17,19,21,23,25,27,29,-1,-1,-1,-1,-1,-1,-1,-1,-1,-1,-1,-1,-1,-1,-1,-1],"loss_changes":[2.6957E2,1.6280762E2,1.4733093E1,1.3027948E2,6.235254E1,3.2860107E0,1.7053497E1,1.2703429E2,1.07599846E2,2.1279104E1,4.972664E1,2.3213348E0,3.050766E0,9.533253E0,1.3590179E1,0E0,0E0,0E0,0E0,0E0,0E0,0E0,0E0,0E0,0E0,0E0,0E0,0E0,0E0,0E0,0E0],"parents":[2147483647,0,0,1,1,2,2,3,3,4,4,5,5,6,6,7,7,8,8,9,9,10,10,11,11,12,12,13,13,14,14],"right_children":[2,4,6,8,10,12,14,16,18,20,22,24,26,28,30,-1,-1,-1,-1,-1,-1,-1,-1,-1,-1,-1,-1,-1,-1,-1,-1],"split_conditions":[1E0,3.8333333E0,1.0332416E-2,3.5662761E3,4.1244397E2,2.2851562E0,3.534038E2,2.01E2,1.0766829E4,1.985E2,2.045E2,2.1479794E2,1.9946698E2,2.1494063E2,2.0810394E0,-1.1678204E-2,2.5176337E-2,-3.5271708E-2,1.3020102E-2,5.5984773E-2,-1.0762897E-2,-1.5282378E-1,-4.4969376E-2,-4.9687658E-2,-6.980549E-2,6.0417995E-2,-3.7461743E-2,3.8295757E-2,-7.160903E-2,-4.7662607E-3,-3.6197335E-2],"split_indices":[6,4,9,5,5,10,5,0,5,0,0,0,0,0,3,0,0,0,0,0,0,0,0,0,0,0,0,0,0,0,0],"split_type":[0,0,0,0,0,0,0,0,0,0,0,0,0,0,0,0,0,0,0,0,0,0,0,0,0,0,0,0,0,0,0],"sum_hessian":[6.8719243E3,5.7367886E3,1.1351357E3,5.2064507E3,5.3033795E2,3.1941702E2,8.157187E2,4.0263462E3,1.1801045E3,1.780972E2,3.5224072E2,2.3721004E2,8.220698E1,3.7929718E1,7.7778894E2,7.307496E2,3.2955967E3,6.0463763E2,5.754668E2,3.802843E1,1.4006877E2,2.91832E1,3.2305753E2,1.798884E2,5.732164E1,1.2252817E0,8.09817E1,3.293959E1,4.9901276E0,1.01576645E2,6.762123E2],"tree_param":{"num_deleted":"0","num_feature":"11","num_nodes":"31","size_leaf_vector":"1"}},{"base_weights":[6.7859795E-3,1.1674787E-1,-3.188118E-1,3.8082173E-1,-8.789039E-3,-1.6222319E-1,-6.6388905E-1,-4.185185E-1,4.952493E-1,-1.2788072E0,3.9626814E-2,3.484446E-2,-4.5493892E-1,1.382827E-1,-6.7797214E-1,5.1248867E-2,-7.692948E-2,1.7640106E-2,5.865401E-2,-1.364558E-1,-1.3844333E-2,2.0154037E-2,-8.537332E-3,8.5628545E-3,-8.161093E-2,-4.355728E-2,4.080079E-3,1.231075E-1,-3.404721E-2,-6.1006904E-2,-4.355173E-2],"categories":[],"categories_nodes":[],"categories_segments":[],"categories_sizes":[],"default_left":[0,0,0,0,0,0,0,0,0,0,0,0,0,0,0,0,0,0,0,0,0,0,0,0,0,0,0,0,0,0,0],"id":41,"left_children":[1,3,5,7,9,11,13,15,17,19,21,23,25,27,29,-1,-1,-1,-1,-1,-1,-1,-1,-1,-1,-1,-1,-1,-1,-1,-1],"loss_changes":[2.4250558E2,1.678547E2,9.229201E1,1.4943062E2,2.1112903E2,6.7943344E1,6.119934E0,1.1844406E2,9.3160675E1,5.9223495E1,1.0279198E2,5.3778763E1,2.1491959E1,8.579155E0,5.5117645E0,0E0,0E0,0E0,0E0,0E0,0E0,0E0,0E0,0E0,0E0,0E0,0E0,0E0,0E0,0E0,0E0],"parents":[2147483647,0,0,1,1,2,2,3,3,4,4,5,5,6,6,7,7,8,8,9,9,10,10,11,11,12,12,13,13,14,14],"right_children":[2,4,6,8,10,12,14,16,18,20,22,24,26,28,30,-1,-1,-1,-1,-1,-1,-1,-1,-1,-1,-1,-1,-1,-1,-1,-1],"split_conditions":[4.4838715E0,6.527391E2,2.115177E2,6.638521E1,2E2,7.088318E-1,-2.5611572E0,1.968198E2,2.045E2,2.0298157E0,1.8981476E0,2.9604E-2,6.1741585E-1,1.2382739E0,2.8518662E-2,5.1248867E-2,-7.692948E-2,1.7640106E-2,5.865401E-2,-1.364558E-1,-1.3844333E-2,2.0154037E-2,-8.537332E-3,8.5628545E-3,-8.161093E-2,-4.355728E-2,4.080079E-3,1.231075E-1,-3.404721E-2,-6.1006904E-2,-4.355173E-2],"split_indices":[3,5,0,5,0,10,2,0,0,10,3,8,9,4,9,0,0,0,0,0,0,0,0,0,0,0,0,0,0,0,0],"split_type":[0,0,0,0,0,0,0,0,0,0,0,0,0,0,0,0,0,0,0,0,0,0,0,0,0,0,0,0,0,0,0],"sum_hessian":[6.771226E3,5.0622344E3,1.708992E3,1.6304526E3,3.4317815E3,1.1765631E3,5.3242883E2,2.0384238E2,1.4266102E3,1.2508949E2,3.3066921E3,7.036915E2,4.7287164E2,9.034006E0,5.2339484E2,6.9034615E1,1.3480777E2,6.6296716E2,7.636431E2,8.985661E1,3.523288E1,1.3489972E3,1.957695E3,6.594637E2,4.4227844E1,4.0171176E2,7.115987E1,2.0968175E0,6.937188E0,3.1753897E2,2.0585585E2],"tree_param":{"num_deleted":"0","num_feature":"11","num_nodes":"31","size_leaf_vector":"1"}},{"base_weights":[-3.0097838E-3,1.395922E-1,-2.2837849E-1,1.8639542E-1,-3.7154067E-1,2.8696272E-1,-3.066903E-1,-4.8310128E-1,2.0993851E-1,-2.654761E-1,-6.7996997E-1,3.9736313E-1,-5.4803616E-1,-3.596511E-1,2.2453962E-1,-5.2085374E-2,3.1187335E-2,2.0333659E-2,-1.5146036E-2,-5.5504456E-2,-1.233227E-2,-6.237502E-2,-1.8753259E-2,3.7284624E-2,-4.514931E-2,-7.421248E-2,3.0559301E-2,-1.7411787E-2,-4.1868657E-2,-1.0622082E-2,5.337135E-2],"categories":[],"categories_nodes":[],"categories_segments":[],"categories_sizes":[],"default_left":[0,0,0,0,0,0,0,0,0,0,0,0,0,0,0,0,0,0,0,0,0,0,0,0,0,0,0,0,0,0,0],"id":42,"left_children":[1,3,5,7,9,11,13,15,17,19,21,23,25,27,29,-1,-1,-1,-1,-1,-1,-1,-1,-1,-1,-1,-1,-1,-1,-1,-1],"loss_changes":[2.1499098E2,9.808425E1,1.04712814E2,5.9274094E1,1.1073879E1,3.1791014E1,6.341011E1,1.8997364E1,6.410742E1,1.2177898E1,3.7000809E0,2.0286568E1,1.4623662E1,4.747931E1,3.2458515E1,0E0,0E0,0E0,0E0,0E0,0E0,0E0,0E0,0E0,0E0,0E0,0E0,0E0,0E0,0E0,0E0],"parents":[2147483647,0,0,1,1,2,2,3,3,4,4,5,5,6,6,7,7,8,8,9,9,10,10,11,11,12,12,13,13,14,14],"right_children":[2,4,6,8,10,12,14,16,18,20,22,24,26,28,30,-1,-1,-1,-1,-1,-1,-1,-1,-1,-1,-1,-1,-1,-1,-1,-1],"split_conditions":[1.8512328E0,1E0,1.5262909E0,2.8164858E1,5.517639E0,4.2046356E0,1.8247005E0,2.7161255E0,3.3864312E0,9.137526E-3,4.630868E0,1.7172352E3,1.1442277E0,1.0580902E0,1.1763489E2,-5.2085374E-2,3.1187335E-2,2.0333659E-2,-1.5146036E-2,-5.5504456E-2,-1.233227E-2,-6.237502E-2,-1.8753259E-2,3.7284624E-2,-4.514931E-2,-7.421248E-2,3.0559301E-2,-1.7411787E-2,-4.1868657E-2,-1.0622082E-2,5.337135E-2],"split_indices":[1,6,3,7,3,10,9,10,4,9,4,7,9,10,7,0,0,0,0,0,0,0,0,0,0,0,0,0,0,0,0],"split_type":[0,0,0,0,0,0,0,0,0,0,0,0,0,0,0,0,0,0,0,0,0,0,0,0,0,0,0,0,0,0,0],"sum_hessian":[6.6876226E3,4.0961597E3,2.5914631E3,3.7531296E3,3.430299E2,3.4150168E2,2.2499614E3,1.26833534E2,3.6262961E3,2.5663678E2,8.639311E1,3.0208524E2,3.941645E1,2.046281E3,2.0368034E2,1.0658024E2,2.0253292E1,3.2649534E3,3.6134277E2,5.186121E1,2.0477557E2,6.9981E1,1.6412107E1,2.8242734E2,1.9657904E1,2.7992844E1,1.1423608E1,1.0970238E3,9.492572E2,1.1308561E2,9.059473E1],"tree_param":{"num_deleted":"0","num_feature":"11","num_nodes":"31","size_leaf_vector":"1"}},{"base_weights":[-2.4821805E-3,5.6373958E-2,-4.6270433E-1,1.5037511E-1,-1.6413541E-1,-1.0853745E-1,-6.2162185E-1,-1.7868155E-1,2.1673965E-1,4.193071E-1,-2.721876E-1,-5.469748E-1,4.2702687E-1,-4.840895E-1,-7.956381E-1,3.2507908E-2,-6.9190085E-2,2.5146462E-2,-6.465795E-4,-6.05133E-2,4.098913E-2,-2.9376443E-2,2.8844463E-2,-6.86431E-2,-1.3417071E-2,-1.0510102E-1,5.2209895E-2,-4.390714E-2,4.7479652E-2,-4.92135E-2,-7.0942305E-2],"categories":[],"categories_nodes":[],"categories_segments":[],"categories_sizes":[],"default_left":[0,0,0,0,0,0,0,0,0,0,0,0,0,0,0,0,0,0,0,0,0,0,0,0,0,0,0,0,0,0,0],"id":43,"left_children":[1,3,5,7,9,11,13,15,17,19,21,23,25,27,29,-1,-1,-1,-1,-1,-1,-1,-1,-1,-1,-1,-1,-1,-1,-1,-1],"loss_changes":[1.7983089E2,1.22036705E2,4.230104E1,9.017425E1,1.11054596E2,5.5265724E1,1.2045685E1,2.7866513E2,7.537387E1,3.051614E1,8.9437935E1,1.51111145E1,4.250885E1,2.0746223E1,3.2003174E0,0E0,0E0,0E0,0E0,0E0,0E0,0E0,0E0,0E0,0E0,0E0,0E0,0E0,0E0,0E0,0E0],"parents":[2147483647,0,0,1,1,2,2,3,3,4,4,5,5,6,6,7,7,8,8,9,9,10,10,11,11,12,12,13,13,14,14],"right_children":[2,4,6,8,10,12,14,16,18,20,22,24,26,28,30,-1,-1,-1,-1,-1,-1,-1,-1,-1,-1,-1,-1,-1,-1,-1,-1],"split_conditions":[6.274475E0,1.1074066E0,2.0700154E2,2.017649E2,8.746033E-1,5.624359E2,2.156308E2,1.985E2,8.14241E2,2.6554083E1,1.2643682E0,2.0494205E2,2.01E2,1.3153442E1,8.096909E0,3.2507908E-2,-6.9190085E-2,2.5146462E-2,-6.465795E-4,-6.05133E-2,4.098913E-2,-2.9376443E-2,2.8844463E-2,-6.86431E-2,-1.3417071E-2,-1.0510102E-1,5.2209895E-2,-4.390714E-2,4.7479652E-2,-4.92135E-2,-7.0942305E-2],"split_indices":[3,10,0,0,3,7,0,0,7,7,9,0,0,3,3,0,0,0,0,0,0,0,0,0,0,0,0,0,0,0,0],"split_type":[0,0,0,0,0,0,0,0,0,0,0,0,0,0,0,0,0,0,0,0,0,0,0,0,0,0,0,0,0,0,0],"sum_hessian":[6.6370723E3,5.8853003E3,7.5177216E2,4.12652E3,1.7587802E3,2.3336748E2,5.1840466E2,6.922803E2,3.4342397E3,2.7437485E2,1.4844053E3,1.2830768E2,1.0505981E2,2.9166855E2,2.2673611E2,3.7390613E2,3.1837415E2,2.394453E3,1.0397869E3,1.9600836E1,2.5477402E2,1.2909633E3,1.9344206E2,6.979805E1,5.8509624E1,1.1499772E1,9.3560036E1,2.7559906E2,1.6069483E1,7.868344E1,1.4805267E2],"tree_param":{"num_deleted":"0","num_feature":"11","num_nodes":"31","size_leaf_vector":"1"}},{"base_weights":[-7.4537243E-3,5.059331E-2,-4.6987915E-1,3.07037E-1,-4.639544E-2,-1.3661206E-1,-6.275894E-1,-4.0326253E-1,4.4448218E-1,-9.5383495E-1,-8.542522E-3,-5.4117477E-1,3.391834E-1,-6.8333644E-1,-9.774131E-2,4.471671E-2,-6.375138E-2,2.283972E-2,6.361363E-2,5.644477E-2,-1.0398961E-1,1.4444625E-2,-1.4097512E-2,3.1161781E-2,-6.267776E-2,-1.0850024E-1,4.566017E-2,1.531064E-2,-5.622205E-2,4.5149937E-2,-5.1078137E-2],"categories":[],"categories_nodes":[],"categories_segments":[],"categories_sizes":[],"default_left":[0,0,0,0,0,0,0,0,0,0,0,0,0,0,0,0,0,0,0,0,0,0,0,0,0,0,0,0,0,0,0],"id":44,"left_children":[1,3,5,7,9,11,13,15,17,19,21,23,25,27,29,-1,-1,-1,-1,-1,-1,-1,-1,-1,-1,-1,-1,-1,-1,-1,-1],"loss_changes":[1.7631036E2,1.4516592E2,3.841684E1,1.5654094E2,1.454709E2,4.5723747E1,1.4612274E1,9.8996796E1,7.461899E1,9.8295654E1,1.289775E2,2.922617E1,4.370057E1,7.7775574E0,1.7716358E1,0E0,0E0,0E0,0E0,0E0,0E0,0E0,0E0,0E0,0E0,0E0,0E0,0E0,0E0,0E0,0E0],"parents":[2147483647,0,0,1,1,2,2,3,3,4,4,5,5,6,6,7,7,8,8,9,9,10,10,11,11,12,12,13,13,14,14],"right_children":[2,4,6,8,10,12,14,16,18,20,22,24,26,28,30,-1,-1,-1,-1,-1,-1,-1,-1,-1,-1,-1,-1,-1,-1,-1,-1],"split_conditions":[6.274475E0,4.8465747E2,2.0700154E2,6.769989E1,2E2,5.624359E2,8.962398E0,1.968198E2,2.0716234E2,1.9730359E2,2.2829895E0,2.5538899E2,2.01E2,3.3849945E1,2.1374622E2,4.471671E-2,-6.375138E-2,2.283972E-2,6.361363E-2,5.644477E-2,-1.0398961E-1,1.4444625E-2,-1.4097512E-2,3.1161781E-2,-6.267776E-2,-1.0850024E-1,4.566017E-2,1.531064E-2,-5.622205E-2,4.5149937E-2,-5.1078137E-2],"split_indices":[3,5,0,7,0,7,1,0,0,0,3,5,0,7,0,0,0,0,0,0,0,0,0,0,0,0,0,0,0,0,0],"split_type":[0,0,0,0,0,0,0,0,0,0,0,0,0,0,0,0,0,0,0,0,0,0,0,0,0,0,0,0,0,0,0],"sum_hessian":[6.5664614E3,5.834911E3,7.315503E2,1.600619E3,4.234292E3,2.3558583E2,4.9596445E2,2.5919547E2,1.3414236E3,1.6858733E2,4.0657048E3,1.2724967E2,1.0833616E2,4.484879E2,4.747653E1,7.51275E1,1.8406796E2,9.242334E2,4.171902E2,2.8910318E1,1.3967702E2,1.9107462E3,2.1549585E3,2.615957E1,1.010901E2,1.2435144E1,